
\data\
ngram 1=6128
ngram 2=0
ngram 3=0

\1-grams:
-3.533967	</s>
-3.533967	<noise>
-99	<s>
-3.533967	<v-noise>
-3.533967	__Abraham_Solomon
-3.533967	__Admiralty_Greens
-3.533967	__Admiralty_Road
-3.533967	__Admiralty_West
-3.533967	__Ah_Hood_Road
-3.533967	__Aida_Street
-3.533967	__Airline_Road
-3.533967	__Airport_Cargo_Road
-3.533967	__Al_Islamiah
-3.533967	__Al_Islamic
-3.533967	__Alex_Josey
-3.533967	__Alexander_Laurie_Johnston
-3.533967	__Alexandra_Lane
-3.533967	__Alexandra_Road
-3.533967	__Aliman_Hassan
-3.533967	__Aljunied_Avenue
-3.533967	__Aljunied_Crescent
-3.533967	__Aljunied_Hussein
-3.533967	__Aljunied_Neighbourhood
-3.533967	__Aljunied_Road
-3.533967	__Alnwick_Road
-3.533967	__Amasalam_Chetty_Road
-3.533967	__Anak_Bukit
-3.533967	__Anchorvale_Drive
-3.533967	__Anchorvale_Street
-3.533967	__Ang_Mo_Kio
-3.533967	__Ang_Mo_Kio_Street
-3.533967	__Ang_Peng_Tiam
-3.533967	__Angsana_Avenue
-3.533967	__Angsana_Drive
-3.533967	__Ann_Siang_Hill
-3.533967	__Anthony_Road
-3.533967	__Arab_Street
-3.533967	__Arrival_Crescent
-3.533967	__Arts_Link
-3.533967	__Arumugam_Road
-3.533967	__Asia_Pacific
-3.533967	__Asia_Square
-3.533967	__Asimont_Lane
-3.533967	__Attap_Valley_Lane
-3.533967	__Au_Yun_Pak
-3.533967	__Auckland_Road_West
-3.533967	__Australian_International
-3.533967	__Ava_Road
-3.533967	__Avon_Road
-3.533967	__Baker_Street
-3.533967	__Bali_Lane
-3.533967	__Balmoral_Crescent
-3.533967	__Bao_Gong
-3.533967	__Bartley_Road
-3.533967	__Beach_Road
-3.533967	__Beatty_Road
-3.533967	__Bedok_Anchorvale_Crescent
-3.533967	__Bedok_Green
-3.533967	__Bedok_Lighthouse
-3.533967	__Bedok_North
-3.533967	__Bedok_Point
-3.533967	__Bedok_Points
-3.533967	__Bedok_Reservoir
-3.533967	__Bedok_Ria_Crescent
-3.533967	__Bedok_South
-3.533967	__Bedok_View
-3.533967	__Beeh_Low_See
-3.533967	__Begonia_Walk
-3.533967	__Belilios_Lane
-3.533967	__Belmont_Road
-3.533967	__Bernice_Ong
-3.533967	__Bethlehem_Bible_Presbyterian
-3.533967	__Binchang_Rise
-3.533967	__Bishan_Point
-3.533967	__Bishan_Street
-3.533967	__Blackmore_Drive
-3.533967	__Bliss_Hotel
-3.533967	__Blue_Cross
-3.533967	__Blue_Stars
-3.533967	__Bo_Seng_Avenue
-3.533967	__Boarding_House
-3.533967	__Boat_Quay
-3.533967	__Bodmin_Drive
-3.533967	__Bonham_Street
-3.533967	__Boon_Keng
-3.533967	__Boon_Lay
-3.533967	__Boon_Lay_Place
-3.533967	__Boon_Tat_Street
-3.533967	__Boon_Teck_Road
-3.533967	__Borthwick_Drive
-3.533967	__Boundary_Road
-3.533967	__Braddell_Road
-3.533967	__Brani_Drive
-3.533967	__Brani_Marine
-3.533967	__Brani_Way
-3.533967	__Bridport_Avenue
-3.533967	__Bright_Hill
-3.533967	__Bristol_Road
-3.533967	__Buangkok_View
-3.533967	__Bukit_Batok
-3.533967	__Bukit_Batok_Avenue
-3.533967	__Bukit_Batok_Avenue_West
-3.533967	__Bukit_Batok_Central
-3.533967	__Bukit_Batok_Central_Link
-3.533967	__Bukit_Batok_Crescent
-3.533967	__Bukit_Batok_East
-3.533967	__Bukit_Batok_East_Avenue
-3.533967	__Bukit_Batok_Road
-3.533967	__Bukit_Batok_Street
-3.533967	__Bukit_Batok_West
-3.533967	__Bukit_Batok_West_Avenue
-3.533967	__Bukit_Chandu
-3.533967	__Bukit_Ho_Swee_Link
-3.533967	__Bukit_Manis_Road
-3.533967	__Bukit_Merah
-3.533967	__Bukit_Merah_View
-3.533967	__Bukit_Mugliston
-3.533967	__Bukit_Sedap_Road
-3.533967	__Bukit_Teresa_Close
-3.533967	__Bukit_Timah
-3.533967	__Bukit_Timah_Avenue
-3.533967	__Bukit_Timah_Link
-3.533967	__Bukit_Timah_Plaza
-3.533967	__Bukit_Timah_Road
-3.533967	__Bukit_Tinggi_Road
-3.533967	__Burmah_Road
-3.533967	__Burmese_Buddhist
-3.533967	__Bury_Road
-3.533967	__Buyong_Road
-3.533967	__Canberra_View
-3.533967	__Canning_Lane
-3.533967	__Canning_Rise
-3.533967	__Cantonment_Complex
-3.533967	__Carisbrooke_Grove
-3.533967	__Carl_Alexander
-3.533967	__Carlton_Avenue
-3.533967	__Carnation_Drive
-3.533967	__Cashew_Crescent
-3.533967	__Cashew_Road
-3.533967	__Cassia_Crescent
-3.533967	__Ceylon_Road
-3.533967	__Chai_Chee
-3.533967	__Chai_Chee_Drive
-3.533967	__Chai_Chee_Street
-3.533967	__Chan_Chun_Sing
-3.533967	__Chan_Sek_Keong
-3.533967	__Chancery_Lane
-3.533967	__Chang_Ziang
-3.533967	__Changi_Business_Park_Vista
-3.533967	__Changi_Coast
-3.533967	__Changi_East_Drive
-3.533967	__Changi_East_Road
-3.533967	__Changi_South_Lane
-3.533967	__Changi_Village_Road
-3.533967	__Changkat_Changi
-3.533967	__Chatsworth_Road
-3.533967	__Cheang_Hong_Lim_Place
-3.533967	__Cheang_Hong_Lim_Street
-3.533967	__Chencharu_Lane
-3.533967	__Chencharu_Link
-3.533967	__Cheo_Kim_Ban
-3.533967	__Chestnut_Crescent
-3.533967	__Chew_Kheng_Chuan
-3.533967	__Chin_Bee_Road
-3.533967	__Chin_Cheng_Avenue
-3.533967	__Chin_Chew_Street
-3.533967	__Chin_Swee
-3.533967	__China_Street
-3.533967	__Chinatown_Complex
-3.533967	__Chinatown_Hotel
-3.533967	__Chinatown_Point
-3.533967	__Chinese_Garden
-3.533967	__Chinese_Garden_Road
-3.533967	__Choa_Chu_Kang
-3.533967	__Choa_Chu_Kang_Loop
-3.533967	__Choa_Chu_Kang_West
-3.533967	__Chong_Pang
-3.533967	__Chong_Pang_Combined
-3.533967	__Chong_You_Fook_Charles
-3.533967	__Chong_Zheng
-3.533967	__Choon_Guan_Street
-3.533967	__Choor_Singh_Sidhu
-3.533967	__Christalite_Methodist
-3.533967	__Christopher_Henry_Rothwell
-3.533967	__Chu_Siang_Tong
-3.533967	__Chuan_Hoe_Avenue
-3.533967	__Chuan_Walk
-3.533967	__Chulia_Street
-3.533967	__Chwee_Chian_View
-3.533967	__Circular_Road
-3.533967	__Claymore_Road
-3.533967	__Cleantech_View
-3.533967	__Clementi_Street
-3.533967	__Clive_Street
-3.533967	__Clunny_Hill
-3.533967	__Colchester_Grove
-3.533967	__College_Of_Medicine
-3.533967	__Collyer_Quay
-3.533967	__Compassvale_Drive
-3.533967	__Compassvale_Drive#1
-3.533967	__Compassvale_Drive#2
-3.533967	__Compassvale_Road
-3.533967	__Coney_Island
-3.533967	__Connexis_South
-3.533967	__Constance_Singam
-3.533967	__Cook_Street
-3.533967	__Copeland_Avenue
-3.533967	__Copthorne_King'S
-3.533967	__Corfe_Place
-3.533967	__Corporation_Road
-3.533967	__Countryside_Grove
-3.533967	__Countryside_View
-3.533967	__Court_Road
-3.533967	__Covenant_Community_Methodist
-3.533967	__Craig_Road
-3.533967	__Cranborne_Road
-3.533967	__Creek_Mangrove
-3.533967	__Croucher_Road
-3.533967	__Crowhurst_Drive
-3.533967	__Cuff_Road
-3.533967	__Cuscaden_Walk
-3.533967	__Da_Bo_Gong
-3.533967	__Daffodil_Drive
-3.533967	__Dahan_Road
-3.533967	__Dairy_Farm
-3.533967	__Dairy_Farm_Crescent
-3.533967	__Dalkeith_Road
-3.533967	__Darrell_Ang
-3.533967	__Dawson_North_Spring
-3.533967	__Dedap_Road
-3.533967	__Delta_Avenue
-3.533967	__Depot_Close
-3.533967	__Depot_Walk
-3.533967	__Devan_Nair
-3.533967	__Dimensions_International
-3.533967	__Dinding_Place
-3.533967	__Dock_Road_East
-3.533967	__Dock_Road_West
-3.533967	__Douglas_Hamilton
-3.533967	__Dover_Drive
-3.533967	__Drake_Avenue
-3.533967	__Drake_Lane
-3.533967	__Dunlop_Street
-3.533967	__Duxton_Road
-3.533967	__East_Avenue
-3.533967	__East_Coast_Avenue
-3.533967	__East_Spring
-3.533967	__Eastern_Health_Alliance
-3.533967	__Eau_Thermale_Avene
-3.533967	__Edgware_Road
-3.533967	__Edmund_Blundell
-3.533967	__Edmund_Chen
-3.533967	__Edwin_Browns
-3.533967	__Ee_Teow_Leng_Road
-3.533967	__Elias_Green
-3.533967	__Elias_Park_Avenue
-3.533967	__Ellice_Handy
-3.533967	__Empress_Road
-3.533967	__Eng_Hoon_Street
-3.533967	__Eng_Kong_Road
-3.533967	__Eng_Neo_Avenue
-3.533967	__Ernani_Street
-3.533967	__Esther_Tan
-3.533967	__Eu_Yee_Ming_Richard
-3.533967	__Eunos_Avenue
-3.533967	__Evolution_Garden_Walk
-3.533967	__Faber_Walk
-3.533967	__Fairway_Club
-3.533967	__Fairy_Point_Hill
-3.533967	__Faith_Methodist
-3.533967	__Faith_Sanctuary_Garden_Avenue
-3.533967	__Famous_Amos
-3.533967	__Fan_Yoong_Road
-3.533967	__Farrer_Garden
-3.533967	__Farrer_Park
-3.533967	__Fernvale_Lane
-3.533967	__Fire_Station
-3.533967	__Flint_Street
-3.533967	__Florence_Road
-3.533967	__Flower_Road
-3.533967	__Fo_Shan_Ting
-3.533967	__Foch_Road
-3.533967	__Folkestone_Road
-3.533967	__Fortune_Students
-3.533967	__Fourth_Street
-3.533967	__Francis_Thomas_Drive
-3.533967	__Fuk_Tak_Chi
-3.533967	__Fullerton_Bay
-3.533967	__Fulton_Avenue
-3.533967	__Fusionopolis_Walk
-3.533967	__Gallop_Park
-3.533967	__Gallop_Road
-3.533967	__Gambir_Walk
-3.533967	__Gan_Eng_Seng
-3.533967	__Gateway_Avenue
-3.533967	__Gateway_Inn
-3.533967	__George_Nigel
-3.533967	__Gerald_Crescent
-3.533967	__Geylang_Bahru
-3.533967	__Geylang_Bahru_Lane
-3.533967	__Geylang_Bahru_Terrace
-3.533967	__Geylang_East_Avenue
-3.533967	__Geylang_East_Central
-3.533967	__Geylang_Lorong
-3.533967	__Geylang_Lorong_Labang
-3.533967	__Geylang_Methodist
-3.533967	__Geylang_Methodist_School
-3.533967	__Geylang_Road
-3.533967	__Geylang_Serai
-3.533967	__Geylang_Square
-3.533967	__Geylang_United
-3.533967	__Giant_Spring
-3.533967	__Gibraltar_Crescent
-3.533967	__Gibson_Hill
-3.533967	__Gilstead_Road
-3.533967	__Giok_Hong_Tian
-3.533967	__Goldhill_Place
-3.533967	__Gopeng_Street
-3.533967	__Gordon_Arthur_Ransome
-3.533967	__Grace_Walk
-3.533967	__Great_World
-3.533967	__Green_Kiwi_Backpacker
-3.533967	__Green_Taipei
-3.533967	__Green_Zeng
-3.533967	__Greendale_Rise
-3.533967	__Greenfield_Drive
-3.533967	__Greenridge_Crescent
-3.533967	__Greenwich_Drive
-3.533967	__Grove_Crescent
-3.533967	__Guillemard_Lane
-3.533967	__Guillemard_Road
-3.533967	__Gul_Lane
-3.533967	__Gul_Street
-3.533967	__Guok_Avenue
-3.533967	__Gurkha_Contingent
-3.533967	__Hai_Sing_Crescent
-3.533967	__Haigsville_Drive
-3.533967	__Haji_Lane
-3.533967	__Halifax_Road
-3.533967	__Hamilton_Place
-3.533967	__Hampstead_Garden
-3.533967	__Hang_Chang_Chieh
-3.533967	__Happy_Hotel
-3.533967	__Harlyn_Road
-3.533967	__Harrison_Road
-3.533967	__Havelock_Road
-3.533967	__Hiang_Foo_Siang_Temple
-3.533967	__Hillview_Avenue
-3.533967	__Hilton_International
-3.533967	__Hindhede_Road
-3.533967	__Hindoo_Road
-3.533967	__Ho_Ching_Road
-3.533967	__Ho_Lee_Ling
-3.533967	__Ho_Ling
-3.533967	__Hock_Chuan
-3.533967	__Holland_Grove_Lane
-3.533967	__Holland_Hill
-3.533967	__Holland_Village
-3.533967	__Home_Team_Academy
-3.533967	__Hong_Kah
-3.533967	__Hong_San
-3.533967	__Hospital_Avenue
-3.533967	__Hougang_Avenue
-3.533967	__Hougang_One
-3.533967	__How_Sun_Drive
-3.533967	__How_Sun_Road
-3.533967	__How_Sun_Walk
-3.533967	__Hsu_Tse_Kwang
-3.533967	__Hubert_Hill
-3.533967	__Hume_Avenue
-3.533967	__Hussein_Aljunied
-3.533967	__Hwee_Kuan
-3.533967	__Hythe_Road
-3.533967	__Imbiah_Walk
-3.533967	__Inderjit_Singh
-3.533967	__Inggu_Road
-3.533967	__Institute_Of_Engineer_Singapore
-3.533967	__International_Student_Support
-3.533967	__Ipoh_Lane
-3.533967	__Iqbal_Avenue
-3.533967	__Irving_Place
-3.533967	__Jalan_Anak_Bukit
-3.533967	__Jalan_Azam'S
-3.533967	__Jalan_Baiduri
-3.533967	__Jalan_Bangsawan
-3.533967	__Jalan_Basong
-3.533967	__Jalan_Batu_Ubin
-3.533967	__Jalan_Bena
-3.533967	__Jalan_Berjaya
-3.533967	__Jalan_Berseri
-3.533967	__Jalan_Binja
-3.533967	__Jalan_Binjai
-3.533967	__Jalan_Boon_Lay
-3.533967	__Jalan_Bumbong
-3.533967	__Jalan_Bunga_Rampai
-3.533967	__Jalan_Bungar
-3.533967	__Jalan_Chengkek
-3.533967	__Jalan_Dondang_Sayang
-3.533967	__Jalan_Dua
-3.533967	__Jalan_Dusun
-3.533967	__Jalan_Enam
-3.533967	__Jalan_Gemala
-3.533967	__Jalan_Girang
-3.533967	__Jalan_Greja
-3.533967	__Jalan_Hajijah
-3.533967	__Jalan_Hari_Raya
-3.533967	__Jalan_Jeruju
-3.533967	__Jalan_Jong
-3.533967	__Jalan_Kampong_Chantek
-3.533967	__Jalan_Kampong_Siglap
-3.533967	__Jalan_Kayu_Manis
-3.533967	__Jalan_Kechil
-3.533967	__Jalan_Keli
-3.533967	__Jalan_Kemaman
-3.533967	__Jalan_Keruing
-3.533967	__Jalan_Kesoma
-3.533967	__Jalan_Khairuddin
-3.533967	__Jalan_Klapa
-3.533967	__Jalan_Kledek
-3.533967	__Jalan_Klinik
-3.533967	__Jalan_Kwok_Min
-3.533967	__Jalan_Lana
-3.533967	__Jalan_Langgar_Bedok
-3.533967	__Jalan_Lapang
-3.533967	__Jalan_Layang_Layang
-3.533967	__Jalan_Lembah_Bedok
-3.533967	__Jalan_Lempeng
-3.533967	__Jalan_Lengkok
-3.533967	__Jalan_Lengkok_Sembawang
-3.533967	__Jalan_Limau_Bali
-3.533967	__Jalan_Limau_Nipis
-3.533967	__Jalan_Limau_Purut
-3.533967	__Jalan_Limbok
-3.533967	__Jalan_Mamam
-3.533967	__Jalan_Mangkok
-3.533967	__Jalan_Manis
-3.533967	__Jalan_Mastuli
-3.533967	__Jalan_Membina
-3.533967	__Jalan_Mempurong
-3.533967	__Jalan_Mengkudu
-3.533967	__Jalan_Mesra
-3.533967	__Jalan_Minggu
-3.533967	__Jalan_Minyak
-3.533967	__Jalan_Noordin
-3.533967	__Jalan_Novena
-3.533967	__Jalan_Nuri
-3.533967	__Jalan_Paras
-3.533967	__Jalan_Pari_Kikis
-3.533967	__Jalan_Pelangi
-3.533967	__Jalan_Pelatina
-3.533967	__Jalan_Pelatok
-3.533967	__Jalan_Pelepah
-3.533967	__Jalan_Pelikat
-3.533967	__Jalan_Peradun
-3.533967	__Jalan_Pinang
-3.533967	__Jalan_Puteri
-3.533967	__Jalan_Rajah
-3.533967	__Jalan_Rebana
-3.533967	__Jalan_Remis
-3.533967	__Jalan_Rendang
-3.533967	__Jalan_Rukam
-3.533967	__Jalan_Sabit
-3.533967	__Jalan_Seh_Chuan
-3.533967	__Jalan_Selamat
-3.533967	__Jalan_Selimang
-3.533967	__Jalan_Senang
-3.533967	__Jalan_Sendudok
-3.533967	__Jalan_Senyum
-3.533967	__Jalan_Setia
-3.533967	__Jalan_Shaer
-3.533967	__Jalan_Siap
-3.533967	__Jalan_Simpang_Bedok
-3.533967	__Jalan_Sukachita
-3.533967	__Jalan_Sungei_Poyan
-3.533967	__Jalan_Tan_Tock_Seng
-3.533967	__Jalan_Tanah
-3.533967	__Jalan_Tanah_Rata
-3.533967	__Jalan_Tanjong
-3.533967	__Jalan_Tari_Lilin
-3.533967	__Jalan_Tari_Zapin
-3.533967	__Jalan_Tarum
-3.533967	__Jalan_Tenang
-3.533967	__Jalan_Tenteram
-3.533967	__Jalan_Tepong
-3.533967	__Jalan_Tiga_Ratus
-3.533967	__Jalan_Ulu_Seletar
-3.533967	__Jalan_Ulu_Sembawang
-3.533967	__Jalan_Wajek
-3.533967	__Jalan_Yasin
-3.533967	__Jalan_Zamrud
-3.533967	__Jamaica_Road
-3.533967	__Janet_Lim
-3.533967	__Janil_Puthucheary
-3.533967	__Jervois_Hill
-3.533967	__Ji_Huang_Kok
-3.533967	__Jiak_Chuan_Road
-3.533967	__Joan_Road
-3.533967	__Joanne_Soo
-3.533967	__John_Fearns_Nicolls
-3.533967	__John_Le_Cain
-3.533967	__John_Morrice
-3.533967	__Joo_Avenue
-3.533967	__Joo_Koon_Crescent
-3.533967	__Jula_Juli
-3.533967	__Junction_Nine
-3.533967	__Jupiter_Road
-3.533967	__Jupiter_Road#1
-3.533967	__Jupiter_Road#2
-3.533967	__Jurong_Bird
-3.533967	__Jurong_East_Avenue
-3.533967	__Jurong_Island
-3.533967	__Jurong_Port
-3.533967	__Jurong_West
-3.533967	__Jurong_West_Avenue
-3.533967	__Jurong_West_Central
-3.533967	__Kaki_Bukit
-3.533967	__Kallang_Airport_Drive
-3.533967	__Kampong_Ampat
-3.533967	__Kampong_Arang_Road
-3.533967	__Kampong_Bahru
-3.533967	__Kampong_Bahru_Road
-3.533967	__Kampong_Bugis
-3.533967	__Kampong_Bugis_Crescent
-3.533967	__Kampong_Bukit_Coffee
-3.533967	__Kampong_Chai_Chee
-3.533967	__Kampong_Eunos
-3.533967	__Kampong_Glam
-3.533967	__Kampong_Java
-3.533967	__Kampong_Kapor_Road
-3.533967	__Kampong_Kayu_Road
-3.533967	__Kampong_Kembangan
-3.533967	__Kampong_Sireh
-3.533967	__Kampong_Sungai_Tiga
-3.533967	__Kampong_Ubi
-3.533967	__Kampong_Wak_Hassan
-3.533967	__Kampung_Glam
-3.533967	__Kampung_Melayu
-3.533967	__Katmandu_Road
-3.533967	__Kay_Siang_Road
-3.533967	__Keat_Hong_Link
-3.533967	__Kebun_Baru
-3.533967	__Keck_Seng
-3.533967	__Keck_Seng#1
-3.533967	__Keck_Seng#2
-3.533967	__Kee_Seng_Street
-3.533967	__Kee_Sun_Avenue
-3.533967	__Keene_Road
-3.533967	__Keng_Lee_Road
-3.533967	__Kent_Ridge_Crescent
-3.533967	__Kent_Ridge_Drive
-3.533967	__Kent_Road
-3.533967	__Kenya_Crescent
-3.533967	__Keppel_Bay
-3.533967	__Keramat_Road
-3.533967	__Kerong_Walk
-3.533967	__Kew_Avenue
-3.533967	__Kew_Walk
-3.533967	__Khaw_Boon_Wan
-3.533967	__Kian_Teck_Road
-3.533967	__Kiew_Sian_King
-3.533967	__Kim_Chuan_Road
-3.533967	__Kim_Hong
-3.533967	__Kim_Keat
-3.533967	__Kim_Seng
-3.533967	__Kim_Seng_Road
-3.533967	__Kim_Tian_Place
-3.533967	__Kinara_Lane
-3.533967	__Kismis_Road
-3.533967	__Kitchener_Road
-3.533967	__Klang_Road
-3.533967	__Koh_Mui_Hiang
-3.533967	__Koh_Seow_Chuan
-3.533967	__Kouo_Shang_Wei
-3.533967	__Kranji_Commonwealth
-3.533967	__Kranji_Crescent
-3.533967	__Kreta_Ayer
-3.533967	__Kuang_Chee_Tng
-3.533967	__Kwan_Im_Tng
-3.533967	__Kwan_Imm_See
-3.533967	__Kwong_Min_Road
-3.533967	__Kwong_Wai_Siew
-3.533967	__La_Mode
-3.533967	__Lam_Pin_Min
-3.533967	__Lambeth_Walk
-3.533967	__Larkhill_Road
-3.533967	__Lau_Kuo_Kwong_Robert
-3.533967	__Lavender_Street
-3.533967	__Le_Peranakan
-3.533967	__Lee_Boon_Ngan
-3.533967	__Lee_Kong_Chian
-3.533967	__Lee_Kong_Yan
-3.533967	__Lee_Shih_Shiong_Peter
-3.533967	__Lempeng_Drive
-3.533967	__Leng_Chai_Chee
-3.533967	__Lengkok_Angsa
-3.533967	__Lengkok_Lima
-3.533967	__Lengkok_Satu
-3.533967	__Lengkok_Satu_Sago_Street
-3.533967	__Lengkong_Dua
-3.533967	__Lentor_Way
-3.533967	__Leo_Drive
-3.533967	__Lew_Lian_Vale
-3.533967	__Lewis_Road
-3.533967	__Li_Hui_Cheng
-3.533967	__Liane_Road
-3.533967	__Liang_Court
-3.533967	__Liao_Yingru
-3.533967	__Lichi_Avenue
-3.533967	__Lien_Ying_Chow_Drive
-3.533967	__Lilac_Road
-3.533967	__Lilliputt_Indoor_Mini_Golf
-3.533967	__Lily_Avenue
-3.533967	__Lim_Ah_Pin_Road
-3.533967	__Lim_Ah_Woo_Road
-3.533967	__Lim_Chong_Pang
-3.533967	__Lim_Chu_Kang
-3.533967	__Lim_Chu_Kang_Lane
-3.533967	__Lim_Lee
-3.533967	__Lim_Teck_Boo_Road
-3.533967	__Lim_Teck_Kim_Road
-3.533967	__Lim_Tua_Tow_Road
-3.533967	__Limau_Garden
-3.533967	__Lin_Tan
-3.533967	__Little_Road
-3.533967	__Lloyd_Road
-3.533967	__Loh_Lik_Peng
-3.533967	__Lornie_Walk
-3.533967	__Lorong_Abu_Talib
-3.533967	__Lorong_Bachok
-3.533967	__Lorong_Batawi
-3.533967	__Lorong_Buangkok
-3.533967	__Lorong_Gambas
-3.533967	__Lorong_Kembang
-3.533967	__Lorong_Kilat_Pek_Kio
-3.533967	__Lorong_Lew_Lian
-3.533967	__Lorong_Mesu
-3.533967	__Lorong_Pasu
-3.533967	__Lorong_Paya_Lebar
-3.533967	__Lorong_Pendek
-3.533967	__Lorong_Pisang_Asam
-3.533967	__Lorong_Pisang_Batu
-3.533967	__Lorong_Sarina_D'Leedon
-3.533967	__Lorong_Siglap
-3.533967	__Lorong_Sinaran
-3.533967	__Louis_Chen
-3.533967	__Lower_Seletar_Close
-3.533967	__Lower_Seletar_Reservoir
-3.533967	__Loyang_Street
-3.533967	__Lucy_Tan
-3.533967	__Lutheran_Road
-3.533967	__Macalister_Road
-3.533967	__Macpherson_Road
-3.533967	__Macritchie_Reservoir
-3.533967	__Maggie_Teng
-3.533967	__Mah_Bow_Tan
-3.533967	__Management_Development_Institute_Of_Singapore
-3.533967	__Mandai_Tekong
-3.533967	__Mandarin_Gardens
-3.533967	__Manila_Street
-3.533967	__Maple_Avenue
-3.533967	__Margate_Road
-3.533967	__Marina_Bay
-3.533967	__Marina_Bay_Sands
-3.533967	__Marina_One
-3.533967	__Marina_Promenade
-3.533967	__Marina_Way
-3.533967	__Marine_Parade
-3.533967	__Marine_Parade_Road
-3.533967	__Maris_Stella
-3.533967	__Maritime_Square
-3.533967	__Marshall_Lane
-3.533967	__Marsiling_Crescent
-3.533967	__Marsiling_Drive
-3.533967	__Marsiling_Neighbourhood
-3.533967	__Marsiling_Rise
-3.533967	__Marsiling_Road
-3.533967	__Martin_Road
-3.533967	__Masjid_Alkaff
-3.533967	__Mayflower_Way
-3.533967	__Medical_Drive
-3.533967	__Mei_Chin_Road
-3.533967	__Mei_Hwan_Drive
-3.533967	__Meng_Suan_Road
-3.533967	__Meranti_Avenue
-3.533967	__Merlimau_Place
-3.533967	__Meteorological_Services_Singapore
-3.533967	__Methodist_Girls'
-3.533967	__Michelle_Lim
-3.533967	__Middlesex_Road
-3.533967	__Miller_Street
-3.533967	__Miltonia_Link
-3.533967	__Mimosa_Vale
-3.533967	__Monk'S_Hill_Road
-3.533967	__Montreal_Link
-3.533967	__Moonbeam_Drive
-3.533967	__Moonbeam_Walk
-3.533967	__Moral_Welfare
-3.533967	__Moreton_Close
-3.533967	__Morgan_Chua
-3.533967	__Moriah_Bible_Presby
-3.533967	__Mornington_Crescent
-3.533967	__Mount_Faber_Loop
-3.533967	__Mount_Faber_Road
-3.533967	__Movenpick_Heritage
-3.533967	__Muhammadiyah_Welfare
-3.533967	__Mulberry_Avenue
-3.533967	__Muswell_Hill
-3.533967	__My_Saviour'S
-3.533967	__N_Palanivelu
-3.533967	__Nagore_Dargah
-3.533967	__Namly_Rise
-3.533967	__Nan_Chiau
-3.533967	__Nanyang_Avenue
-3.533967	__Nanyang_Girls'
-3.533967	__Nanyang_Poly_Drive
-3.533967	__Nanyang_Valley
-3.533967	__Napier_Road
-3.533967	__Nasi_Goreng
-3.533967	__Natalie_Hennedige
-3.533967	__National_Arts_Council
-3.533967	__National_Equestrian_Centre
-3.533967	__National_Neuroscience_Institute
-3.533967	__National_Neuroscience_Institute_Of_Singapore
-3.533967	__Nativity_Of_The_Blessed_Virgin_Mary_Concord
-3.533967	__Nee_Soon
-3.533967	__Nee_Soon_East
-3.533967	__Neo_Tiew_Lane
-3.533967	__Neo_Tiew_Road
-3.533967	__Nepal_Link
-3.533967	__Newton_Cirus
-3.533967	__Newton_Life
-3.533967	__Nexus_International_School
-3.533967	__Ng_Chee_Meng
-3.533967	__North_Buona_Vista_Drive
-3.533967	__North_Spring
-3.533967	__North_Vista
-3.533967	__North_West
-3.533967	__Northshore_Drive
-3.533967	__Northshore_Link
-3.533967	__Oak_Avenue
-3.533967	__Ocean_Way
-3.533967	__Office_Road
-3.533967	__Ogilvy_Centre
-3.533967	__Old_Birdcage_Walk
-3.533967	__Old_Cathay
-3.533967	__Old_Choa_Chu_Kang_Road
-3.533967	__Old_Hill_Street
-3.533967	__Old_Terminal_Lane
-3.533967	__Old_Upper_Thomson
-3.533967	__Omar_Ali
-3.533967	__Omar_Khayyam_Avenue
-3.533967	__One_Farrer
-3.533967	__One_George_Street
-3.533967	__One_North_Avenue
-3.533967	__One_North_Link
-3.533967	__One_Tree_Hill
-3.533967	__Onitsuka_Tiger
-3.533967	__Onraet_Road
-3.533967	__Orchard_Bel_Air
-3.533967	__Orchard_Point
-3.533967	__Orchard_Spring
-3.533967	__Orchard_Spring_Lane
-3.533967	__Orchard_Turn
-3.533967	__Orchid_Park
-3.533967	__Oriole_Crescent
-3.533967	__Outram_Park
-3.533967	__Oxford_Road
-3.533967	__Palm_Avenue
-3.533967	__Palm_Road
-3.533967	__Pan_Pacific
-3.533967	__Pan_Shou
-3.533967	__Pandan_Avenue
-3.533967	__Pang_Seng_Road
-3.533967	__Park_Avenue
-3.533967	__Parry_Avenue
-3.533967	__Pasir_Panjang_Road
-3.533967	__Pasir_Panjang_View
-3.533967	__Pasir_Ris
-3.533967	__Pasir_Ris_Road
-3.533967	__Pasir_Ris_View
-3.533967	__Pasir_Ris_Way
-3.533967	__Paterson_Road
-3.533967	__Paya_Lebar
-3.533967	__Paya_Lebar_Place
-3.533967	__Paya_Ubi
-3.533967	__Peace_Centre
-3.533967	__Peakville_Avenue
-3.533967	__Peakville_Grove
-3.533967	__Pebble_Lane
-3.533967	__Peck_San_Theng
-3.533967	__Peck_Seah_Street
-3.533967	__Peirce_Hill
-3.533967	__Pemimpin_Drive
-3.533967	__Penang_Road
-3.533967	__Peng_Kang_Avenue
-3.533967	__Peng_Nguan
-3.533967	__Peninsula_Plaza
-3.533967	__Penjuru_Road
-3.533967	__Perahu_Road
-3.533967	__Percival_Road
-3.533967	__Pereira_Road
-3.533967	__Perumal_Govindaswamy
-3.533967	__Perumal_Road
-3.533967	__Ping_Yi
-3.533967	__Platina_Road
-3.533967	__Plaza_Singapura
-3.533967	__Poh_Ern_Shih
-3.533967	__Poh_Huat_Road
-3.533967	__Poh_Jay
-3.533967	__Post_Florence_Road
-3.533967	__Prince_Of_Wales_Road
-3.533967	__Prinsep_Street
-3.533967	__Prome_Road
-3.533967	__Puat_Jit_Buddhist
-3.533967	__Pulau_Ubin
-3.533967	__Punggol_Avenue
-3.533967	__Qing_De_Gong
-3.533967	__Queen_Elizabeth_Walk
-3.533967	__Radin_Mas
-3.533967	__Raffles_Place
-3.533967	__Rahayu_Mahzam
-3.533967	__Rahim_Omar
-3.533967	__Rail_Mall
-3.533967	__Rajabali_Jumabhoy
-3.533967	__Rambutan_Road
-3.533967	__Rasok_Drive
-3.533967	__Rebecca_Chua
-3.533967	__Red_Cross
-3.533967	__Red_Swastika
-3.533967	__Redhill_Road
-3.533967	__Redwood_Grove
-3.533967	__Revival_Centre
-3.533967	__Richard_Eric_Holttum
-3.533967	__Ring_Road
-3.533967	__Rita_Zahara
-3.533967	__River_City
-3.533967	__River_Safari
-3.533967	__River_Valley
-3.533967	__Riverina_Walk
-3.533967	__Rivervale_Plaza
-3.533967	__Robert_Soon
-3.533967	__Robert_V_Chandran_Way
-3.533967	__Robin_Tessensohn
-3.533967	__Robinson_Road
-3.533967	__Rochor_Kongsi
-3.533967	__Rochor_Road
-3.533967	__Rosaline_Chan_Pang
-3.533967	__Ruby_Lane
-3.533967	__Russels_Road
-3.533967	__Safra_Jurong
-3.533967	__Safra_Punggol
-3.533967	__Saint_Helier'S_Avenue
-3.533967	__Saint_Hilda'S
-3.533967	__Saint_James
-3.533967	__Saint_Nicholas_View
-3.533967	__Saint_Paul'S
-3.533967	__Saint_Stephen'S
-3.533967	__Saint_Wilfred_Road
-3.533967	__Saint_Xavier'S
-3.533967	__Saint_Xavier'S_Lane
-3.533967	__Sakra_Road
-3.533967	__Sakya_Tenphel_Ling
-3.533967	__Sam_Kee
-3.533967	__Sandilands_Road
-3.533967	__Science_Park
-3.533967	__Sea_Breeze_Grove
-3.533967	__Seah_Mei_Lin
-3.533967	__Secondary_School
-3.533967	__Segar_Close
-3.533967	__Segar_Kampong_Arang_Road
-3.533967	__Selarang_Road
-3.533967	__Seletar_Close
-3.533967	__Seletar_Club
-3.533967	__Seletar_Club_Road
-3.533967	__Seletar_Court
-3.533967	__Seletar_East
-3.533967	__Seletar_Green_Avenue
-3.533967	__Seletar_Hill
-3.533967	__Seletar_Hill_Drive
-3.533967	__Seletar_Hills_Drive
-3.533967	__Seletar_Link
-3.533967	__Seletar_Lodge_One
-3.533967	__Seletar_North
-3.533967	__Seletar_North_Lane
-3.533967	__Seletar_Satellite
-3.533967	__Seletar_Satellite_Station_Road
-3.533967	__Seletar_South_Road
-3.533967	__Seletar_West
-3.533967	__Seletar_Wests
-3.533967	__Sembawang_Alley
-3.533967	__Sembawang_Avenue
-3.533967	__Sembawang_Berlayer
-3.533967	__Sembawang_Country_Club
-3.533967	__Sembawang_God_Of_Wealth
-3.533967	__Sembawang_Hills_Drive
-3.533967	__Sembawang_Shopping_Centre
-3.533967	__Sembawang_Tamil_Methodist
-3.533967	__Sembawang_Terminal_Avenue
-3.533967	__Sembawang_Terminal_Road
-3.533967	__Sembawang_Vista
-3.533967	__Sembawang_Wharves
-3.533967	__Sembawang_Woodgrove_Avenue
-3.533967	__Sengkang_East_Avenue
-3.533967	__Sengkang_East_Road
-3.533967	__Sengkang_East_Way
-3.533967	__Sennett_Road
-3.533967	__Sentul_Crescent
-3.533967	__Serangoon_Gardens
-3.533967	__Serangoon_North_Avenue
-3.533967	__Serapong_Hill
-3.533967	__Seraya_Avenue
-3.533967	__Sharon_Bible_Presbyterian
-3.533967	__Shelford_Road
-3.533967	__Shipyard_Crescent
-3.533967	__Shopping_Centre
-3.533967	__Shun_Li
-3.533967	__Si_Ling
-3.533967	__Siang_Cho_Keong
-3.533967	__Siglap_Gardens
-3.533967	__Siloso_Beach
-3.533967	__Sim_Choon_Huat
-3.533967	__Sim_Lim_Square
-3.533967	__Sim_Yi_Hui
-3.533967	__Simon_Lane
-3.533967	__Simpang_Bedok
-3.533967	__Simpang_De_Bedok
-3.533967	__Sims_Way
-3.533967	__Sin_Ming
-3.533967	__Sing_Hoe
-3.533967	__Sing_Joo_Walk
-3.533967	__Singapore'S_Mariners'
-3.533967	__Singapore_Art_Museum
-3.533967	__Singapore_Bible
-3.533967	__Singapore_Botanic_Gardens
-3.533967	__Singapore_Cheshire
-3.533967	__Singapore_Conference
-3.533967	__Singapore_Philatelic_Museum
-3.533967	__Singapore_Recreation
-3.533967	__Singapore_Sikh_Education_Foundation
-3.533967	__Singapore_University_Of_Technology_And_Design
-3.533967	__Singapore_Youth_Flying
-3.533967	__Siok_Wan
-3.533967	__Siong_Lim
-3.533967	__Sir_Frank_Swettenham
-3.533967	__Sit_Wah_Road
-3.533967	__Sleepy_Kiwi
-3.533967	__Sloane_Court_Hotel
-3.533967	__Soo_Bin_Chua
-3.533967	__Soo_Chow_Drive
-3.533967	__Soon_Peng_Yam_Yao_Zi
-3.533967	__Soon_Wing_Road
-3.533967	__Sophia_Hull
-3.533967	__South_Buona_Vista_Road
-3.533967	__South_Perimeter_Road
-3.533967	__South_Woodlands_Drive
-3.533967	__Spring_Lighthouse
-3.533967	__Spring_Street
-3.533967	__Springleaf_Avenue
-3.533967	__Springside_View
-3.533967	__Springwood_Close
-3.533967	__Sree_Narayana
-3.533967	__Sri_Murugan_Hill_Temple
-3.533967	__Sri_Siva_Durga
-3.533967	__Sri_Vairavimada_Kaliamman
-3.533967	__Stadium_Crescent
-3.533967	__Stadium_Way
-3.533967	__Stamford_Raffles
-3.533967	__Starlight_Road
-3.533967	__Stephen_Lee
-3.533967	__Stirling_Walk
-3.533967	__Strand_Hotel
-3.533967	__Stratton_Road
-3.533967	__Suffolk_Road
-3.533967	__Sunbeam_Evergreen_Place
-3.533967	__Sundridge_Park_Road
-3.533967	__Sungei_Bedok
-3.533967	__Sungei_Gedong_Road
-3.533967	__Sungei_Road
-3.533967	__Sunny_Ang
-3.533967	__Sunset_Close
-3.533967	__Sunset_Square
-3.533967	__Sunset_Vale
-3.533967	__Suntec_City
-3.533967	__Swiss_Club_Link
-3.533967	__Syed_Jaafar_Albar
-3.533967	__Tagore_Road
-3.533967	__Tai_Hoe
-3.533967	__Tai_Seng
-3.533967	__Tai_Seng_Drive
-3.533967	__Taman_Bedok
-3.533967	__Taman_Jurong
-3.533967	__Taman_Kembangan
-3.533967	__Taman_Warna
-3.533967	__Tamarind_Avenue
-3.533967	__Tamarind_Road
-3.533967	__Tampines_Changkat
-3.533967	__Tan_Boo_Liat
-3.533967	__Tan_Eng_Joo
-3.533967	__Tan_Kim_Cheng_Road
-3.533967	__Tan_Teck_Whye_Avenue
-3.533967	__Tan_Tock_Seng
-3.533967	__Tanah_Merah
-3.533967	__Tanglin_Gate_Road
-3.533967	__Tanglin_Trust
-3.533967	__Tangmere_Road
-3.533967	__Tanjong_Katong
-3.533967	__Tanjong_Penjuru
-3.533967	__Tanya_Chua
-3.533967	__Teban_Garden
-3.533967	__Tebing_Lane
-3.533967	__Teck_Hai_Keng
-3.533967	__Teck_Whye
-3.533967	__Tekong_Highway
-3.533967	__Telok_Blangah_Crescent
-3.533967	__Telok_Blangah_Rise
-3.533967	__Telok_Blangah_Street
-3.533967	__Telok_Kurau
-3.533967	__Tembusu_Drive
-3.533967	__Teng_San_Tian_Hock
-3.533967	__Teng_Tong_Road
-3.533967	__Terang_Bulan_Avenue
-3.533967	__Tew_Chew_Street
-3.533967	__Thong_Bee_Road
-3.533967	__Thong_Kheng
-3.533967	__Tian_Kong
-3.533967	__Tiong_Poh_Avenue
-3.533967	__Tiverton_Lane
-3.533967	__Toa_Payoh
-3.533967	__Toa_Payoh_East
-3.533967	__Toa_Payoh_North
-3.533967	__Toa_Payoh_Rise
-3.533967	__Toh_Tuck_Drive
-3.533967	__Toh_Tuck_Road
-3.533967	__Tokio_Marine
-3.533967	__Topaz_Road
-3.533967	__Tras_Street
-3.533967	__Treetop_Walk
-3.533967	__Trevose_Place
-3.533967	__Tuas_Avenue
-3.533967	__Tuas_Road
-3.533967	__Tuas_Second_Link
-3.533967	__Tuas_Terminal_Road
-3.533967	__Turf_Ciub_Road
-3.533967	__Ubi_Close
-3.533967	__Ubi_Crescent
-3.533967	__Ubi_Link
-3.533967	__Ulu_Sembawang
-3.533967	__Unity_Street
-3.533967	__University_Town
-3.533967	__Upper_Aljunied
-3.533967	__Upper_Aljunied_Link
-3.533967	__Upper_Aljunied_Road
-3.533967	__Upper_Bedok
-3.533967	__Upper_Bedok_Road
-3.533967	__Upper_Bukit_Timah
-3.533967	__Upper_Bukit_Timah_Road
-3.533967	__Upper_Changi_Road
-3.533967	__Upper_Joo_Aljunied_Link
-3.533967	__Upper_Palm_Valley_Road
-3.533967	__Upper_Paya_Lebar_Road
-3.533967	__Upper_Peirce_Reservoir
-3.533967	__Upper_Seletar_Reservoir
-3.533967	__Upper_Serangoon
-3.533967	__Upper_Wilkie_Road
-3.533967	__Vaughan_Road
-3.533967	__Veerasamy_Road
-3.533967	__Verde_Crescent
-3.533967	__Victoria_Park_Road
-3.533967	__Vigilante_Drive
-3.533967	__Vijesh_Ashok_Ghariwala
-3.533967	__Vivien_Quahe
-3.533967	__Vu_Ly_Tee
-3.533967	__Vu_Ly_Tee#1
-3.533967	__Vu_Ly_Tee#2
-3.533967	__Wak_Hassan
-3.533967	__Wak_Hassan_Place
-3.533967	__Wak_Tanjong
-3.533967	__Wallace_Way
-3.533967	__Walter_Woon
-3.533967	__Wan_Tho_Avenue
-3.533967	__Wareham_Road
-3.533967	__Waringin_Walk
-3.533967	__Warwick_Road
-3.533967	__Waseda_Shibuya
-3.533967	__Waterloo_Street
-3.533967	__Watten_Estate_Road
-3.533967	__Wee_Beng_Chong
-3.533967	__Wellington_Circle
-3.533967	__West_Blue_Stars
-3.533967	__West_Perimeter_Road
-3.533967	__West_Spring
-3.533967	__Westwood_Avenue
-3.533967	__Whampoa_East
-3.533967	__Whitchurch_Road
-3.533967	__Whitley_Road
-3.533967	__Wilmonar_Avenue
-3.533967	__Windsor_Park_Hill
-3.533967	__Wishart_Road
-3.533967	__Wittering_Road
-3.533967	__Wong_Chin_Yoke_Road
-3.533967	__Wong_Hock_Boon
-3.533967	__Woodgrove_View
-3.533967	__Woodland_Street
-3.533967	__Woodlands_Galaxy
-3.533967	__Woodleigh_Close
-3.533967	__Xilin_Avenue
-3.533967	__Yan_Hui_Chang
-3.533967	__Yangtze_Building
-3.533967	__Yao_Zi
-3.533967	__Yarwood_Avenue
-3.533967	__Yeoh_Ghim_Seng
-3.533967	__Yew_Tee
-3.533967	__Yew_Tee_Close
-3.533967	__Yew_Tee_Point
-3.533967	__Yip_Cheong_Fun
-3.533967	__Yishun_Central
-3.533967	__Yishun_Street
-3.533967	__Yong_Melvin_Yik_Chye
-3.533967	__York_Place
-3.533967	__Yu_Huang_Zhi_Zun_Temple
-3.533967	__Yuan_Ching
-3.533967	__Yung_Kuang_Road
-3.533967	__Yuva_Bharati
-3.533967	__Yvonne_Ng
-3.533967	__Zainudin_Nordin
-3.533967	__Zhang_Hui
-3.533967	__Zhou_Ying_Nan
-3.533967	__Zion_Bishan_Bible_Presbyterian
-1.961433	a
-3.625915	aa
-5.342281	abas
-4.562559	ability
-3.684685	able
-5.436837	abnormal
-2.679626	about
-4.276685	above
-5.436837	abroad
-5.38179	absolute
-5.078182	absolutely
-5.371571	absorb
-5.230522	abstract
-5.195479	abu
-5.124225	abuse
-4.931321	academic
-5.356679	academy
-5.342281	acara
-4.860465	accent
-4.422408	accept
-5.058095	acceptable
-5.293231	acceptance
-5.182217	accepted
-4.516488	access
-5.256851	accessible
-4.544893	accident
-4.8715	accidentally
-5.202265	accommodation
-5.301747	accompany
-4.76951	accomplish
-4.620327	according
-5.034227	accordingly
-3.315952	account
-5.223283	accountancy
-4.711676	accounting
-5.147707	accurate
-5.249164	ache
-4.525752	achieve
-4.600205	achievement
-5.245371	acknowledge
-5.366549	acquaintance
-4.862024	acronym
-4.465963	across
-4.405156	act
-4.783625	acting
-4.313074	action
-5.091225	activate
-4.736695	active
-4.431587	activity
-4.759526	actor
-5.088585	actress
-4.553252	actual
-2.738243	actually
-4.884465	ad
-5.144701	adapt
-4.017149	add
-5.016034	added
-5.129978	addicted
-5.07562	addition
-4.76449	additional
-3.575287	address
-4.814707	ade
-4.992202	adjust
-5.448736	admiralty
-4.831852	admire
-5.07054	admit
-5.351826	admitted
-4.45788	adopt
-5.091225	adopted
-3.96622	adoption
-4.573675	adult
-4.824626	advance
-5.245371	advanced
-5.031911	advantage
-4.881187	adventure
-5.230522	adventurous
-4.959716	advertisement
-5.342281	advertising
-4.466591	advice
-4.568876	advise
-5.234187	aeroplane
-5.413974	affair
-4.733197	affect
-5.011602	affected
-5.392255	affidavit
-4.645203	afford
-4.884465	affordable
-4.510189	afraid
-3.02121	after
-3.886278	afternoon
-4.882823	afterwards
-3.368501	again
-4.456649	against
-4.750974	agama
-5.007216	agar
-3.922433	age
-4.548673	agency
-5.192125	agenda
-4.61854	agent
-4.881187	aggressive
-5.17253	aging
-3.848187	ago
-4.131428	agree
-5.185495	agreed
-5.045998	agreement
-2.114945	ah
-4.967612	aha
-4.338053	ahead
-4.927671	ai
-5.163054	aid
-4.846676	aim
-3.597988	air
-5.328345	airplane
-4.525032	airport
-4.357167	ajar
-4.990098	ak
-2.672257	aku
-5.031911	al
-4.61854	ala
-5.436837	alan
-4.530823	alarm
-4.868318	album
-4.918679	alcohol
-5.328345	alcoholic
-4.073073	alert
-5.289035	algorithm
-5.25299	alien
-5.351826	alif
-4.557881	alive
-2.630703	all
-5.272645	allergic
-4.412307	allow
-4.902948	allowance
-4.037725	almost
-4.036089	alone
-4.142908	along
-5.088585	alpha
-5.237883	alphabet
-2.843851	already
-3.343226	alright
-2.674402	also
-5.237883	alter
-5.159941	alternate
-5.050797	alternative
-4.325157	although
-5.25299	altogether
-3.258054	always
-3.369304	am
-5.436837	amar
-4.474839	amazing
-5.245371	ambitious
-3.556487	ambulance
-5.268642	amin
-4.965625	amir
-4.846676	among
-3.798888	amount
-5.135807	amy
-3.247567	an
-5.436837	ana
-5.276685	analyse
-5.209159	analysis
-5.38179	ancient
-2.029851	and
-4.160562	anda
-5.053216	android
-4.814707	angel
-5.319297	anger
-5.141716	angle
-4.25453	angry
-4.188466	animal
-5.107412	animation
-4.717237	anime
-5.112944	ankle
-5.306069	ann
-5.15685	anna
-5.245371	anniversary
-5.436837	announcement
-4.501929	annoying
-5.127092	annual
-3.366051	another
-3.64758	answer
-5.15685	ant
-5.436837	antenna
-4.996439	anti
-5.371571	antique
-5.314843	anxiety
-3.094228	any
-4.505352	anybody
-4.663604	anyhow
-4.21687	anyone
-3.285749	anything
-3.774973	anyway
-4.743776	anyways
-4.359617	anywhere
-2.660597	apa
-4.644256	apart
-4.884465	apartment
-4.644256	ape
-5.371571	apologize
-4.313074	apparently
-4.845171	appeal
-4.936853	appear
-4.265071	apple
-5.192125	applicable
-5.096554	applicant
-3.942645	application
-4.624827	applied
-3.778568	apply
-4.375629	appointment
-4.456036	appreciate
-4.736695	approach
-5.397584	appropriate
-4.744967	approval
-4.802278	approve
-5.351826	approximately
-5.241611	apron
-5.013813	aquarium
-4.160562	ar
-5.351826	arcade
-5.159941	architecture
-2.524493	are
-3.777924	area
-4.708374	argue
-4.700764	argument
-4.601061	arm
-4.636752	arms
-4.348462	army
-3.44633	around
-4.743776	arrange
-5.195479	arrangement
-5.38179	arrival
-4.879558	arrive
-5.328345	arrogant
-4.76951	arrow
-5.209159	arsenal
-4.272645	art
-4.846676	article
-5.323798	artificial
-4.658686	artist
-2.773913	as
-4.892769	aside
-3.122401	ask
-5.351826	askar
-4.944341	asleep
-4.657709	aspect
-5.276685	aspiration
-4.990098	ass
-5.431007	assembly
-5.147707	assess
-5.093881	assessment
-5.268642	asset
-5.280763	assets
-4.800919	assign
-5.280763	assigned
-4.652856	assignment
-3.899699	assist
-4.314843	assistance
-4.587567	assistant
-5.448736	associate
-4.680757	assume
-4.713892	assuming
-4.862024	asthma
-2.638103	at
-4.443341	ate
-5.323798	atmosphere
-4.988006	attach
-4.85275	attached
-4.996439	attachment
-4.65093	attack
-5.319297	attempt
-4.540401	attend
-5.28488	attendance
-4.585083	attention
-5.425255	attire
-4.807758	attitude
-5.112944	attract
-4.642368	attraction
-5.091225	attractive
-5.043618	attribute
-5.219709	audience
-5.216164	audio
-5.132883	audit
-5.198859	audition
-4.264676	august
-4.783625	aunt
-4.4787	auntie
-5.115737	authentic
-5.272645	author
-5.219709	authority
-4.684893	auto
-5.16619	automatic
-4.916903	automatically
-5.195479	autumn
-4.538913	available
-4.131428	avenue
-4.629375	average
-4.757066	avoid
-4.752186	awake
-5.159941	award
-4.783625	aware
-5.332941	awareness
-3.712008	away
-4.587567	awesome
-4.652856	awhile
-4.302177	awkward
-3.927308	ayah
-5.124225	aye
-3.387305	b
-4.752186	ba
-5.323798	baba
-5.205698	babe
-3.488569	baby
-3.056944	back
-4.429274	background
-5.272645	backup
-5.425255	backwards
-5.402979	bacon
-5.351826	bacteria
-3.395658	bad
-4.283228	badan
-5.268642	badge
-4.86516	badly
-4.267448	badminton
-4.113502	bag
-5.163054	bah
-4.358145	bahan
-5.04839	baht
-5.419578	bakal
-4.638616	bake
-5.28488	baked
-5.192125	bakery
-4.807758	baking
-4.197165	balance
-5.386991	balanced
-5.301747	balcony
-4.75584	bali
-3.904668	ball
-5.392255	ballet
-5.073073	balloon
-5.332941	bamboo
-5.053216	ban
-4.588398	banana
-4.260746	band
-4.504665	bandar
-5.413974	banding
-4.729727	bang
-4.633971	bangkok
-3.460227	bank
-4.977689	banker
-4.648057	banking
-5.216164	bankrupt
-4.642368	banner
-5.237883	banquet
-4.228338	bar
-4.646152	barbecue
-5.351826	barber
-5.260746	bare
-5.169348	barely
-5.293231	baring
-5.38179	barrage
-5.147707	barrier
-3.499211	baru
-4.510884	bas
-4.346074	base
-4.098434	based
-4.942457	basement
-4.317064	basic
-3.61543	basically
-4.666582	basis
-4.845171	basket
-4.398657	basketball
-5.226888	bass
-5.237883	bat
-4.670585	batch
-5.159941	bath
-5.241611	bathe
-5.425255	bathroom
-5.159941	batik
-5.169348	batman
-4.811914	battery
-4.845171	battle
-4.481943	bay
-5.356679	bazaar
-2.508919	be
-4.030757	beach
-4.712783	bean
-4.216164	bear
-5.002873	beard
-5.223283	beast
-4.607968	beat
-4.423544	beautiful
-4.72287	beauty
-2.551331	because
-3.831561	become
-4.782322	becomes
-5.034227	becoming
-4.207771	bed
-5.16619	bedroom
-4.471013	bee
-4.471013	beef
-5.413974	beehive
-3.3499	been
-4.712783	beer
-5.091225	bees
-3.199674	before
-4.691172	beg
-5.036556	begin
-4.813308	beginning
-4.779729	behalf
-5.107412	behave
-5.314843	behaviour
-3.923331	behind
-5.182217	beige
-3.584093	being
-4.298321	bela
-4.220421	belah
-3.955433	believe
-4.940581	bell
-5.16619	belly
-5.192125	belong
-3.834484	below
-4.851224	belt
-4.684893	ben
-4.698614	bench
-5.091225	bend
-3.479217	benda
-5.25299	bene
-5.454811	beneath
-4.799564	beneficial
-4.416207	beneficiary
-4.566496	benefit
-4.806382	ber
-4.596799	berat
-5.276685	berlin
-5.442746	berry
-3.698828	beside
-4.458496	besides
-3.321902	best
-4.619432	bet
-3.479411	better
-4.772043	betting
-3.937039	between
-4.712783	beyond
-5.310434	bias
-4.559434	bicycle
-5.209159	bid
-3.490093	big
-4.248023	bigger
-4.328345	biggest
-4.360108	bike
-4.810524	bikini
-4.415648	bill
-5.091225	billion
-5.356679	billy
-4.597648	bin
-4.977689	bingo
-4.892769	biological
-5.182217	biology
-4.127379	bird
-3.93004	birth
-4.153475	birthday
-5.195479	biscuit
-3.334747	bit
-5.28488	bitch
-4.824626	bite
-4.963646	bitter
-5.366549	biz
-3.66758	black
-5.127092	blackberry
-5.442746	blackboard
-5.195479	blade
-4.396513	blah
-4.869906	blame
-4.795524	blank
-5.260746	blanket
-4.365552	bleeding
-4.924052	blend
-4.765739	blender
-5.241611	bless
-5.361586	blessed
-5.366549	blessing
-4.426973	blind
-3.76624	block
-4.839201	blonde
-4.094414	blood
-4.98385	bloody
-5.127092	blouse
-5.099243	blow
-5.413974	blowing
-3.454382	blue
-5.408442	blueberry
-4.868318	blues
-4.940581	blur
-4.762001	bo
-4.232717	board
-5.408442	boarding
-4.457264	boat
-5.264676	bob
-5.356679	bobby
-3.962463	body
-5.063031	boil
-3.974035	bola
-5.342281	bom
-4.940581	bomb
-4.237883	bond
-5.053216	bonding
-4.979733	bone
-3.77973	bonus
-3.697222	book
-5.366549	booked
-4.894449	booking
-5.169348	bookshop
-5.230522	bookstore
-4.963646	boom
-5.249164	boon
-5.241611	boost
-4.98385	boot
-4.721737	booth
-4.996439	boots
-4.899529	borak
-5.058095	border
-4.112666	boring
-4.14831	born
-4.860465	borrow
-4.186813	boss
-5.175735	boston
-5.07054	bot
-5.060556	botanic
-3.67768	both
-4.660646	bother
-4.405156	bottle
-4.02663	bottom
-4.028918	bought
-5.202265	bounce
-5.135807	bound
-4.965625	bout
-5.144701	bow
-5.37665	bowel
-4.562559	bowl
-4.552486	bowling
-4.122514	box
-5.216164	boxing
-3.786897	boy
-5.386991	bra
-4.422976	brain
-5.328345	brake
-4.487843	branch
-4.228338	brand
-5.036556	branded
-5.209159	brave
-5.141716	bravo
-5.013813	brazil
-4.375629	bread
-3.963252	break
-5.009404	breakdown
-4.931321	breaker
-4.481292	breakfast
-4.944341	breaking
-5.002873	breast
-4.735526	breath
-4.406796	breathe
-3.848036	breathing
-4.866736	breathless
-5.256851	breed
-5.323798	breeze
-5.28488	brick
-5.371571	bride
-4.720608	bridge
-5.185495	brief
-4.685933	briefing
-4.901235	bright
-3.592746	bring
-5.454811	brisk
-5.319297	broad
-5.436837	brochure
-4.619432	broke
-4.76825	broken
-3.943586	brother
-4.355704	brought
-3.780247	brown
-5.442746	brownie
-5.083353	brownish
-5.37665	brunch
-4.998573	brush
-4.942457	bu
-5.297469	bual
-4.709472	bubble
-5.425255	buck
-4.457264	bucket
-4.868318	buddy
-4.519318	budget
-4.444534	buffet
-4.795524	bug
-4.389089	build
-4.107137	building
-4.969609	built
-5.031911	bulk
-5.351826	bull
-5.314843	bullet
-5.073073	bully
-5.219709	bump
-5.293231	bumper
-4.969609	bun
-5.000718	bunch
-5.147707	bundle
-5.347027	bungalow
-5.192125	bungee
-5.392255	bunk
-5.431007	bunny
-5.093881	burden
-4.639551	burn
-5.055649	burning
-5.448736	burnt
-5.112944	burst
-3.935556	bus
-4.665587	bush
-3.934078	business
-5.442746	businessman
-4.214402	busy
-4.837721	busybody
-2.224369	but
-4.887767	butcher
-5.147707	butt
-4.711676	butter
-4.977689	butterfly
-4.659665	button
-5.289035	buttons
-3.27632	buy
-5.150733	buyer
-3.170046	by
-3.220742	bye
-3.123768	c
-4.927671	ca
-4.81611	cab
-5.37665	cabin
-4.798213	cable
-4.799564	cage
-4.207771	cake
-4.699687	calculate
-5.301747	calculated
-5.093881	calculation
-5.163054	calculator
-4.77459	calendar
-3.039015	call
-5.144701	callable
-4.97363	caller
-3.531406	calling
-4.8715	calm
-4.278719	cam
-3.80119	came
-4.530095	camera
-4.258016	camp
-5.37665	campaign
-5.223283	campus
-2.305292	can
-4.846676	canada
-4.424114	cancel
-4.715004	cancer
-5.337586	candle
-4.849703	candy
-5.178964	cane
-3.09279	cannot
-5.068023	cant
-4.586738	canteen
-5.332941	canvas
-4.277091	cap
-5.264676	capable
-5.337586	capacity
-5.448736	cape
-4.594262	capital
-4.918679	capsule
-4.892769	captain
-5.115737	caption
-5.205698	capture
-3.546628	car
-5.293231	caramel
-3.613398	card
-5.431007	cardboard
-3.686662	care
-3.986338	career
-5.361586	carefree
-4.924052	careful
-5.337586	carefully
-4.638616	carrot
-4.246884	carry
-4.788873	carrying
-5.293231	cart
-4.824626	cartoon
-3.726057	case
-4.020512	cash
-5.078182	cashier
-4.718358	casino
-5.104671	cast
-4.842176	castle
-5.104671	casual
-4.142014	cat
-4.257239	catch
-4.911617	catching
-5.38179	catchy
-4.971615	category
-5.397584	cater
-4.441558	caught
-2.995354	cause
-5.280763	cave
-5.301747	ceiling
-4.569672	celebrate
-5.050797	celebration
-5.06552	celebrity
-4.916903	cell
-4.788873	cent
-4.137866	center
-4.621223	central
-5.319297	century
-4.97363	cereal
-5.392255	ceremony
-3.927489	certain
-5.347027	certainly
-4.438601	certificate
-5.38179	certified
-5.314843	cha
-5.431007	chai
-4.887767	chain
-4.244239	chair
-4.944341	chalet
-4.74736	challenge
-5.264676	champion
-4.179937	chance
-3.453772	change
-4.544893	channel
-5.169348	chapter
-4.705096	char
-4.140824	character
-5.091225	characteristic
-4.209507	charge
-5.342281	charger
-5.28488	charging
-4.887767	charity
-5.212647	charming
-4.942457	chart
-4.971615	chartered
-4.719481	chase
-5.16619	chasing
-4.508109	chat
-5.448736	chatting
-4.030297	cheap
-4.828948	cheat
-5.007216	cheating
-3.311664	check
-4.766993	checked
-5.419578	chee
-5.147707	cheek
-5.091225	cheer
-5.425255	cheerful
-4.143803	cheese
-5.361586	cheesecake
-5.408442	cheesy
-5.216164	cheetah
-4.620327	chef
-4.948134	chemical
-4.675641	chemistry
-5.260746	cheng
-5.124225	cheque
-5.118548	cherry
-5.202265	chess
-4.306503	chest
-5.141716	chew
-5.104671	chi
-5.397584	chick
-3.69054	chicken
-3.399411	child
-4.135807	childhood
-5.276685	childish
-4.737867	chili
-4.363069	chill
-5.127092	chin
-3.817236	china
-5.038897	chip
-4.882823	chips
-5.361586	chit
-4.405702	chocolate
-4.100323	choice
-5.144701	choir
-4.927671	choke
-4.925858	choker
-5.138752	choking
-5.202265	chomp
-3.729037	choose
-5.37665	choosing
-4.642368	chop
-4.988006	chore
-4.931321	chose
-5.356679	chosen
-5.314843	chow
-5.347027	chrome
-4.505352	church
-5.268642	chute
-5.138752	cigarette
-4.824626	cinema
-3.718807	circle
-5.351826	circled
-5.226888	circuit
-5.230522	circular
-5.419578	circus
-5.038897	cite
-5.272645	citer
-4.361586	citizen
-4.644256	citizenship
-4.018044	city
-5.085961	civil
-3.928581	claim
-4.988006	claimable
-5.392255	clap
-4.990098	clarify
-3.821484	class
-4.472284	classes
-5.041251	classic
-5.351826	classical
-4.940581	classmate
-4.800919	classroom
-5.361586	claw
-5.185495	clay
-4.182217	clean
-4.979733	cleaner
-4.746162	cleaning
-5.37665	cleanser
-4.154699	clear
-5.101949	clearing
-4.817518	clearly
-5.276685	clerk
-5.234187	clever
-4.218642	click
-4.551721	client
-5.402979	climate
-4.615873	climb
-4.940581	climbing
-4.598499	clinic
-5.256851	clip
-4.935001	clique
-4.676659	clock
-5.15685	clockwise
-3.698185	close
-4.502612	closed
-4.933157	closely
-4.681787	closer
-4.626641	cloth
-4.215811	clothes
-4.916903	clothing
-4.820347	cloud
-4.081018	club
-5.099243	clubbing
-5.144701	clue
-5.15378	cluster
-4.728577	coach
-5.361586	coaching
-4.729727	coast
-4.902948	coaster
-5.297469	coat
-5.118548	cock
-5.055649	cockroach
-5.425255	cocky
-4.961677	coco
-5.005039	coconut
-3.98158	code
-5.436837	coder
-4.049111	coffee
-5.041251	coin
-4.763243	coincidence
-4.940581	coke
-5.361586	cola
-4.097359	cold
-5.230522	collapse
-4.405156	colleague
-4.184181	collect
-5.115737	collected
-4.810524	collection
-4.843671	college
-3.838757	color
-5.425255	colored
-5.16619	colors
-3.3664	colour
-5.264676	column
-4.944341	combination
-4.901235	combine
-5.332941	combined
-3.14831	come
-4.803642	comedy
-4.11378	comes
-4.377673	comfort
-4.243111	comfortable
-5.188797	comic
-3.834191	coming
-5.328345	command
-4.894449	comment
-4.936853	commercial
-4.951961	commission
-4.938713	commit
-4.931321	commitment
-4.862024	committee
-4.276685	common
-5.15378	commonwealth
-4.798213	communicate
-4.842176	communication
-4.477409	community
-5.328345	companion
-3.653822	company
-4.393847	compare
-5.366549	comparison
-5.425255	compensate
-5.268642	compete
-4.659665	competition
-4.879558	competitive
-4.186813	complain
-5.212647	complaint
-4.499211	complete
-4.749766	completely
-4.929492	complex
-4.922254	complicated
-5.361586	compound
-5.419578	compromise
-5.000718	compulsory
-4.116298	computer
-4.51508	con
-5.425255	concealer
-5.118548	concentrate
-4.916903	concentration
-4.694345	concept
-4.698614	concern
-5.212647	concerned
-4.476765	concert
-5.328345	concession
-5.297469	conclusion
-5.361586	concrete
-5.045998	cond
-4.520739	condition
-5.198859	conditional
-5.454811	conditioner
-5.342281	condominium
-5.219709	conduct
-5.169348	cone
-5.178964	conference
-5.397584	confess
-4.951961	confidence
-4.842176	confident
-5.431007	confidential
-3.819497	confirm
-4.604501	confirmation
-5.022768	confirmed
-5.268642	conflict
-5.038897	confuse
-4.800919	confused
-4.773314	connect
-4.992202	connected
-4.911617	connection
-3.830979	conscious
-4.76449	consent
-5.356679	conservative
-4.245749	consider
-5.289035	consideration
-4.352792	considered
-5.121377	considering
-5.454811	consistency
-5.342281	consistent
-5.289035	console
-5.347027	constant
-5.099243	constantly
-4.902948	construction
-5.371571	consult
-5.050797	consultant
-5.306069	consulting
-5.230522	consumable
-5.060556	consume
-3.63638	contact
-5.436837	contain
-5.07562	container
-4.940581	content
-5.209159	contest
-5.073073	context
-3.975047	continue
-4.66758	continuous
-5.07054	continuously
-4.529367	contract
-4.891096	contribute
-4.778439	contribution
-4.209159	control
-5.202265	controversial
-5.115737	convenience
-4.515784	convenient
-4.122514	conversation
-5.198859	converse
-5.088585	conversion
-4.57448	convert
-5.144701	converted
-5.28488	convince
-3.866578	cook
-5.442746	cooker
-4.27345	cooking
-3.813728	cool
-5.226888	cooling
-5.361586	cooper
-5.144701	cope
-4.364557	copy
-4.802278	core
-5.096554	corn
-4.320642	corner
-4.931321	corp
-4.950043	corporate
-5.260746	corporation
-3.032674	correct
-5.205698	correction
-5.060556	correctly
-5.280763	correspondent
-5.182217	corridor
-4.902948	cos
-5.28488	cosmos
-4.157158	cost
-5.272645	costa
-5.402979	costly
-5.260746	costume
-5.237883	cottage
-5.178964	cotton
-5.402979	couch
-4.799564	cough
-3.475673	could
-4.906395	council
-4.130847	count
-4.651892	counter
-5.101949	counting
-3.840835	country
-4.238255	couple
-4.691172	coupon
-5.402979	courage
-5.392255	courier
-3.468291	course
-4.211248	court
-4.562559	cousin
-5.289035	cove
-4.234187	cover
-4.695409	covered
-5.268642	covering
-4.749766	covid
-4.957764	cow
-5.226888	cowboy
-4.891096	coz
-4.389089	crab
-5.083353	crack
-5.276685	craft
-5.436837	cramp
-5.036556	crap
-4.931321	crash
-5.328345	crave
-5.063031	craving
-5.392255	crawl
-3.944341	crazy
-4.12537	cream
-4.314843	create
-4.323798	creative
-5.419578	creativity
-4.20295	credit
-5.38179	creep
-4.739042	creepy
-5.031911	crescent
-4.969609	crew
-4.953887	cried
-5.043618	crime
-5.319297	criminal
-5.195479	crisis
-5.022768	crispy
-4.678703	criteria
-5.016034	critical
-5.280763	crocodile
-4.397048	cross
-4.901235	crossing
-4.752186	crowd
-4.644256	crowded
-5.310434	crown
-4.821769	cruise
-5.022768	crush
-4.264676	cry
-4.788873	crying
-5.112944	crystal
-5.314843	cube
-5.188797	cucumber
-4.778439	cuisine
-5.129978	cultural
-4.230157	culture
-4.265467	cup
-5.202265	cure
-4.81611	curious
-4.996439	curly
-4.603638	currency
-4.222566	current
-4.15562	currently
-5.323798	curriculum
-4.388039	curry
-5.127092	curse
-5.297469	curtain
-4.887767	curve
-5.195479	cushion
-5.272645	custody
-5.212647	custom
-4.16243	customer
-3.957959	cut
-4.141716	cute
-4.702924	cutting
-4.532282	cycle
-4.655761	cycling
-5.371571	cyclist
-3.343652	d
-4.376139	da
-4.042906	dad
-4.72287	daddy
-3.00216	dah
-4.588398	daily
-5.055649	dak
-5.198859	damage
-3.612166	damn
-3.150035	dan
-4.14831	dance
-5.314843	dancer
-4.77459	dancing
-5.17253	danger
-4.527917	dangerous
-4.520028	dare
-3.704118	dari
-4.030988	dark
-5.293231	darling
-4.736695	dash
-4.367049	data
-3.654016	date
-4.520028	dating
-4.133174	daughter
-3.139402	day
-3.457633	days
-4.545646	de
-4.347983	dead
-4.443341	deadline
-5.460971	deaf
-4.301747	deal
-5.147707	dealer
-5.392255	dealing
-4.535954	dear
-4.507418	death
-5.293231	debate
-4.77459	debit
-5.107412	debt
-5.141716	decade
-5.029607	decent
-4.397048	decide
-4.411199	decided
-4.397048	decision
-4.681787	deck
-4.778439	declaration
-5.169348	declare
-5.337586	decoration
-5.25299	decorative
-4.940581	deduct
-5.361586	deduction
-4.348462	deep
-5.212647	default
-5.147707	defeat
-5.408442	defence
-5.112944	defend
-4.597648	define
-3.850767	definitely
-5.07054	definition
-4.272645	degree
-4.90987	delay
-4.465963	delete
-4.869906	delicious
-4.990098	deliver
-4.737867	delivery
-5.28488	dell
-5.342281	delta
-4.955821	demand
-5.289035	dementia
-5.260746	demi
-4.931321	demise
-5.37665	dental
-5.245371	dentist
-4.97363	depa
-4.486525	department
-4.639551	depend
-4.690119	dependent
-4.807758	depending
-4.310434	deposit
-5.127092	depressed
-5.392255	depressing
-5.013813	depression
-5.301747	depth
-5.402979	derma
-3.830979	describe
-5.17253	description
-5.319297	desert
-5.016034	deserve
-4.241237	design
-4.752186	designer
-5.249164	desire
-4.950043	desk
-5.260746	desperate
-5.332941	despite
-4.775869	dessert
-5.107412	destination
-5.371571	destiny
-5.226888	destress
-5.212647	destroy
-4.637683	detail
-5.301747	detailed
-5.28488	detect
-5.289035	detector
-5.209159	determine
-4.85582	develop
-5.386991	developer
-4.610587	development
-5.226888	device
-5.28488	devil
-5.043618	devote
-5.276685	dewan
-3.178122	di
-5.132883	diabetes
-5.431007	diabetic
-5.268642	diagram
-5.07054	dialect
-5.28488	dialysis
-5.101949	diamond
-5.135807	diarrhea
-5.226888	diary
-5.053216	dictation
-3.112249	did
-5.454811	didnt
-3.902948	die
-4.727429	diet
-3.658295	difference
-3.271962	different
-5.413974	differentiate
-4.598499	differently
-4.012264	difficult
-4.377673	difficulty
-5.009404	dig
-5.366549	digest
-5.293231	digit
-4.66163	digital
-5.005039	dim
-5.027315	dimension
-4.992202	din
-5.37665	ding
-5.185495	dining
-4.125943	dinner
-4.866736	dinosaur
-5.055649	dip
-4.50398	diploma
-4.380241	direct
-4.512279	direction
-4.528642	directly
-4.65093	director
-5.413974	dirt
-4.516488	dirty
-5.319297	disagree
-5.185495	disappear
-4.709472	disappointed
-5.216164	disaster
-4.854282	discipline
-5.460971	disclose
-4.613222	discount
-5.085961	discover
-5.436837	discovered
-4.866736	discovery
-5.347027	discrimination
-4.67768	discuss
-4.979733	discussion
-5.007216	disease
-4.585909	disgusting
-4.402979	dish
-5.351826	disk
-4.587567	dislike
-5.289035	disorder
-5.310434	dispatch
-4.854282	display
-4.699687	distance
-5.436837	distinction
-5.28488	distress
-5.301747	distribution
-5.356679	district
-4.901235	disturb
-5.306069	disturbing
-4.959716	dive
-5.301747	diverse
-4.693285	divide
-5.371571	divided
-5.319297	dividend
-4.798213	diving
-5.297469	division
-4.902948	divorce
-5.182217	dizzy
-2.414643	do
-5.408442	doc
-4.036556	doctor
-4.521451	document
-5.198859	documentary
-5.397584	documentation
-3.594852	does
-3.792585	dog
-4.571269	dogs
-3.432516	doing
-4.98385	doll
-3.632864	dollar
-5.234187	dolphin
-5.202265	dome
-5.138752	don
-4.933157	donate
-5.38179	donation
-3.567685	done
-4.925858	donee
-5.319297	dong
-5.38179	donkey
-5.209159	donor
-4.614104	dont
-3.718695	door
-4.904668	dorm
-4.866736	dormitory
-3.943775	dot
-4.107687	double
-4.927671	doubt
-3.226851	down
-4.772043	downstairs
-4.76951	downtown
-4.821769	draft
-4.879558	drag
-5.397584	dragging
-4.818931	dragon
-5.147707	drain
-4.107687	drama
-4.969609	dramatic
-5.178964	drank
-5.323798	drastically
-4.346074	draw
-4.730881	drawing
-5.454811	drawn
-3.993046	dream
-5.306069	dreamer
-4.345123	dress
-5.460971	dressed
-5.159941	dressing
-5.408442	drew
-5.182217	drill
-3.859066	drink
-4.587567	drinking
-3.982817	drive
-5.408442	driven
-4.301747	driver
-4.439191	driving
-5.361586	drool
-4.071551	drop
-5.041251	dropping
-5.212647	drove
-4.416207	drowsy
-4.998573	drug
-5.212647	drum
-4.846676	drunk
-4.491156	dry
-5.460971	dual
-4.54339	duck
-4.438013	dude
-4.32425	due
-3.804325	duit
-4.886113	dumb
-5.268642	dump
-4.929492	dumpling
-5.147707	duration
-4.11211	durian
-3.705858	during
-5.124225	dust
-4.689068	dustbin
-4.902948	duty
-5.314843	dye
-4.778439	dying
-3.520668	e
-3.777024	each
-5.276685	eagle
-4.799564	ear
-4.098166	early
-4.233451	earn
-4.877934	earning
-5.314843	earpiece
-4.760762	earth
-4.333403	easier
-5.195479	easiest
-4.46722	easily
-4.285293	east
-5.323798	easter
-5.272645	eastern
-3.835953	easy
-3.176733	eat
-4.550194	eaten
-3.978506	eating
-5.347027	eats
-5.319297	echo
-5.17253	economic
-5.073073	economics
-4.931321	economy
-5.147707	edge
-4.766993	edible
-4.879558	edit
-5.332941	edition
-5.301747	educate
-5.121377	educated
-4.10604	education
-5.386991	educational
-4.600205	effect
-5.027315	effective
-5.226888	effects
-5.050797	efficient
-4.452979	effort
-4.281583	egg
-5.027315	ego
-2.843102	eh
-3.169412	eight
-4.209507	eighteen
-5.371571	eighth
-3.963252	eighty
-3.96841	either
-5.264676	el
-4.786241	elaborate
-4.803642	elder
-4.432167	elderly
-5.135807	eldest
-5.16619	election
-4.874705	elective
-5.034227	electric
-5.268642	electrical
-5.107412	electricity
-5.083353	electronic
-5.431007	electronics
-5.392255	element
-5.000718	elephant
-3.89732	eleven
-5.448736	eleventh
-5.351826	eligibility
-4.737867	eligible
-5.356679	elite
-3.559435	else
-4.079211	em
-5.306069	embarrass
-5.135807	embarrassed
-4.26944	embarrassing
-5.223283	embassy
-4.256463	emergency
-5.034227	emotion
-4.800919	emotional
-5.241611	emotionally
-4.848187	employed
-4.289872	employee
-4.439191	employer
-4.790195	employment
-4.38179	empty
-4.061544	en
-3.964041	enam
-5.16619	encounter
-5.005039	encourage
-5.436837	encouraging
-3.454872	end
-4.590065	ended
-4.526473	ending
-5.413974	endless
-5.112944	enemy
-4.44934	energy
-4.834777	engage
-5.018267	engaged
-4.933157	engine
-4.879558	engineer
-4.425255	engineering
-3.843971	enjoy
-4.876317	enjoyable
-4.961677	enjoying
-3.780376	enough
-4.670585	enquire
-4.649971	enquiry
-4.818931	enrichment
-5.431007	enrol
-4.915134	enroll
-5.011602	ensure
-4.533014	enter
-5.150733	entertain
-5.337586	entertaining
-4.400813	entertainment
-4.403522	entire
-5.230522	entitle
-4.868318	entitlement
-5.241611	entity
-4.803642	entrance
-4.85582	entry
-5.361586	envelope
-4.421273	environment
-5.356679	environmental
-4.660646	episode
-4.744967	equal
-5.237883	equally
-4.951961	equipment
-5.107412	equity
-5.043618	equivalent
-2.610946	er
-4.950043	era
-5.319297	erase
-5.268642	eraser
-4.988006	err
-4.634896	error
-5.293231	es
-4.820347	escalate
-5.419578	escalator
-4.669581	escape
-3.943775	especially
-5.088585	esplanade
-4.47356	essay
-5.15378	essence
-5.241611	essential
-5.289035	essentially
-4.694345	estate
-5.249164	eve
-3.108788	even
-4.515784	evening
-4.205354	event
-4.483901	eventually
-3.673713	ever
-3.438601	every
-3.922253	everybody
-3.850615	everyday
-3.835217	everyone
-3.347744	everything
-4.401895	everywhere
-5.356679	evidence
-4.897829	evil
-4.345598	ex
-4.726285	exact
-3.878745	exactly
-4.140824	exam
-5.397584	examination
-3.723892	example
-5.442746	exceed
-4.645203	excel
-5.268642	excellent
-4.472922	except
-5.347027	excess
-4.277498	exchange
-4.76449	excited
-4.717237	exciting
-5.366549	exclamation
-5.306069	exclude
-5.397584	excluding
-4.647104	excuse
-5.264676	execute
-5.323798	executive
-4.14831	exercise
-5.036556	exhibition
-4.802278	exist
-4.882823	exit
-5.408442	exotic
-5.328345	expand
-4.327888	expect
-5.124225	expectation
-3.781932	expensive
-3.81597	experience
-5.002873	experienced
-5.038897	experiment
-5.38179	expert
-5.195479	expire
-5.127092	expiry
-4.210551	explain
-5.319297	explanation
-4.646152	explore
-5.192125	expose
-5.226888	exposed
-5.223283	exposure
-4.516488	express
-5.195479	expression
-4.74736	extend
-4.876317	extended
-5.093881	extension
-4.942457	extent
-5.101949	external
-4.169983	extra
-4.876317	extreme
-5.112944	extremely
-5.297469	ey
-4.406248	eye
-5.216164	eyebrow
-3.643972	f
-5.386991	fa
-3.828803	face
-4.707278	facial
-5.297469	facility
-4.257627	facing
-4.206734	fact
-4.942457	factor
-4.977689	factory
-4.721737	fad
-3.723437	faham
-4.258405	fail
-5.442746	failing
-5.07054	failure
-5.083353	faint
-5.083353	fainting
-4.25069	fair
-5.182217	fairly
-5.104671	fairy
-5.182217	faith
-4.468481	fake
-4.089639	fall
-5.314843	fallen
-4.758294	falling
-4.754619	false
-5.342281	fame
-4.792851	familiar
-3.415983	family
-3.972219	famous
-4.4264	fan
-5.083353	fancy
-5.413974	fang
-4.842176	fantastic
-5.104671	fantasy
-3.783885	far
-5.135807	fare
-4.598499	farm
-5.241611	farmer
-5.366549	farming
-4.497858	fashion
-5.351826	fashioned
-3.854282	fast
-4.323798	faster
-4.326066	fat
-5.198859	fate
-3.870224	father
-4.688021	fault
-5.178964	faulty
-4.082832	favorite
-4.680757	fear
-4.736695	feature
-5.107412	fed
-4.418451	fee
-4.750974	feed
-4.529367	feedback
-5.192125	feeding
-3.200968	feel
-4.033531	feeling
-4.322894	fell
-5.043618	fellow
-4.319745	felt
-4.152254	female
-4.876317	fence
-5.230522	ferry
-4.758294	festival
-5.016034	fetch
-4.387514	fever
-3.574883	few
-5.413974	fi
-4.584258	fiction
-5.342281	fictional
-4.498534	field
-5.15685	fierce
-3.936667	fifteen
-4.509494	fifth
-3.57569	fifty
-4.2009	fight
-5.328345	fighter
-4.547914	fighting
-4.718358	figure
-4.652856	file
-4.31751	fill
-4.860465	filled
-5.060556	filling
-4.683855	film
-5.178964	filter
-4.720608	fin
-4.298321	final
-5.425255	finalize
-4.623924	finally
-4.483247	finance
-4.079469	financial
-5.08076	financially
-3.387829	find
-4.741403	finding
-3.80597	fine
-4.707278	finger
-3.849247	finish
-4.706186	finished
-5.306069	finishing
-5.280763	finland
-4.145	fire
-5.38179	fired
-4.938713	firm
-2.968949	first
-4.830398	firstly
-3.933893	fish
-5.328345	fisherman
-4.528642	fishing
-4.170936	fit
-4.695409	fitness
-5.460971	fitting
-2.882381	five
-4.694345	fix
-4.730881	fixed
-4.598499	flag
-5.436837	flame
-4.638616	flash
-4.410646	flat
-5.241611	flavor
-4.971615	flavour
-5.436837	flew
-4.90987	flexible
-4.541893	flight
-4.881187	flip
-4.942457	float
-5.150733	floating
-4.002873	floor
-5.169348	flour
-4.696475	flow
-4.599351	flower
-5.099243	flu
-5.337586	fluent
-5.431007	fluffy
-4.230522	fly
-4.992202	flyer
-4.476765	flying
-5.371571	foam
-4.352309	focus
-5.323798	fold
-5.073073	folder
-5.289035	folk
-3.87358	follow
-5.293231	follower
-4.57207	following
-3.089982	food
-5.268642	fool
-4.726285	foot
-4.465335	football
-2.262608	for
-4.488503	force
-5.078182	forced
-4.985922	forecast
-5.337586	forehead
-4.483247	foreign
-4.766993	foreigner
-5.419578	foresee
-4.902948	forest
-4.42184	forever
-4.224721	forget
-5.205698	forgive
-4.127092	forgot
-5.219709	forgotten
-5.195479	fork
-3.842027	form
-4.791521	formal
-5.112944	format
-4.897829	formula
-4.775869	forth
-5.454811	fortunate
-5.202265	fortune
-3.800512	forty
-5.234187	forum
-4.345123	forward
-5.121377	foster
-4.07054	found
-4.795524	foundation
-5.175735	fountain
-3.018827	four
-4.215458	fourteen
-4.338053	fourth
-4.948134	fox
-4.753401	frame
-5.419578	franc
-5.118548	frank
-5.182217	freak
-3.509911	free
-4.740221	freedom
-5.025035	freeze
-5.319297	frequency
-5.237883	frequent
-5.306069	frequently
-4.262314	fresh
-4.316619	fried
-3.378442	friend
-4.527917	friendly
-4.587567	friendship
-5.159941	frog
-2.818888	from
-3.723665	front
-5.121377	frozen
-4.482594	fruit
-4.896136	fry
-5.085961	fu
-5.328345	fuel
-5.301747	fulfill
-3.746881	full
-4.666582	fully
-3.629375	fun
-4.693285	function
-4.321541	fund
-4.600205	funds
-5.241611	funeral
-3.782322	funny
-5.276685	fur
-5.425255	furious
-5.28488	furniture
-4.155313	further
-5.431007	furthest
-5.301747	fusion
-3.948515	future
-3.517052	g
-5.397584	gadget
-4.706186	gain
-5.182217	galaxy
-5.289035	gallery
-5.260746	gamble
-5.419578	gambling
-3.694664	game
-4.685933	gaming
-5.043618	gang
-4.922254	gangster
-4.671592	gap
-5.25299	garbage
-4.428698	garden
-5.188797	gardening
-5.132883	garlic
-4.866736	gas
-4.701843	gate
-5.099243	gather
-5.078182	gathering
-4.275874	gave
-4.651892	gay
-4.944341	ge
-5.135807	gear
-5.397584	gel
-5.342281	gen
-5.163054	gender
-5.347027	gene
-4.259964	general
-4.629375	generally
-4.837721	generate
-4.146201	generation
-5.454811	generic
-5.408442	generous
-4.946233	genie
-5.289035	genius
-4.481943	genre
-5.260746	gentle
-5.141716	gentleman
-5.347027	genuine
-5.005039	geography
-4.908129	german
-2.856359	get
-3.788213	getting
-4.460351	ghost
-4.857362	giant
-5.104671	giddiness
-4.648057	giddy
-4.388563	gift
-5.16619	gig
-5.159941	ginger
-3.541967	girl
-5.093881	giro
-3.137159	give
-4.104671	given
-4.294921	giving
-5.022768	glad
-4.518609	glass
-4.940581	glasses
-4.86516	global
-5.448736	glory
-5.144701	gloss
-2.532407	go
-4.527917	goal
-4.787555	goat
-3.775741	god
-4.09709	goes
-3.173905	going
-4.97363	gol
-4.485211	gold
-4.60884	golden
-4.517194	golf
-4.149823	gone
-5.226888	gong
-2.839231	good
-4.668579	goodness
-5.055649	goods
-5.093881	gor
-4.648057	gosh
-4.918679	gossip
-2.726697	got
-4.922254	gotten
-3.797674	government
-5.402979	gown
-4.256851	grab
-4.992202	grace
-5.041251	grad
-4.642368	grade
-4.541146	graduate
-5.121377	graduated
-5.096554	graduation
-5.351826	gram
-5.402979	grammar
-4.630291	grand
-4.741403	grandfather
-4.535954	grandma
-4.679729	grandmother
-5.280763	grandpa
-5.293231	grandson
-5.454811	granny
-4.741403	grant
-5.454811	graph
-5.28488	graphic
-4.670585	grass
-5.328345	grateful
-5.310434	gravity
-5.182217	gravy
-5.141716	gray
-3.969809	great
-5.280763	greater
-5.301747	greedy
-3.541967	green
-5.371571	greenish
-4.918679	grew
-3.946993	grey
-4.998573	grill
-5.150733	grocery
-5.212647	groom
-4.922254	gross
-4.428698	ground
-3.75965	group
-4.269839	grow
-4.683855	growing
-5.115737	grown
-5.060556	growth
-5.107412	guarantee
-4.740221	guard
-4.946233	guardian
-3.418845	guess
-5.310434	guessing
-4.848187	guest
-5.328345	guidance
-4.51508	guide
-5.245371	guilty
-4.786241	guitar
-4.516488	gula
-4.913372	gun
-3.963252	guna
-4.489828	guru
-3.482856	guy
-4.221135	gym
-3.739631	h
-3.143355	ha
-4.803642	habit
-5.198859	hack
-3.366949	had
-5.245371	hafiz
-3.824913	hah
-3.894618	hair
-5.169348	hak
-4.573675	halal
-3.783755	half
-4.726285	halfway
-3.942269	hall
-5.337586	ham
-5.297469	hammer
-4.790195	hamster
-5.124225	han
-3.678191	hand
-5.07054	handbag
-5.448736	handicap
-4.369053	handle
-5.223283	handling
-4.67768	handsome
-5.17253	handwriting
-4.621223	hanging
-5.08076	hao
-3.655082	happen
-4.462836	happening
-5.310434	happier
-4.66163	happiest
-5.198859	happily
-4.515784	happiness
-3.626914	happy
-3.613927	hard
-4.66163	harder
-4.887767	hardly
-5.351826	hardware
-5.245371	harm
-5.402979	harmony
-4.840686	harry
-5.234187	harsh
-4.399195	hat
-4.15378	hate
-2.293063	have
-4.160251	hawker
-5.050797	hay
-2.59918	he
-4.017596	head
-4.753401	headache
-5.230522	heading
-5.371571	headphone
-4.32425	health
-4.365055	healthy
-3.791787	hear
-4.827502	hearing
-4.050797	heart
-5.366549	heartbeat
-4.874705	heat
-5.297469	heater
-4.836247	heaven
-5.408442	heavily
-4.551721	heavy
-4.798213	heck
-5.442746	hectic
-5.280763	hedge
-4.823195	height
-5.256851	helicopter
-4.310873	hell
-3.129399	hello
-5.268642	helmet
-3.392997	help
-5.025035	helper
-4.922254	helpful
-4.499889	helping
-5.436837	hen
-2.959403	her
-5.17253	herbal
-3.324296	here
-5.043618	heritage
-4.371571	hero
-5.175735	hers
-4.741403	herself
-4.089112	hey
-3.494427	hi
-5.118548	hidden
-4.690119	hide
-3.561306	high
-4.280763	higher
-4.509494	highest
-5.104671	highland
-4.892769	highlight
-5.28488	highly
-5.025035	highway
-5.209159	hike
-4.807758	hill
-3.21726	him
-4.631207	himself
-5.212647	hint
-4.784931	hip
-4.794186	hire
-3.245673	his
-5.361586	historical
-4.272243	history
-4.17767	hit
-5.431007	hitch
-5.256851	hive
-4.869906	ho
-4.265071	hobby
-5.264676	hockey
-3.366001	hold
-5.016034	holder
-4.035856	holding
-4.790195	hole
-4.088059	holiday
-4.862024	holy
-3.390511	home
-5.402979	homeland
-5.402979	homeless
-4.636752	homework
-5.195479	honda
-4.313957	honest
-4.12911	honestly
-5.260746	honesty
-4.464084	honey
-4.963646	honeymoon
-4.06702	hong
-4.931321	honor
-5.018267	hook
-5.319297	hoon
-4.760762	hop
-4.084133	hope
-4.530095	hopefully
-5.202265	horizontal
-5.314843	horn
-4.759526	horrible
-4.57448	horror
-4.737867	horse
-3.993257	hospital
-4.97363	host
-4.805009	hostel
-3.990728	hot
-3.518396	hotel
-3.782583	hour
-3.419747	house
-4.938713	household
-4.940581	housewife
-5.272645	housework
-4.929492	housing
-2.594608	how
-4.741403	however
-4.607099	hub
-5.110169	hug
-4.32652	huge
-3.377673	huh
-5.301747	hulk
-4.796866	hum
-4.12911	human
-5.022768	humble
-3.33642	hundred
-5.413974	hunger
-4.215811	hungry
-5.08076	hunt
-5.007216	hurry
-4.625733	hurt
-4.029377	husband
-5.055649	hut
-5.351826	hybrid
-5.402979	hygiene
-1.56785	i
-4.032836	ice
-5.16619	iceland
-5.328345	icon
-5.182217	id
-3.908476	idea
-4.834777	ideal
-4.857362	identify
-5.096554	identity
-4.753401	idiom
-5.234187	idiot
-5.419578	idle
-5.163054	idol
-2.527577	if
-4.664595	ignore
-5.392255	ikat
-5.351826	ill
-4.897829	illegal
-5.366549	illness
-4.805009	image
-5.256851	imagination
-3.963646	imagine
-5.159941	immediate
-4.549433	immediately
-4.527194	impact
-5.397584	implement
-5.402979	implication
-5.034227	import
-5.319297	importance
-3.768124	important
-4.648057	impossible
-5.15685	impress
-4.596799	impression
-4.632127	impressive
-4.579341	improve
-5.241611	improvement
-2.252157	in
-5.397584	incentive
-5.301747	inch
-4.656734	incident
-4.779729	include
-5.195479	included
-5.192125	inclusive
-4.317956	income
-4.675641	increase
-5.342281	increasing
-5.337586	incredible
-5.268642	incredibly
-4.994315	indeed
-5.454811	independence
-4.830398	independent
-5.442746	index
-4.735526	indicate
-5.216164	indicative
-4.606231	individual
-4.818931	indoor
-4.54339	industrial
-4.50604	industry
-5.337586	infection
-5.138752	infinity
-4.922254	influence
-5.356679	influencer
-4.546401	inform
-3.943209	information
-5.245371	informed
-5.175735	ingredient
-5.15685	initial
-4.794186	initially
-5.361586	initiate
-5.195479	initiative
-4.696475	injured
-5.110169	injury
-5.226888	ink
-5.045998	inn
-4.936853	inner
-5.356679	innocence
-5.226888	innocent
-4.72287	input
-5.169348	insane
-5.366549	insect
-5.38179	insert
-5.38179	inserted
-3.576175	inside
-5.366549	insist
-5.297469	inspiration
-4.994315	inspire
-5.195479	inspired
-4.886113	inspiring
-5.132883	install
-5.314843	instance
-4.828948	instant
-5.027315	instantly
-4.035623	instead
-5.431007	institute
-5.129978	institution
-4.188466	instruction
-4.902948	instructor
-5.045998	instrument
-5.209159	instrumental
-4.536692	insurance
-5.209159	intake
-5.268642	intelligence
-5.289035	intelligent
-5.036556	intend
-5.392255	intending
-5.182217	intense
-5.150733	intention
-5.226888	inter
-4.955821	interact
-5.063031	interaction
-5.276685	interbank
-5.083353	interchange
-4.123084	interest
-4.297469	interested
-3.510536	interesting
-5.195479	interior
-4.636752	intern
-4.90987	internal
-4.476765	international
-4.361093	internship
-5.392255	interrupt
-4.288618	interview
-3.434088	into
-4.630291	introduce
-5.260746	introduction
-5.216164	introvert
-5.319297	invent
-4.988006	invention
-5.392255	inverted
-4.643311	invest
-5.431007	investigate
-5.310434	investigation
-4.482594	investment
-4.994315	invisible
-5.212647	invitation
-4.296618	invite
-4.990098	invoice
-5.011602	involve
-4.81611	involved
-5.219709	ion
-4.833313	iron
-5.442746	irritate
-4.969609	irritating
-1.879198	is
-4.459114	island
-4.127379	issue
-4.990098	issuer
-2.148053	it
-5.386991	itchy
-4.351826	item
-5.293231	itinerary
-3.631208	its
-3.970812	itself
-3.911968	j
-4.721737	jack
-4.836247	jacket
-5.129978	jail
-3.994739	jam
-5.371571	jane
-4.626641	jap
-4.209854	japan
-4.927671	jawab
-5.038897	jay
-4.916903	jazz
-5.083353	jealous
-5.386991	jean
-4.76951	jeans
-5.101949	jeep
-5.366549	jeff
-5.093881	jelly
-5.419578	jenny
-5.009404	jerry
-5.442746	jersey
-5.002873	jet
-5.169348	jimmy
-5.402979	jing
-3.558036	job
-4.868318	joe
-5.328345	joey
-5.175735	jog
-3.895798	join
-5.129978	joining
-4.814707	joint
-4.632127	joke
-5.212647	joker
-5.293231	jordan
-5.245371	journal
-4.868318	journey
-4.799564	joy
-4.668579	judge
-4.619432	juice
-5.212647	juicy
-4.295345	jump
-5.041251	junction
-4.459114	june
-5.009404	jungle
-4.676659	junior
-5.323798	junk
-2.355728	just
-5.366549	justice
-5.448736	justify
-3.256347	k
-4.520028	ka
-4.963646	kai
-4.413418	kaki
-5.022768	kala
-3.975249	kali
-5.366549	kampong
-2.68254	kan
-4.85582	kang
-4.699687	karaoke
-3.374204	kat
-3.835805	kay
-5.306069	kebab
-5.209159	keen
-3.431297	keep
-5.096554	keeper
-4.876317	keeping
-5.323798	kelly
-5.297469	ken
-4.644256	kept
-3.828224	kerana
-5.431007	kettle
-4.139343	key
-4.889428	keyboard
-5.260746	khan
-4.653822	kick
-4.971615	kicking
-5.301747	kidney
-4.369555	kill
-5.241611	killer
-5.178964	killing
-5.178964	kilo
-5.230522	kilometer
-5.038897	kim
-5.431007	kin
-3.031703	kind
-4.837721	kindergarten
-5.091225	kindle
-5.15685	kindly
-5.454811	kindness
-4.374611	king
-5.241611	kingdom
-5.436837	kiosk
-5.175735	kiri
-4.623022	kiss
-4.924052	kit
-4.57448	kitchen
-4.806382	kite
-5.07562	kitty
-4.933157	knee
-4.358145	knew
-4.940581	knife
-5.195479	knitting
-5.361586	knob
-4.828948	knock
-2.281087	know
-4.781024	knowing
-4.544141	knowledge
-4.656734	known
-4.505352	ko
-5.306069	koi
-5.392255	koko
-4.635823	kopi
-4.629375	kos
-4.489828	kosong
-5.020512	kuan
-5.425255	kurung
-5.141716	kurus
-3.693391	l
-3.019119	la
-4.541893	lab
-4.770775	label
-5.185495	labour
-4.971615	lack
-5.454811	ladder
-4.935001	ladies
-3.859221	lady
-5.073073	lag
-5.28488	lagoon
-5.15378	lai
-3.488503	lain
-4.915134	lake
-3.752307	lama
-4.868318	lamb
-4.629375	lame
-4.518609	lamp
-5.230522	lamppost
-5.141716	lan
-4.490491	land
-4.887767	landed
-5.205698	landing
-4.683855	lane
-4.331557	language
-5.159941	lap
-5.043618	lar
-4.846676	large
-4.45788	lari
-5.366549	laser
-3.11028	last
-5.310434	lastly
-3.933893	late
-5.185495	lately
-3.634341	later
-4.225442	latest
-4.377673	laugh
-4.599351	laughing
-5.264676	launch
-5.078182	laundry
-5.256851	lavender
-4.242735	law
-4.519318	lawyer
-4.775869	lay
-5.112944	layer
-5.230522	layout
-4.169983	lazy
-4.641427	lead
-4.783625	leader
-5.050797	leadership
-5.163054	leading
-5.055649	leaf
-4.992202	league
-5.402979	leak
-5.202265	lean
-3.708812	learn
-5.185495	learned
-4.360108	learning
-4.690119	learnt
-5.448736	lease
-3.67139	least
-3.478958	leave
-5.073073	leaves
-4.76825	leaving
-4.674625	lecture
-4.644256	lecturer
-5.425255	led
-4.325611	lee
-3.416879	left
-5.280763	leftover
-4.104671	leg
-4.877934	legal
-5.347027	legally
-4.908129	legend
-4.371571	legit
-4.85275	leisure
-4.908129	lemon
-5.249164	lend
-5.07562	length
-4.994315	lens
-4.000718	less
-4.762001	lesser
-4.246505	lesson
-3.246809	let
-4.030067	letter
-3.770016	level
-4.940581	li
-5.28488	liar
-5.178964	liberal
-4.564917	library
-4.522165	license
-4.469112	lie
-3.216941	life
-5.310434	lifetime
-4.397584	lift
-3.889262	light
-4.920463	lighter
-5.332941	lighting
-5.37665	lightning
-1.848947	like
-4.778439	likely
-5.310434	liking
-5.198859	lily
-4.915134	lim
-5.241611	lime
-4.361093	limit
-4.210551	limited
-4.925858	lin
-3.533381	line
-5.04839	ling
-5.413974	linguistics
-4.369555	link
-5.297469	linked
-4.899529	lion
-4.834777	lip
-5.138752	lipstick
-5.050797	liquid
-5.386991	liquidity
-4.103036	list
-5.306069	listed
-4.012486	listen
-4.484555	listening
-5.124225	lit
-4.301747	literally
-5.223283	literary
-4.951961	literature
-3.732153	little
-3.788741	live
-5.402979	lived
-5.245371	liver
-4.181565	living
-5.356679	lizard
-4.712783	lo
-5.099243	load
-5.237883	loading
-5.328345	loaf
-5.425255	loafer
-4.340397	loan
-5.212647	lobby
-5.000718	lobster
-3.861556	local
-5.431007	locate
-4.463459	location
-4.684893	lock
-5.195479	locked
-5.038897	locker
-5.226888	lodge
-5.356679	loft
-4.049351	log
-5.347027	logged
-4.979733	logic
-5.169348	logical
-4.741403	login
-4.918679	lonely
-3.295896	long
-4.192125	longer
-3.339692	look
-3.711014	looking
-4.913372	loop
-5.104671	loose
-5.188797	lord
-5.135807	lori
-5.205698	lorry
-4.317956	lose
-5.460971	loser
-4.940581	losing
-5.018267	loss
-4.154699	lost
-2.986276	lot
-4.754619	lots
-5.371571	lottery
-4.438601	loud
-5.306069	loudly
-5.314843	lounge
-5.009404	lousy
-3.360748	love
-5.323798	lovely
-4.955821	lover
-5.025035	loving
-3.994315	low
-4.429851	lower
-4.916903	loyal
-5.276685	loyalty
-4.57207	luck
-4.957764	luckily
-4.265467	lucky
-5.060556	luggage
-5.301747	lump
-4.125083	lunch
-5.280763	lung
-5.101949	luxury
-4.525752	lying
-3.325157	m
-4.274661	ma
-4.597648	mac
-4.278719	machine
-4.5179	mad
-4.67768	madam
-3.841728	made
-5.101949	magazine
-4.649013	magic
-4.800919	magical
-4.693285	maid
-4.273853	mail
-3.452979	main
-4.729727	mainly
-4.607968	maintain
-4.673612	maintenance
-4.541146	major
-5.050797	majority
-3.181728	make
-4.711676	maker
-4.185824	making
-5.091225	mala
-4.076131	male
-4.269041	mall
-3.432283	man
-3.111416	mana
-4.340867	manage
-4.480643	management
-4.250309	manager
-4.679729	mandarin
-5.436837	mandatory
-5.230522	manga
-5.073073	mango
-5.402979	manipulate
-5.068023	manner
-4.920463	manual
-3.34498	many
-4.817518	map
-5.431007	maple
-5.15378	marathon
-5.289035	marble
-4.489828	march
-5.323798	maria
-4.708374	marina
-5.04839	marine
-4.198181	mark
-5.110169	marker
-3.933709	market
-4.675641	marketing
-5.361586	marking
-5.16619	maroon
-4.188466	marriage
-4.041015	married
-4.806382	marry
-5.241611	mart
-5.356679	martial
-5.301747	martin
-4.716119	marvel
-5.234187	mary
-5.07562	mas
-3.382877	masa
-5.431007	mash
-5.022768	masjid
-4.668579	mask
-4.940581	mass
-4.894449	massage
-4.303903	master
-4.585083	mat
-4.280763	match
-4.573675	matching
-4.833313	mate
-4.733197	material
-4.256463	maternity
-4.430429	math
-5.226888	mathematics
-4.01337	matter
-4.904668	mature
-5.245371	maturing
-4.936853	maturity
-4.719481	mau
-4.577715	maximum
-5.17253	maxwell
-3.370209	may
-2.901133	maybe
-2.487856	me
-4.036089	meal
-2.814945	mean
-4.214754	meaning
-4.590065	meaningful
-4.849703	meaningless
-4.593419	meant
-5.209159	meanwhile
-5.169348	measure
-4.326976	meat
-4.229428	media
-5.38179	medic
-4.28364	medical
-5.163054	medication
-4.691172	medicine
-5.337586	meditation
-4.911617	medium
-3.799699	meet
-4.25069	meeting
-5.297469	melody
-5.314843	melt
-5.038897	mem
-4.31751	member
-5.182217	membership
-4.343699	memorable
-5.230522	memorize
-4.427547	memory
-4.443937	men
-5.031911	meng
-4.636752	mental
-5.212647	mentality
-5.050797	mentally
-4.287368	mention
-5.328345	mentor
-4.459732	menu
-5.386991	mercy
-5.237883	mere
-5.448736	merge
-5.293231	meriah
-5.37665	merit
-5.356679	merry
-4.988006	mess
-4.114897	message
-5.310434	messenger
-4.953887	messy
-4.268244	met
-4.868318	metal
-4.848187	meter
-4.961677	method
-4.636752	mi
-5.460971	mice
-5.297469	micro
-5.272645	microphone
-4.487843	mid
-4.077925	middle
-4.86516	midnight
-3.758417	might
-5.17253	migrate
-5.007216	mike
-5.293231	mild
-5.007216	mile
-5.310434	military
-4.278719	milk
-3.967612	million
-5.272645	millionaire
-5.314843	millions
-4.495836	milo
-5.223283	min
-3.506659	mind
-5.223283	minded
-3.299945	mine
-5.436837	mineral
-5.147707	ming
-5.169348	minibus
-5.408442	minimal
-4.600205	minimum
-4.98385	minister
-4.879558	ministry
-4.886113	minor
-5.332941	minority
-5.386991	mint
-4.582613	minus
-3.935001	minute
-5.314843	miracle
-4.744967	mirror
-4.996439	mismatch
-3.854282	miss
-4.4787	missing
-4.916903	mission
-4.686975	mistake
-4.197504	mister
-4.259573	mix
-4.901235	mixed
-5.328345	mixture
-4.899529	mo
-4.516488	mobile
-5.15378	modal
-4.753401	mode
-4.518609	model
-4.649013	modern
-4.622122	module
-3.672802	moment
-5.392255	mommy
-3.262471	money
-4.584258	monitor
-4.879558	monkey
-5.043618	monster
-3.679523	month
-4.632127	monthly
-4.61676	mood
-4.742588	moon
-5.310434	moonlight
-5.17253	mop
-4.724006	moral
-2.851636	more
-5.007216	morgan
-3.654597	morning
-5.38179	morris
-5.337586	mosque
-3.186219	most
-4.301318	mostly
-3.795792	mother
-5.454811	motherland
-4.963646	motion
-5.110169	motivate
-5.093881	motivation
-4.388563	motor
-5.005039	motorcycle
-4.897829	motto
-5.099243	mount
-4.628462	mountain
-5.04839	mouse
-4.381273	mouth
-3.707388	move
-4.881187	movement
-3.656247	movie
-4.131428	moving
-4.796866	mu
-3.134021	much
-5.301747	mud
-5.371571	muffin
-5.036556	multiple
-5.205698	multiply
-3.842027	mum
-4.735526	mummy
-5.306069	murder
-4.733197	murid
-4.961677	muscle
-4.614987	museum
-5.036556	mushroom
-3.810108	music
-4.814707	musical
-5.314843	musician
-3.401407	must
-5.332941	mustard
-5.448736	mutant
-5.009404	mutton
-5.17253	mutual
-2.295616	my
-3.701303	myself
-5.110169	mystery
-3.533967	n
-4.775869	na
-5.328345	nag
-3.940581	naik
-5.249164	nail
-2.7621	nak
-4.990098	naked
-3.275429	name
-4.836247	nana
-5.37665	nanny
-5.150733	nap
-5.431007	narrow
-3.677475	nasi
-5.293231	nasty
-5.055649	nation
-4.289035	national
-5.419578	nationality
-5.361586	native
-4.448736	natural
-4.957764	naturally
-4.330178	nature
-5.060556	naughty
-5.431007	navy
-3.82291	near
-4.499889	nearby
-4.601918	nearest
-5.068023	nearly
-5.159941	necessarily
-4.652856	necessary
-4.915134	neck
-5.036556	necklace
-2.886014	need
-4.340867	needs
-5.436837	needy
-4.588398	negative
-5.099243	neighbor
-4.896136	neighborhood
-5.135807	neither
-5.195479	nephew
-5.234187	nervous
-4.418451	net
-5.025035	netball
-4.840686	network
-5.141716	neutral
-3.097278	never
-3.363267	new
-4.259573	news
-4.765739	newspaper
-4.992202	newton
-3.112805	next
-2.983581	ni
-3.233488	nice
-5.022768	nicely
-5.28488	nick
-4.881187	nickname
-5.202265	niece
-3.705858	night
-5.328345	nightmare
-5.175735	nights
-3.086065	nine
-4.194135	nineteen
-3.994951	ninety
-5.25299	ninth
-2.342144	no
-4.061544	nobody
-4.813308	noise
-4.877934	noisy
-5.328345	nominal
-4.228701	non
-4.72287	none
-4.710573	nonsense
-4.522165	noodle
-4.591739	nope
-4.894449	nor
-5.212647	norm
-3.705532	normal
-3.982404	normally
-4.259183	north
-5.280763	northern
-4.684893	nose
-2.356396	not
-4.203978	note
-5.107412	noted
-3.548218	nothing
-4.369555	notice
-5.17253	notification
-5.371571	notify
-5.16619	notional
-5.124225	noun
-5.08076	novel
-5.07054	novice
-2.725931	now
-4.066019	nowadays
-5.016034	nowhere
-5.442746	nuclear
-5.38179	nugget
-5.129978	numb
-3.091384	number
-5.06552	nun
-4.535954	nurse
-5.144701	nursery
-4.879558	nursing
-5.323798	nut
-5.38179	nutrition
-3.375833	o
-4.285707	object
-5.260746	objective
-5.216164	observe
-5.202265	obtain
-4.814707	obvious
-4.246884	obviously
-5.310434	occasion
-5.425255	occasionally
-4.783625	ocean
-5.425255	octopus
-5.127092	odd
-2.187252	of
-3.581138	off
-4.11883	offer
-5.392255	offering
-3.82707	office
-3.875027	officer
-5.007216	official
-5.425255	officially
-5.314843	offshore
-4.377161	often
-2.337306	oh
-4.464709	oil
-4.925858	oily
-3.332664	old
-5.347027	olden
-4.265862	older
-5.195479	olive
-5.347027	omelette
-2.458768	on
-3.617027	once
-2.194672	one
-5.454811	ongoing
-5.025035	onion
-2.902777	only
-4.705096	onto
-4.933157	onwards
-5.397584	opah
-3.547308	open
-4.61676	opening
-5.219709	opera
-5.38179	operate
-5.28488	operating
-4.953887	operation
-4.402436	operator
-4.595952	opinion
-5.431007	opponent
-4.637683	opportunity
-4.353761	opposite
-4.600205	option
-2.502352	or
-4.981786	oral
-2.798982	orang
-4.149217	orange
-4.341338	orchard
-5.068023	orchestra
-3.746761	order
-5.060556	ordered
-5.202265	ordinary
-5.319297	organ
-5.107412	organic
-5.256851	organization
-5.018267	organize
-5.448736	organizer
-4.944341	orientation
-4.739042	origin
-4.318403	original
-3.080579	other
-4.614987	otherwise
-5.460971	ouch
-3.214015	our
-4.827502	ours
-5.38179	ourself
-4.792851	ourselves
-2.950139	out
-5.163054	outbreak
-4.988006	outcome
-4.915134	outdoor
-5.460971	outdoors
-5.202265	outer
-4.957764	outfit
-5.249164	outgoing
-5.08076	outing
-4.700764	outlet
-5.15685	outline
-5.226888	outlook
-5.085961	output
-3.882495	outside
-5.175735	outstanding
-5.063031	oven
-3.381066	over
-4.836247	overall
-5.169348	overcome
-5.442746	overhead
-5.361586	overlap
-5.144701	overload
-4.98385	overnight
-5.000718	oversea
-4.106863	overseas
-5.234187	overtime
-5.351826	overweight
-5.234187	owe
-3.565548	own
-4.727429	owner
-5.413974	ownself
-4.857362	oxygen
-5.058095	oyster
-3.311928	p
-4.659665	pa
-4.975655	pace
-5.425255	pacemaker
-5.195479	pacific
-4.545646	pack
-4.693285	package
-4.959716	packet
-4.47356	pad
-4.298321	page
-5.063031	pail
-3.92622	pain
-4.795524	painful
-4.887767	paint
-4.906395	painting
-4.580157	pair
-5.241611	palace
-5.050797	pale
-3.826206	paling
-5.301747	palm
-5.045998	pan
-5.392255	panama
-4.86516	pancake
-4.698614	panda
-4.953887	pandan
-4.806382	panel
-5.276685	pang
-5.045998	panic
-5.319297	pant
-5.408442	panther
-4.123084	pants
-5.147707	papa
-4.053459	paper
-5.085961	par
-5.068023	para
-4.950043	parade
-5.202265	paradise
-5.110169	pardon
-4.211248	parent
-4.929492	parental
-3.928945	park
-4.837721	parking
-3.458928	part
-5.413974	partial
-4.612342	participate
-4.322443	particular
-5.306069	particularly
-5.419578	partly
-4.102492	partner
-4.138752	party
-4.904668	pasang
-3.720382	pass
-5.083353	passenger
-4.741403	passing
-4.572872	passion
-5.175735	passionate
-5.182217	passive
-4.373088	passport
-5.018267	password
-3.949087	past
-4.778439	paste
-5.306069	pat
-4.992202	patch
-4.654791	paternity
-4.74736	path
-4.8715	patience
-3.867527	patient
-4.811914	pattern
-4.933157	pause
-5.104671	pavement
-5.301747	pavilion
-3.514448	pay
-4.452371	paying
-4.051521	payment
-5.121377	pea
-4.765739	peace
-5.099243	peaceful
-4.576095	peach
-4.648057	peak
-5.124225	peanut
-4.741403	pear
-5.060556	pearl
-4.904668	pee
-5.147707	peek
-5.332941	peel
-5.022768	peer
-5.175735	peeve
-5.425255	peggy
-5.413974	pekan
-4.56413	pen
-5.323798	penalty
-4.305635	penang
-4.922254	pencil
-5.127092	pending
-5.306069	penguin
-5.448736	pension
-2.891296	people
-4.862024	pepper
-4.053216	per
-3.750249	percent
-4.975655	percentage
-5.268642	perception
-4.227612	perfect
-5.323798	perfectly
-4.744967	perform
-4.598499	performance
-5.195479	perfume
-4.772043	perhaps
-4.044806	period
-5.007216	permanent
-5.442746	permission
-4.967612	permit
-5.237883	perpetual
-3.246354	person
-3.919927	personal
-4.5179	personality
-4.55402	personally
-4.783625	perspective
-5.055649	pertaining
-4.144102	pet
-4.946233	peter
-4.881187	petrol
-5.272645	petty
-4.381273	pharmacy
-4.961677	phase
-5.310434	philosophy
-3.53075	phone
-4.229064	photo
-5.392255	photocopy
-5.442746	photograph
-5.256851	photography
-4.330637	phrase
-4.497183	physical
-4.935001	physically
-4.696475	physics
-4.849703	pi
-4.590901	piano
-3.987588	pick
-5.15378	picked
-5.431007	picky
-4.873099	picnic
-3.830543	picture
-4.409543	pie
-4.372581	piece
-4.678703	pig
-5.293231	pigeon
-5.268642	pile
-5.132883	pill
-5.018267	pillow
-4.802278	pilot
-4.701843	pin
-4.685933	pinang
-5.188797	pineapple
-4.942457	ping
-3.898508	pink
-5.297469	pinkish
-4.65093	pioneer
-5.241611	pipe
-4.619432	pisang
-5.419578	piss
-5.256851	pit
-5.073073	pitch
-5.124225	pity
-4.287785	pizza
-3.355655	place
-4.705096	plain
-3.846526	plan
-4.779729	plane
-5.159941	planet
-5.397584	plank
-4.820347	plant
-4.601061	plastic
-4.627551	plate
-4.743776	platform
-3.409102	play
-4.468481	player
-5.366549	playful
-4.713892	playground
-4.833313	plaza
-5.419578	pleasant
-3.397102	please
-5.436837	pleasure
-5.397584	plenty
-4.996439	plot
-5.178964	pluck
-5.15685	plug
-4.946233	plum
-3.675743	plus
-5.351826	po
-4.831852	pocket
-3.277091	point
-5.241611	pointer
-4.640488	pointing
-5.419578	poison
-5.091225	poke
-5.419578	poker
-5.209159	polar
-4.692227	pole
-4.294075	police
-4.85275	policy
-4.607099	polis
-5.188797	polish
-5.419578	polite
-4.996439	political
-4.810524	politics
-5.078182	polo
-4.045998	poly
-4.985922	polyclinic
-5.093881	polytechnic
-5.293231	pon
-5.073073	pond
-5.088585	pong
-4.322443	pool
-4.251839	poor
-4.343699	pop
-4.820347	popcorn
-4.275874	popular
-4.975655	population
-4.614987	pork
-4.74736	porridge
-4.809139	port
-5.234187	portable
-4.622122	portal
-4.477409	portfolio
-4.649971	portion
-4.894449	pose
-4.266654	position
-4.465963	positive
-4.765739	possession
-5.234187	possibility
-4.086746	possible
-5.223283	possibly
-3.953501	post
-4.45055	postal
-5.073073	posted
-4.605365	poster
-5.38179	posting
-4.748562	pot
-4.358145	potato
-4.720608	potatoes
-5.073073	potential
-4.515784	potong
-5.112944	potter
-4.911617	pound
-4.990098	pour
-4.752186	powder
-3.943209	power
-5.096554	powerful
-4.788873	practical
-5.306069	practically
-4.60884	practice
-5.419578	praise
-5.169348	pram
-5.356679	prank
-4.73436	prawn
-4.784931	pray
-5.25299	prayer
-5.178964	precious
-5.091225	precisely
-5.386991	predict
-5.442746	prefect
-4.086484	prefer
-5.036556	preference
-5.371571	preferred
-4.951961	pregnant
-5.085961	premium
-5.356679	preparation
-4.373088	prepare
-4.887767	prepared
-5.402979	preschool
-4.576904	present
-4.773314	presentation
-5.013813	preserve
-4.967612	president
-4.367049	press
-5.419578	pressing
-4.433913	pressure
-5.016034	pretend
-3.890261	pretty
-4.854282	prevent
-4.308246	previous
-4.497183	previously
-3.912318	price
-5.366549	pride
-3.797135	primary
-4.944341	prime
-5.16619	prince
-4.946233	princess
-5.118548	principal
-5.260746	principle
-4.627551	print
-5.219709	prior
-4.971615	priority
-4.876317	prison
-5.198859	privacy
-4.259573	private
-5.195479	privilege
-5.138752	prize
-4.374103	pro
-5.342281	probability
-3.539359	probably
-3.598158	problem
-4.77459	procedure
-4.189793	proceed
-4.204666	process
-5.342281	procrastinate
-4.990098	procrastinating
-4.892769	produce
-5.351826	producer
-4.44934	product
-4.896136	production
-5.118548	productive
-4.936853	prof
-5.332941	profession
-4.47356	professional
-4.833313	professor
-4.971615	profile
-5.000718	profit
-4.376139	program
-4.800919	progress
-4.148612	project
-5.078182	promise
-4.884465	promote
-5.37665	promoter
-4.617649	promotion
-5.093881	prompt
-4.886113	pronounce
-4.988006	proof
-5.209159	proofread
-5.413974	propaganda
-4.50398	proper
-4.402436	properly
-4.595106	property
-4.807758	proposal
-5.256851	propose
-5.07562	prospectus
-5.000718	protect
-5.147707	protection
-5.436837	protective
-4.935001	protein
-4.975655	prove
-4.30304	provide
-4.786241	provided
-5.392255	provider
-5.460971	providing
-4.580157	provoking
-4.927671	psychology
-4.873099	puan
-4.623022	pub
-4.190791	public
-5.276685	publish
-5.178964	pudding
-5.205698	puff
-4.438013	pull
-5.386991	pulse
-5.000718	pump
-5.347027	pumpkin
-2.905911	pun
-5.04839	punch
-5.431007	punishment
-5.050797	puppy
-4.886113	purchase
-4.773314	pure
-5.264676	purely
-4.272645	purple
-4.426973	purpose
-4.957764	purposely
-5.058095	pursue
-4.145901	push
-4.805009	pushing
-3.217154	put
-5.425255	puzzle
-3.884136	q
-5.454811	qualification
-5.419578	qualified
-5.073073	qualify
-4.44633	quality
-5.314843	quantity
-4.927671	quarantine
-5.202265	quarrel
-4.518609	quarter
-5.38179	quay
-4.782322	queen
-5.37665	query
-5.397584	quest
-3.18787	question
-5.408442	questionnaire
-4.092817	queue
-4.521451	quick
-4.595106	quickly
-4.459114	quiet
-4.565706	quit
-3.041582	quite
-4.886113	quiz
-4.891096	quote
-3.681477	r
-5.392255	ra
-4.663604	rabbit
-4.664595	race
-5.237883	racial
-5.256851	racing
-5.241611	racist
-5.337586	rack
-5.034227	racket
-4.47356	radio
-5.301747	raid
-4.495164	rain
-5.212647	rainbow
-5.323798	rainy
-4.777152	raise
-5.436837	raised
-5.212647	raising
-5.17253	raja
-4.655761	rakan
-5.454811	ram
-4.830398	ran
-4.45788	random
-5.135807	randomly
-4.701843	range
-4.961677	rank
-4.445731	rap
-4.736695	rare
-4.98385	rarely
-3.204562	rasa
-5.402979	rat
-5.135807	rata
-3.939086	rate
-5.260746	rated
-3.998145	rather
-5.07054	rating
-5.293231	ratio
-5.442746	ration
-4.766993	raw
-5.058095	ray
-4.031911	raya
-4.564917	re
-4.184181	reach
-5.245371	reaching
-4.800919	react
-5.011602	reaction
-3.659469	read
-4.216164	reading
-4.194135	ready
-3.890595	real
-5.107412	realistic
-4.846676	reality
-4.391197	realize
-2.765827	really
-3.971816	reason
-5.068023	reasonable
-5.347027	rebate
-4.918679	rebel
-5.306069	rebellious
-4.76449	rebus
-4.786241	recall
-4.944341	receipt
-4.059816	receive
-4.06552	received
-4.524313	recent
-3.94133	recently
-5.301747	reception
-4.527194	recess
-5.397584	recheck
-4.794186	recipe
-5.337586	recognition
-5.241611	recognize
-4.487184	recommend
-5.366549	recommendation
-5.314843	reconfirm
-4.258405	record
-4.510189	recording
-4.998573	recover
-5.436837	recovery
-5.347027	recruit
-4.967612	rectangle
-5.219709	rectangular
-5.178964	recycle
-3.538913	red
-5.454811	reddish
-5.25299	redeem
-5.392255	redemption
-5.293231	redo
-4.936853	reduce
-4.697543	refer
-4.288201	reference
-5.15378	reflect
-5.413974	reflected
-5.371571	reflection
-4.98385	refresh
-4.834777	refund
-5.073073	refuse
-4.118548	regarding
-5.093881	regardless
-5.245371	region
-4.550194	register
-4.772043	registered
-4.908129	registration
-4.653822	regret
-4.845171	regular
-5.260746	regularly
-5.448736	rehearsal
-5.055649	reimbursement
-4.681787	reject
-5.397584	rejection
-4.843671	relate
-4.324703	related
-5.371571	relation
-4.197504	relationship
-5.011602	relative
-5.209159	relatively
-4.165875	relax
-5.272645	relaxed
-4.654791	release
-4.624827	relevant
-5.419578	reliable
-5.192125	relief
-5.280763	relieve
-4.757066	religion
-4.933157	religious
-4.990098	relive
-5.175735	rely
-5.178964	remain
-3.430198	remember
-4.897829	remind
-4.67768	remit
-4.692227	remittance
-5.272645	remix
-5.182217	remote
-4.729727	remove
-4.748562	renew
-5.241611	renewal
-5.402979	renovate
-5.237883	renovation
-4.510189	rent
-4.821769	rental
-5.055649	repair
-4.094148	repeat
-5.073073	replace
-5.124225	replacement
-4.306069	reply
-4.210202	report
-5.356679	reporter
-5.260746	represent
-5.088585	republic
-5.366549	reputation
-4.479346	request
-4.682819	require
-4.828948	requirement
-5.314843	rescue
-4.325157	research
-5.147707	reserve
-5.425255	reserved
-5.431007	reservist
-5.04839	reservoir
-5.011602	reset
-4.851224	resident
-5.413974	residential
-4.996439	resign
-4.778439	resort
-5.068023	resource
-4.586738	respect
-4.786241	respond
-4.889428	response
-4.985922	responsibility
-5.091225	responsible
-4.000718	rest
-4.227975	restaurant
-5.226888	resting
-5.460971	restriction
-4.44693	result
-4.971615	resume
-5.121377	retail
-5.392255	retain
-5.454811	retake
-5.280763	retarded
-5.182217	retell
-4.963646	retire
-5.276685	retired
-5.314843	retirement
-5.297469	retrieve
-5.392255	retrospect
-4.333403	return
-5.402979	reveal
-5.361586	revenue
-5.147707	reverse
-4.689068	review
-5.198859	revise
-5.241611	revision
-5.408442	revolution
-5.202265	reward
-5.397584	rhythm
-5.38179	rib
-5.110169	ribbon
-3.81978	rice
-4.240863	rich
-5.276685	rid
-4.359617	ride
-5.15685	rider
-4.626641	ridiculous
-4.963646	riding
-2.385893	right
-4.631207	ring
-4.902948	rise
-5.413974	rising
-4.058095	risk
-5.361586	risky
-4.54339	river
-3.732965	road
-5.280763	roadside
-5.055649	roast
-4.732038	robot
-4.205354	rock
-5.198859	rod
-5.366549	roger
-4.399734	role
-4.457264	roll
-4.692227	roller
-5.198859	rolling
-4.891096	romance
-4.741403	romantic
-4.487184	roof
-3.732965	room
-5.055649	roomie
-5.099243	roommate
-5.011602	root
-5.268642	rope
-4.737867	rose
-5.107412	rough
-4.370562	roughly
-4.290709	round
-4.942457	route
-4.957764	routine
-4.81611	row
-5.096554	royal
-5.280763	rub
-5.135807	rubber
-4.460351	rubbish
-5.093881	ruby
-4.739042	rude
-5.419578	ruin
-4.879558	rule
-5.234187	ruler
-3.852903	run
-5.16619	runner
-4.202265	running
-5.011602	rupa
-5.323798	rural
-4.515784	rush
-4.412307	rushing
-5.009404	russia
-5.397584	rusty
-3.100946	s
-4.741403	sa
-4.806382	sack
-5.034227	sacrifice
-3.843671	sad
-5.323798	sadly
-5.28488	sadness
-4.749766	safari
-4.422976	safe
-4.743776	safety
-5.402979	sah
-3.380241	said
-5.159941	saint
-4.929492	sake
-4.645203	salad
-4.378698	salary
-4.434496	sale
-4.884465	salmon
-4.876317	salt
-4.927671	salted
-5.058095	salty
-5.005039	sam
-4.304335	sambal
-3.1366	same
-4.915134	sample
-5.045998	san
-4.454811	sand
-4.869906	sandwich
-5.17253	sandy
-5.209159	sang
-4.927671	sapa
-5.351826	sarcastic
-5.460971	sari
-4.664595	sat
-4.963646	sate
-5.25299	satisfaction
-5.08076	satisfied
-5.431007	satisfy
-5.454811	satisfying
-4.402436	sauce
-5.085961	sausage
-4.007871	save
-5.150733	saved
-4.662616	saving
-3.674828	saw
-5.234187	sawing
-2.710352	say
-2.552095	saya
-3.680037	saying
-5.115737	scale
-5.096554	scam
-4.860465	scan
-5.328345	scar
-4.862024	scare
-5.413974	scarf
-4.191792	scary
-4.85275	scenario
-4.623022	scene
-4.944341	scenery
-4.469112	schedule
-4.638616	scheme
-4.992202	scholarship
-3.184542	school
-5.209159	schooling
-4.099243	science
-5.425255	scientific
-5.230522	scientist
-5.135807	scissors
-4.619432	scold
-5.198859	scolding
-5.347027	scoop
-5.332941	scooter
-5.053216	scope
-4.55479	score
-5.000718	scratch
-5.050797	scream
-5.178964	screaming
-4.483247	screen
-4.933157	screw
-5.342281	screwed
-5.202265	script
-5.002873	scroll
-5.347027	scrub
-4.310434	se
-4.22725	sea
-5.144701	seal
-4.313074	search
-5.202265	searching
-4.364061	season
-4.25069	seat
-5.419578	seated
-5.38179	seater
-5.129978	seaweed
-4.287785	sec
-3.541668	second
-3.839053	secondary
-5.205698	secondly
-4.698614	secret
-4.560214	section
-5.07562	sector
-5.249164	secure
-4.350863	security
-2.762858	see
-5.04839	seed
-4.483247	seeing
-4.886113	seek
-4.590065	seem
-4.069784	seen
-5.129978	seesaw
-5.216164	segment
-4.799564	seldom
-4.759526	select
-5.011602	selected
-5.342281	selection
-4.125656	self
-4.97363	selfish
-3.86218	sell
-5.293231	seller
-4.388039	selling
-4.385945	semester
-4.948134	semi
-4.831852	seminar
-4.946233	sen
-3.592494	send
-4.758294	sending
-4.414531	senior
-3.868794	sense
-4.726285	sensitive
-5.192125	sensor
-4.291968	sent
-4.3499	sentence
-4.892769	sentimental
-4.733197	separate
-5.306069	separately
-5.07054	serai
-5.043618	sergeant
-4.633048	series
-4.038428	serious
-4.314843	seriously
-5.268642	serta
-5.268642	servant
-4.500568	serve
-5.005039	server
-3.718919	service
-5.06552	serving
-5.431007	sesame
-4.522165	session
-5.328345	sessions
-3.977689	set
-4.814707	setting
-4.410094	settle
-5.245371	settled
-5.121377	settlement
-3.194705	seven
-4.34942	seventeen
-5.07562	seventh
-4.015367	seventy
-5.297469	several
-5.060556	severe
-5.448736	sewing
-4.892769	sex
-5.219709	sexual
-5.104671	sexy
-5.185495	sh
-4.424114	shack
-4.953887	shade
-5.185495	shadow
-5.132883	shag
-4.863589	shah
-4.729727	shake
-5.223283	shaking
-4.280763	shall
-5.37665	shame
-5.234187	shampoo
-4.800919	shanghai
-4.439782	shape
-3.910917	share
-4.534482	shark
-4.981786	sharp
-5.301747	shave
-5.15685	shaw
-2.682137	she
-5.188797	shed
-4.367049	sheep
-4.678703	sheet
-5.241611	shelf
-4.717237	shell
-5.212647	shellfish
-4.85582	shelter
-4.8715	shi
-5.351826	shield
-4.480643	shift
-4.438013	shine
-5.314843	shining
-4.623924	ship
-5.234187	shipping
-4.029377	shirt
-5.219709	shivering
-4.597648	shock
-5.392255	shocking
-4.241985	shoe
-4.355217	shoot
-5.454811	shooter
-4.876317	shooting
-3.541071	shop
-3.586655	shopping
-4.684893	shore
-3.875188	short
-5.101949	shorter
-5.212647	shortly
-5.361586	shortness
-4.517194	shorts
-4.668579	shot
-3.143385	should
-4.998573	shoulder
-4.863589	shout
-4.894449	shouting
-5.050797	shovel
-3.60209	show
-4.701843	shower
-4.716119	showing
-5.314843	shown
-5.402979	shrink
-5.112944	shrunk
-4.929492	shuffle
-4.660646	shut
-5.101949	shuttle
-4.851224	shy
-4.525032	si
-5.101949	sial
-4.953887	sibling
-4.345598	sick
-5.205698	sickness
-3.40592	side
-5.413974	sided
-4.967612	sides
-4.891096	sideways
-5.144701	sigh
-5.06552	sight
-3.667081	sign
-4.969609	signal
-5.04839	signature
-4.465963	signboard
-5.185495	significance
-4.76825	significant
-5.150733	silence
-5.016034	silent
-4.24236	silly
-4.874705	silver
-4.351826	similar
-4.971615	similarity
-4.113502	simple
-4.994315	simply
-5.306069	sin
-3.743538	since
-5.408442	sincere
-3.884136	sing
-4.807758	singer
-4.590901	singing
-3.989889	single
-5.436837	singlet
-5.301747	sink
-3.921536	sir
-4.953887	sis
-3.98261	sister
-3.972621	sit
-4.669581	site
-4.080501	sitting
-4.152559	situation
-3.083352	six
-4.141716	sixteen
-4.858911	sixth
-3.91708	sixty
-4.152559	size
-5.249164	skate
-5.182217	skating
-5.361586	sketch
-5.124225	sketchbook
-5.356679	ski
-4.400813	skill
-5.328345	skim
-4.256851	skin
-5.034227	skinny
-4.258405	skip
-5.454811	skipping
-4.630291	skirt
-4.502612	sky
-4.790195	slack
-5.419578	slam
-5.289035	slang
-5.118548	slap
-4.658686	slash
-3.897151	sleep
-4.383862	sleeping
-4.915134	sleepy
-4.798213	sleeve
-5.135807	slept
-5.099243	slice
-4.750974	slide
-5.147707	slight
-4.412862	slightly
-5.029607	slim
-4.936853	slip
-4.963646	slipper
-4.873099	slogan
-5.198859	slope
-5.041251	slot
-4.264676	slow
-4.361586	slowly
-3.57869	small
-4.412307	smaller
-4.240489	smart
-5.386991	smash
-4.521451	smell
-4.979733	smelly
-4.705096	smile
-5.022768	smiling
-5.175735	smith
-4.376139	smoke
-4.814707	smoking
-4.906395	smooth
-4.824626	snack
-4.863589	snake
-5.132883	snap
-5.454811	snatch
-4.998573	sneak
-5.289035	sniffing
-4.814707	snow
-1.990044	so
-5.413974	soak
-5.16619	soap
-4.195479	soccer
-3.904841	social
-4.304768	society
-5.337586	sociology
-4.869906	sock
-5.011602	sofa
-4.332018	soft
-5.392255	softball
-5.413974	soil
-5.419578	solar
-4.810524	sold
-5.319297	soldier
-5.332941	sole
-5.289035	solemnization
-5.135807	solid
-4.673612	solo
-4.876317	solution
-4.792851	solve
-2.975716	some
-4.133174	somebody
-5.386991	someday
-4.483247	somehow
-3.564996	someone
-5.091225	somerset
-2.957161	something
-4.077669	sometime
-3.571349	sometimes
-5.138752	somewhat
-4.15685	somewhere
-4.069784	son
-4.000718	song
-4.110446	soon
-5.226888	sore
-3.262275	sorry
-4.154393	sort
-4.732038	soul
-4.093881	sound
-4.210202	soup
-4.967612	sour
-4.846676	source
-4.508801	south
-5.454811	southeast
-5.431007	southern
-5.268642	souvenir
-5.386991	soy
-5.099243	soya
-4.896136	spa
-4.243111	space
-5.06552	spade
