
\data\
ngram 1=6118
ngram 2=0
ngram 3=0

\1-grams:
-99	</s>
-99	<s>
-3.532568	__Abraham_Solomon
-3.532568	__Admiralty_Greens
-3.532568	__Admiralty_Road
-3.532568	__Admiralty_West
-3.532568	__Ah_Hood_Road
-3.532568	__Aida_Street
-3.532568	__Airline_Road
-3.532568	__Airport_Cargo_Road
-3.532568	__Al_Islamiah
-3.532568	__Al_Islamic
-3.532568	__Alex_Josey
-3.532568	__Alexander_Laurie_Johnston
-3.532568	__Alexandra_Lane
-3.532568	__Alexandra_Road
-3.532568	__Aliman_Hassan
-3.532568	__Aljunied_Avenue
-3.532568	__Aljunied_Crescent
-3.532568	__Aljunied_Hussein
-3.532568	__Aljunied_Neighbourhood
-3.532568	__Aljunied_Road
-3.532568	__Alnwick_Road
-3.532568	__Amasalam_Chetty_Road
-3.532568	__Anak_Bukit
-3.532568	__Anchorvale_Drive
-3.532568	__Anchorvale_Street
-3.532568	__Ang_Mo_Kio
-3.532568	__Ang_Mo_Kio_Street
-3.532568	__Ang_Peng_Tiam
-3.532568	__Angsana_Avenue
-3.532568	__Angsana_Drive
-3.532568	__Ann_Siang_Hill
-3.532568	__Anthony_Road
-3.532568	__Arab_Street
-3.532568	__Arrival_Crescent
-3.532568	__Arts_Link
-3.532568	__Arumugam_Road
-3.532568	__Asia_Pacific
-3.532568	__Asia_Square
-3.532568	__Asimont_Lane
-3.532568	__Attap_Valley_Lane
-3.532568	__Au_Yun_Pak
-3.532568	__Auckland_Road_West
-3.532568	__Australian_International
-3.532568	__Ava_Road
-3.532568	__Avon_Road
-3.532568	__Baker_Street
-3.532568	__Bali_Lane
-3.532568	__Balmoral_Crescent
-3.532568	__Bao_Gong
-3.532568	__Bartley_Road
-3.532568	__Beach_Road
-3.532568	__Beatty_Road
-3.532568	__Bedok_Anchorvale_Crescent
-3.532568	__Bedok_Green
-3.532568	__Bedok_Lighthouse
-3.532568	__Bedok_North
-3.532568	__Bedok_Point
-3.532568	__Bedok_Points
-3.532568	__Bedok_Reservoir
-3.532568	__Bedok_Ria_Crescent
-3.532568	__Bedok_South
-3.532568	__Bedok_View
-3.532568	__Beeh_Low_See
-3.532568	__Begonia_Walk
-3.532568	__Belilios_Lane
-3.532568	__Belmont_Road
-3.532568	__Bernice_Ong
-3.532568	__Bethlehem_Bible_Presbyterian
-3.532568	__Binchang_Rise
-3.532568	__Bishan_Point
-3.532568	__Bishan_Street
-3.532568	__Blackmore_Drive
-3.532568	__Bliss_Hotel
-3.532568	__Blue_Cross
-3.532568	__Blue_Stars
-3.532568	__Bo_Seng_Avenue
-3.532568	__Boarding_House
-3.532568	__Boat_Quay
-3.532568	__Bodmin_Drive
-3.532568	__Bonham_Street
-3.532568	__Boon_Keng
-3.532568	__Boon_Lay
-3.532568	__Boon_Lay_Place
-3.532568	__Boon_Tat_Street
-3.532568	__Boon_Teck_Road
-3.532568	__Borthwick_Drive
-3.532568	__Boundary_Road
-3.532568	__Braddell_Road
-3.532568	__Brani_Drive
-3.532568	__Brani_Marine
-3.532568	__Brani_Way
-3.532568	__Bridport_Avenue
-3.532568	__Bright_Hill
-3.532568	__Bristol_Road
-3.532568	__Buangkok_View
-3.532568	__Bukit_Batok
-3.532568	__Bukit_Batok_Avenue
-3.532568	__Bukit_Batok_Avenue_West
-3.532568	__Bukit_Batok_Central
-3.532568	__Bukit_Batok_Central_Link
-3.532568	__Bukit_Batok_Crescent
-3.532568	__Bukit_Batok_East
-3.532568	__Bukit_Batok_East_Avenue
-3.532568	__Bukit_Batok_Road
-3.532568	__Bukit_Batok_Street
-3.532568	__Bukit_Batok_West
-3.532568	__Bukit_Batok_West_Avenue
-3.532568	__Bukit_Chandu
-3.532568	__Bukit_Ho_Swee_Link
-3.532568	__Bukit_Manis_Road
-3.532568	__Bukit_Merah
-3.532568	__Bukit_Merah_View
-3.532568	__Bukit_Mugliston
-3.532568	__Bukit_Sedap_Road
-3.532568	__Bukit_Teresa_Close
-3.532568	__Bukit_Timah
-3.532568	__Bukit_Timah_Avenue
-3.532568	__Bukit_Timah_Link
-3.532568	__Bukit_Timah_Plaza
-3.532568	__Bukit_Timah_Road
-3.532568	__Bukit_Tinggi_Road
-3.532568	__Burmah_Road
-3.532568	__Burmese_Buddhist
-3.532568	__Bury_Road
-3.532568	__Buyong_Road
-3.532568	__Canberra_View
-3.532568	__Canning_Lane
-3.532568	__Canning_Rise
-3.532568	__Cantonment_Complex
-3.532568	__Carisbrooke_Grove
-3.532568	__Carl_Alexander
-3.532568	__Carlton_Avenue
-3.532568	__Carnation_Drive
-3.532568	__Cashew_Crescent
-3.532568	__Cashew_Road
-3.532568	__Cassia_Crescent
-3.532568	__Ceylon_Road
-3.532568	__Chai_Chee
-3.532568	__Chai_Chee_Drive
-3.532568	__Chai_Chee_Street
-3.532568	__Chan_Chun_Sing
-3.532568	__Chan_Sek_Keong
-3.532568	__Chancery_Lane
-3.532568	__Chang_Ziang
-3.532568	__Changi_Business_Park_Vista
-3.532568	__Changi_Coast
-3.532568	__Changi_East_Drive
-3.532568	__Changi_East_Road
-3.532568	__Changi_South_Lane
-3.532568	__Changi_Village_Road
-3.532568	__Changkat_Changi
-3.532568	__Chatsworth_Road
-3.532568	__Cheang_Hong_Lim_Place
-3.532568	__Cheang_Hong_Lim_Street
-3.532568	__Chencharu_Lane
-3.532568	__Chencharu_Link
-3.532568	__Cheo_Kim_Ban
-3.532568	__Chestnut_Crescent
-3.532568	__Chew_Kheng_Chuan
-3.532568	__Chin_Bee_Road
-3.532568	__Chin_Cheng_Avenue
-3.532568	__Chin_Chew_Street
-3.532568	__Chin_Swee
-3.532568	__China_Street
-3.532568	__Chinatown_Complex
-3.532568	__Chinatown_Hotel
-3.532568	__Chinatown_Point
-3.532568	__Chinese_Garden
-3.532568	__Chinese_Garden_Road
-3.532568	__Choa_Chu_Kang
-3.532568	__Choa_Chu_Kang_Loop
-3.532568	__Choa_Chu_Kang_West
-3.532568	__Chong_Pang
-3.532568	__Chong_Pang_Combined
-3.532568	__Chong_You_Fook_Charles
-3.532568	__Chong_Zheng
-3.532568	__Choon_Guan_Street
-3.532568	__Choor_Singh_Sidhu
-3.532568	__Christalite_Methodist
-3.532568	__Christopher_Henry_Rothwell
-3.532568	__Chu_Siang_Tong
-3.532568	__Chuan_Hoe_Avenue
-3.532568	__Chuan_Walk
-3.532568	__Chulia_Street
-3.532568	__Chwee_Chian_View
-3.532568	__Circular_Road
-3.532568	__Claymore_Road
-3.532568	__Cleantech_View
-3.532568	__Clementi_Street
-3.532568	__Clive_Street
-3.532568	__Clunny_Hill
-3.532568	__Colchester_Grove
-3.532568	__College_Of_Medicine
-3.532568	__Collyer_Quay
-3.532568	__Compassvale_Drive
-3.532568	__Compassvale_Road
-3.532568	__Coney_Island
-3.532568	__Connexis_South
-3.532568	__Constance_Singam
-3.532568	__Cook_Street
-3.532568	__Copeland_Avenue
-3.532568	__Copthorne_King'S
-3.532568	__Corfe_Place
-3.532568	__Corporation_Road
-3.532568	__Countryside_Grove
-3.532568	__Countryside_View
-3.532568	__Court_Road
-3.532568	__Covenant_Community_Methodist
-3.532568	__Craig_Road
-3.532568	__Cranborne_Road
-3.532568	__Creek_Mangrove
-3.532568	__Croucher_Road
-3.532568	__Crowhurst_Drive
-3.532568	__Cuff_Road
-3.532568	__Cuscaden_Walk
-3.532568	__Da_Bo_Gong
-3.532568	__Daffodil_Drive
-3.532568	__Dahan_Road
-3.532568	__Dairy_Farm
-3.532568	__Dairy_Farm_Crescent
-3.532568	__Dalkeith_Road
-3.532568	__Darrell_Ang
-3.532568	__Dawson_North_Spring
-3.532568	__Dedap_Road
-3.532568	__Delta_Avenue
-3.532568	__Depot_Close
-3.532568	__Depot_Walk
-3.532568	__Devan_Nair
-3.532568	__Dimensions_International
-3.532568	__Dinding_Place
-3.532568	__Dock_Road_East
-3.532568	__Dock_Road_West
-3.532568	__Douglas_Hamilton
-3.532568	__Dover_Drive
-3.532568	__Drake_Avenue
-3.532568	__Drake_Lane
-3.532568	__Dunlop_Street
-3.532568	__Duxton_Road
-3.532568	__East_Avenue
-3.532568	__East_Coast_Avenue
-3.532568	__East_Spring
-3.532568	__Eastern_Health_Alliance
-3.532568	__Eau_Thermale_Avene
-3.532568	__Edgware_Road
-3.532568	__Edmund_Blundell
-3.532568	__Edmund_Chen
-3.532568	__Edwin_Browns
-3.532568	__Ee_Teow_Leng_Road
-3.532568	__Elias_Green
-3.532568	__Elias_Park_Avenue
-3.532568	__Ellice_Handy
-3.532568	__Empress_Road
-3.532568	__Eng_Hoon_Street
-3.532568	__Eng_Kong_Road
-3.532568	__Eng_Neo_Avenue
-3.532568	__Ernani_Street
-3.532568	__Esther_Tan
-3.532568	__Eu_Yee_Ming_Richard
-3.532568	__Eunos_Avenue
-3.532568	__Evolution_Garden_Walk
-3.532568	__Faber_Walk
-3.532568	__Fairway_Club
-3.532568	__Fairy_Point_Hill
-3.532568	__Faith_Methodist
-3.532568	__Faith_Sanctuary_Garden_Avenue
-3.532568	__Famous_Amos
-3.532568	__Fan_Yoong_Road
-3.532568	__Farrer_Garden
-3.532568	__Farrer_Park
-3.532568	__Fernvale_Lane
-3.532568	__Fire_Station
-3.532568	__Flint_Street
-3.532568	__Florence_Road
-3.532568	__Flower_Road
-3.532568	__Fo_Shan_Ting
-3.532568	__Foch_Road
-3.532568	__Folkestone_Road
-3.532568	__Fortune_Students
-3.532568	__Fourth_Street
-3.532568	__Francis_Thomas_Drive
-3.532568	__Fuk_Tak_Chi
-3.532568	__Fullerton_Bay
-3.532568	__Fulton_Avenue
-3.532568	__Fusionopolis_Walk
-3.532568	__Gallop_Park
-3.532568	__Gallop_Road
-3.532568	__Gambir_Walk
-3.532568	__Gan_Eng_Seng
-3.532568	__Gateway_Avenue
-3.532568	__Gateway_Inn
-3.532568	__George_Nigel
-3.532568	__Gerald_Crescent
-3.532568	__Geylang_Bahru
-3.532568	__Geylang_Bahru_Lane
-3.532568	__Geylang_Bahru_Terrace
-3.532568	__Geylang_East_Avenue
-3.532568	__Geylang_East_Central
-3.532568	__Geylang_Lorong
-3.532568	__Geylang_Lorong_Labang
-3.532568	__Geylang_Methodist
-3.532568	__Geylang_Methodist_School
-3.532568	__Geylang_Road
-3.532568	__Geylang_Serai
-3.532568	__Geylang_Square
-3.532568	__Geylang_United
-3.532568	__Giant_Spring
-3.532568	__Gibraltar_Crescent
-3.532568	__Gibson_Hill
-3.532568	__Gilstead_Road
-3.532568	__Giok_Hong_Tian
-3.532568	__Goldhill_Place
-3.532568	__Gopeng_Street
-3.532568	__Gordon_Arthur_Ransome
-3.532568	__Grace_Walk
-3.532568	__Great_World
-3.532568	__Green_Kiwi_Backpacker
-3.532568	__Green_Taipei
-3.532568	__Green_Zeng
-3.532568	__Greendale_Rise
-3.532568	__Greenfield_Drive
-3.532568	__Greenridge_Crescent
-3.532568	__Greenwich_Drive
-3.532568	__Grove_Crescent
-3.532568	__Guillemard_Lane
-3.532568	__Guillemard_Road
-3.532568	__Gul_Lane
-3.532568	__Gul_Street
-3.532568	__Guok_Avenue
-3.532568	__Gurkha_Contingent
-3.532568	__Hai_Sing_Crescent
-3.532568	__Haigsville_Drive
-3.532568	__Haji_Lane
-3.532568	__Halifax_Road
-3.532568	__Hamilton_Place
-3.532568	__Hampstead_Garden
-3.532568	__Hang_Chang_Chieh
-3.532568	__Happy_Hotel
-3.532568	__Harlyn_Road
-3.532568	__Harrison_Road
-3.532568	__Havelock_Road
-3.532568	__Hiang_Foo_Siang_Temple
-3.532568	__Hillview_Avenue
-3.532568	__Hilton_International
-3.532568	__Hindhede_Road
-3.532568	__Hindoo_Road
-3.532568	__Ho_Ching_Road
-3.532568	__Ho_Lee_Ling
-3.532568	__Ho_Ling
-3.532568	__Hock_Chuan
-3.532568	__Holland_Grove_Lane
-3.532568	__Holland_Hill
-3.532568	__Holland_Village
-3.532568	__Home_Team_Academy
-3.532568	__Hong_Kah
-3.532568	__Hong_San
-3.532568	__Hospital_Avenue
-3.532568	__Hougang_Avenue
-3.532568	__Hougang_One
-3.532568	__How_Sun_Drive
-3.532568	__How_Sun_Road
-3.532568	__How_Sun_Walk
-3.532568	__Hsu_Tse_Kwang
-3.532568	__Hubert_Hill
-3.532568	__Hume_Avenue
-3.532568	__Hussein_Aljunied
-3.532568	__Hwee_Kuan
-3.532568	__Hythe_Road
-3.532568	__Imbiah_Walk
-3.532568	__Inderjit_Singh
-3.532568	__Inggu_Road
-3.532568	__Institute_Of_Engineer_Singapore
-3.532568	__International_Student_Support
-3.532568	__Ipoh_Lane
-3.532568	__Iqbal_Avenue
-3.532568	__Irving_Place
-3.532568	__Jalan_Anak_Bukit
-3.532568	__Jalan_Azam'S
-3.532568	__Jalan_Baiduri
-3.532568	__Jalan_Bangsawan
-3.532568	__Jalan_Basong
-3.532568	__Jalan_Batu_Ubin
-3.532568	__Jalan_Bena
-3.532568	__Jalan_Berjaya
-3.532568	__Jalan_Berseri
-3.532568	__Jalan_Binja
-3.532568	__Jalan_Binjai
-3.532568	__Jalan_Boon_Lay
-3.532568	__Jalan_Bumbong
-3.532568	__Jalan_Bunga_Rampai
-3.532568	__Jalan_Bungar
-3.532568	__Jalan_Chengkek
-3.532568	__Jalan_Dondang_Sayang
-3.532568	__Jalan_Dua
-3.532568	__Jalan_Dusun
-3.532568	__Jalan_Enam
-3.532568	__Jalan_Gemala
-3.532568	__Jalan_Girang
-3.532568	__Jalan_Greja
-3.532568	__Jalan_Hajijah
-3.532568	__Jalan_Hari_Raya
-3.532568	__Jalan_Jeruju
-3.532568	__Jalan_Jong
-3.532568	__Jalan_Kampong_Chantek
-3.532568	__Jalan_Kampong_Siglap
-3.532568	__Jalan_Kayu_Manis
-3.532568	__Jalan_Kechil
-3.532568	__Jalan_Keli
-3.532568	__Jalan_Kemaman
-3.532568	__Jalan_Keruing
-3.532568	__Jalan_Kesoma
-3.532568	__Jalan_Khairuddin
-3.532568	__Jalan_Klapa
-3.532568	__Jalan_Kledek
-3.532568	__Jalan_Klinik
-3.532568	__Jalan_Kwok_Min
-3.532568	__Jalan_Lana
-3.532568	__Jalan_Langgar_Bedok
-3.532568	__Jalan_Lapang
-3.532568	__Jalan_Layang_Layang
-3.532568	__Jalan_Lembah_Bedok
-3.532568	__Jalan_Lempeng
-3.532568	__Jalan_Lengkok
-3.532568	__Jalan_Lengkok_Sembawang
-3.532568	__Jalan_Limau_Bali
-3.532568	__Jalan_Limau_Nipis
-3.532568	__Jalan_Limau_Purut
-3.532568	__Jalan_Limbok
-3.532568	__Jalan_Mamam
-3.532568	__Jalan_Mangkok
-3.532568	__Jalan_Manis
-3.532568	__Jalan_Mastuli
-3.532568	__Jalan_Membina
-3.532568	__Jalan_Mempurong
-3.532568	__Jalan_Mengkudu
-3.532568	__Jalan_Mesra
-3.532568	__Jalan_Minggu
-3.532568	__Jalan_Minyak
-3.532568	__Jalan_Noordin
-3.532568	__Jalan_Novena
-3.532568	__Jalan_Nuri
-3.532568	__Jalan_Paras
-3.532568	__Jalan_Pari_Kikis
-3.532568	__Jalan_Pelangi
-3.532568	__Jalan_Pelatina
-3.532568	__Jalan_Pelatok
-3.532568	__Jalan_Pelepah
-3.532568	__Jalan_Pelikat
-3.532568	__Jalan_Peradun
-3.532568	__Jalan_Pinang
-3.532568	__Jalan_Puteri
-3.532568	__Jalan_Rajah
-3.532568	__Jalan_Rebana
-3.532568	__Jalan_Remis
-3.532568	__Jalan_Rendang
-3.532568	__Jalan_Rukam
-3.532568	__Jalan_Sabit
-3.532568	__Jalan_Seh_Chuan
-3.532568	__Jalan_Selamat
-3.532568	__Jalan_Selimang
-3.532568	__Jalan_Senang
-3.532568	__Jalan_Sendudok
-3.532568	__Jalan_Senyum
-3.532568	__Jalan_Setia
-3.532568	__Jalan_Shaer
-3.532568	__Jalan_Siap
-3.532568	__Jalan_Simpang_Bedok
-3.532568	__Jalan_Sukachita
-3.532568	__Jalan_Sungei_Poyan
-3.532568	__Jalan_Tan_Tock_Seng
-3.532568	__Jalan_Tanah
-3.532568	__Jalan_Tanah_Rata
-3.532568	__Jalan_Tanjong
-3.532568	__Jalan_Tari_Lilin
-3.532568	__Jalan_Tari_Zapin
-3.532568	__Jalan_Tarum
-3.532568	__Jalan_Tenang
-3.532568	__Jalan_Tenteram
-3.532568	__Jalan_Tepong
-3.532568	__Jalan_Tiga_Ratus
-3.532568	__Jalan_Ulu_Seletar
-3.532568	__Jalan_Ulu_Sembawang
-3.532568	__Jalan_Wajek
-3.532568	__Jalan_Yasin
-3.532568	__Jalan_Zamrud
-3.532568	__Jamaica_Road
-3.532568	__Janet_Lim
-3.532568	__Janil_Puthucheary
-3.532568	__Jervois_Hill
-3.532568	__Ji_Huang_Kok
-3.532568	__Jiak_Chuan_Road
-3.532568	__Joan_Road
-3.532568	__Joanne_Soo
-3.532568	__John_Fearns_Nicolls
-3.532568	__John_Le_Cain
-3.532568	__John_Morrice
-3.532568	__Joo_Avenue
-3.532568	__Joo_Koon_Crescent
-3.532568	__Jula_Juli
-3.532568	__Junction_Nine
-3.532568	__Jupiter_Road
-3.532568	__Jurong_Bird
-3.532568	__Jurong_East_Avenue
-3.532568	__Jurong_Island
-3.532568	__Jurong_Port
-3.532568	__Jurong_West
-3.532568	__Jurong_West_Avenue
-3.532568	__Jurong_West_Central
-3.532568	__Kaki_Bukit
-3.532568	__Kallang_Airport_Drive
-3.532568	__Kampong_Ampat
-3.532568	__Kampong_Arang_Road
-3.532568	__Kampong_Bahru
-3.532568	__Kampong_Bahru_Road
-3.532568	__Kampong_Bugis
-3.532568	__Kampong_Bugis_Crescent
-3.532568	__Kampong_Bukit_Coffee
-3.532568	__Kampong_Chai_Chee
-3.532568	__Kampong_Eunos
-3.532568	__Kampong_Glam
-3.532568	__Kampong_Java
-3.532568	__Kampong_Kapor_Road
-3.532568	__Kampong_Kayu_Road
-3.532568	__Kampong_Kembangan
-3.532568	__Kampong_Sireh
-3.532568	__Kampong_Sungai_Tiga
-3.532568	__Kampong_Ubi
-3.532568	__Kampong_Wak_Hassan
-3.532568	__Kampung_Glam
-3.532568	__Kampung_Melayu
-3.532568	__Katmandu_Road
-3.532568	__Kay_Siang_Road
-3.532568	__Keat_Hong_Link
-3.532568	__Kebun_Baru
-3.532568	__Keck_Seng
-3.532568	__Kee_Seng_Street
-3.532568	__Kee_Sun_Avenue
-3.532568	__Keene_Road
-3.532568	__Keng_Lee_Road
-3.532568	__Kent_Ridge_Crescent
-3.532568	__Kent_Ridge_Drive
-3.532568	__Kent_Road
-3.532568	__Kenya_Crescent
-3.532568	__Keppel_Bay
-3.532568	__Keramat_Road
-3.532568	__Kerong_Walk
-3.532568	__Kew_Avenue
-3.532568	__Kew_Walk
-3.532568	__Khaw_Boon_Wan
-3.532568	__Kian_Teck_Road
-3.532568	__Kiew_Sian_King
-3.532568	__Kim_Chuan_Road
-3.532568	__Kim_Hong
-3.532568	__Kim_Keat
-3.532568	__Kim_Seng
-3.532568	__Kim_Seng_Road
-3.532568	__Kim_Tian_Place
-3.532568	__Kinara_Lane
-3.532568	__Kismis_Road
-3.532568	__Kitchener_Road
-3.532568	__Klang_Road
-3.532568	__Koh_Mui_Hiang
-3.532568	__Koh_Seow_Chuan
-3.532568	__Kouo_Shang_Wei
-3.532568	__Kranji_Commonwealth
-3.532568	__Kranji_Crescent
-3.532568	__Kreta_Ayer
-3.532568	__Kuang_Chee_Tng
-3.532568	__Kwan_Im_Tng
-3.532568	__Kwan_Imm_See
-3.532568	__Kwong_Min_Road
-3.532568	__Kwong_Wai_Siew
-3.532568	__La_Mode
-3.532568	__Lam_Pin_Min
-3.532568	__Lambeth_Walk
-3.532568	__Larkhill_Road
-3.532568	__Lau_Kuo_Kwong_Robert
-3.532568	__Lavender_Street
-3.532568	__Le_Peranakan
-3.532568	__Lee_Boon_Ngan
-3.532568	__Lee_Kong_Chian
-3.532568	__Lee_Kong_Yan
-3.532568	__Lee_Shih_Shiong_Peter
-3.532568	__Lempeng_Drive
-3.532568	__Leng_Chai_Chee
-3.532568	__Lengkok_Angsa
-3.532568	__Lengkok_Lima
-3.532568	__Lengkok_Satu
-3.532568	__Lengkok_Satu_Sago_Street
-3.532568	__Lengkong_Dua
-3.532568	__Lentor_Way
-3.532568	__Leo_Drive
-3.532568	__Lew_Lian_Vale
-3.532568	__Lewis_Road
-3.532568	__Li_Hui_Cheng
-3.532568	__Liane_Road
-3.532568	__Liang_Court
-3.532568	__Liao_Yingru
-3.532568	__Lichi_Avenue
-3.532568	__Lien_Ying_Chow_Drive
-3.532568	__Lilac_Road
-3.532568	__Lilliputt_Indoor_Mini_Golf
-3.532568	__Lily_Avenue
-3.532568	__Lim_Ah_Pin_Road
-3.532568	__Lim_Ah_Woo_Road
-3.532568	__Lim_Chong_Pang
-3.532568	__Lim_Chu_Kang
-3.532568	__Lim_Chu_Kang_Lane
-3.532568	__Lim_Lee
-3.532568	__Lim_Teck_Boo_Road
-3.532568	__Lim_Teck_Kim_Road
-3.532568	__Lim_Tua_Tow_Road
-3.532568	__Limau_Garden
-3.532568	__Lin_Tan
-3.532568	__Little_Road
-3.532568	__Lloyd_Road
-3.532568	__Loh_Lik_Peng
-3.532568	__Lornie_Walk
-3.532568	__Lorong_Abu_Talib
-3.532568	__Lorong_Bachok
-3.532568	__Lorong_Batawi
-3.532568	__Lorong_Buangkok
-3.532568	__Lorong_Gambas
-3.532568	__Lorong_Kembang
-3.532568	__Lorong_Kilat_Pek_Kio
-3.532568	__Lorong_Lew_Lian
-3.532568	__Lorong_Mesu
-3.532568	__Lorong_Pasu
-3.532568	__Lorong_Paya_Lebar
-3.532568	__Lorong_Pendek
-3.532568	__Lorong_Pisang_Asam
-3.532568	__Lorong_Pisang_Batu
-3.532568	__Lorong_Sarina_D'Leedon
-3.532568	__Lorong_Siglap
-3.532568	__Lorong_Sinaran
-3.532568	__Louis_Chen
-3.532568	__Lower_Seletar_Close
-3.532568	__Lower_Seletar_Reservoir
-3.532568	__Loyang_Street
-3.532568	__Lucy_Tan
-3.532568	__Lutheran_Road
-3.532568	__Macalister_Road
-3.532568	__Macpherson_Road
-3.532568	__Macritchie_Reservoir
-3.532568	__Maggie_Teng
-3.532568	__Mah_Bow_Tan
-3.532568	__Management_Development_Institute_Of_Singapore
-3.532568	__Mandai_Tekong
-3.532568	__Mandarin_Gardens
-3.532568	__Manila_Street
-3.532568	__Maple_Avenue
-3.532568	__Margate_Road
-3.532568	__Marina_Bay
-3.532568	__Marina_Bay_Sands
-3.532568	__Marina_One
-3.532568	__Marina_Promenade
-3.532568	__Marina_Way
-3.532568	__Marine_Parade
-3.532568	__Marine_Parade_Road
-3.532568	__Maris_Stella
-3.532568	__Maritime_Square
-3.532568	__Marshall_Lane
-3.532568	__Marsiling_Crescent
-3.532568	__Marsiling_Drive
-3.532568	__Marsiling_Neighbourhood
-3.532568	__Marsiling_Rise
-3.532568	__Marsiling_Road
-3.532568	__Martin_Road
-3.532568	__Masjid_Alkaff
-3.532568	__Mayflower_Way
-3.532568	__Medical_Drive
-3.532568	__Mei_Chin_Road
-3.532568	__Mei_Hwan_Drive
-3.532568	__Meng_Suan_Road
-3.532568	__Meranti_Avenue
-3.532568	__Merlimau_Place
-3.532568	__Meteorological_Services_Singapore
-3.532568	__Methodist_Girls'
-3.532568	__Michelle_Lim
-3.532568	__Middlesex_Road
-3.532568	__Miller_Street
-3.532568	__Miltonia_Link
-3.532568	__Mimosa_Vale
-3.532568	__Monk'S_Hill_Road
-3.532568	__Montreal_Link
-3.532568	__Moonbeam_Drive
-3.532568	__Moonbeam_Walk
-3.532568	__Moral_Welfare
-3.532568	__Moreton_Close
-3.532568	__Morgan_Chua
-3.532568	__Moriah_Bible_Presby
-3.532568	__Mornington_Crescent
-3.532568	__Mount_Faber_Loop
-3.532568	__Mount_Faber_Road
-3.532568	__Movenpick_Heritage
-3.532568	__Muhammadiyah_Welfare
-3.532568	__Mulberry_Avenue
-3.532568	__Muswell_Hill
-3.532568	__My_Saviour'S
-3.532568	__N_Palanivelu
-3.532568	__Nagore_Dargah
-3.532568	__Namly_Rise
-3.532568	__Nan_Chiau
-3.532568	__Nanyang_Avenue
-3.532568	__Nanyang_Girls'
-3.532568	__Nanyang_Poly_Drive
-3.532568	__Nanyang_Valley
-3.532568	__Napier_Road
-3.532568	__Nasi_Goreng
-3.532568	__Natalie_Hennedige
-3.532568	__National_Arts_Council
-3.532568	__National_Equestrian_Centre
-3.532568	__National_Neuroscience_Institute
-3.532568	__National_Neuroscience_Institute_Of_Singapore
-3.532568	__Nativity_Of_The_Blessed_Virgin_Mary_Concord
-3.532568	__Nee_Soon
-3.532568	__Nee_Soon_East
-3.532568	__Neo_Tiew_Lane
-3.532568	__Neo_Tiew_Road
-3.532568	__Nepal_Link
-3.532568	__Newton_Cirus
-3.532568	__Newton_Life
-3.532568	__Nexus_International_School
-3.532568	__Ng_Chee_Meng
-3.532568	__North_Buona_Vista_Drive
-3.532568	__North_Spring
-3.532568	__North_Vista
-3.532568	__North_West
-3.532568	__Northshore_Drive
-3.532568	__Northshore_Link
-3.532568	__Oak_Avenue
-3.532568	__Ocean_Way
-3.532568	__Office_Road
-3.532568	__Ogilvy_Centre
-3.532568	__Old_Birdcage_Walk
-3.532568	__Old_Cathay
-3.532568	__Old_Choa_Chu_Kang_Road
-3.532568	__Old_Hill_Street
-3.532568	__Old_Terminal_Lane
-3.532568	__Old_Upper_Thomson
-3.532568	__Omar_Ali
-3.532568	__Omar_Khayyam_Avenue
-3.532568	__One_Farrer
-3.532568	__One_George_Street
-3.532568	__One_North_Avenue
-3.532568	__One_North_Link
-3.532568	__One_Tree_Hill
-3.532568	__Onitsuka_Tiger
-3.532568	__Onraet_Road
-3.532568	__Orchard_Bel_Air
-3.532568	__Orchard_Point
-3.532568	__Orchard_Spring
-3.532568	__Orchard_Spring_Lane
-3.532568	__Orchard_Turn
-3.532568	__Orchid_Park
-3.532568	__Oriole_Crescent
-3.532568	__Outram_Park
-3.532568	__Oxford_Road
-3.532568	__Palm_Avenue
-3.532568	__Palm_Road
-3.532568	__Pan_Pacific
-3.532568	__Pan_Shou
-3.532568	__Pandan_Avenue
-3.532568	__Pang_Seng_Road
-3.532568	__Park_Avenue
-3.532568	__Parry_Avenue
-3.532568	__Pasir_Panjang_Road
-3.532568	__Pasir_Panjang_View
-3.532568	__Pasir_Ris
-3.532568	__Pasir_Ris_Road
-3.532568	__Pasir_Ris_View
-3.532568	__Pasir_Ris_Way
-3.532568	__Paterson_Road
-3.532568	__Paya_Lebar
-3.532568	__Paya_Lebar_Place
-3.532568	__Paya_Ubi
-3.532568	__Peace_Centre
-3.532568	__Peakville_Avenue
-3.532568	__Peakville_Grove
-3.532568	__Pebble_Lane
-3.532568	__Peck_San_Theng
-3.532568	__Peck_Seah_Street
-3.532568	__Peirce_Hill
-3.532568	__Pemimpin_Drive
-3.532568	__Penang_Road
-3.532568	__Peng_Kang_Avenue
-3.532568	__Peng_Nguan
-3.532568	__Peninsula_Plaza
-3.532568	__Penjuru_Road
-3.532568	__Perahu_Road
-3.532568	__Percival_Road
-3.532568	__Pereira_Road
-3.532568	__Perumal_Govindaswamy
-3.532568	__Perumal_Road
-3.532568	__Ping_Yi
-3.532568	__Platina_Road
-3.532568	__Plaza_Singapura
-3.532568	__Poh_Ern_Shih
-3.532568	__Poh_Huat_Road
-3.532568	__Poh_Jay
-3.532568	__Post_Florence_Road
-3.532568	__Prince_Of_Wales_Road
-3.532568	__Prinsep_Street
-3.532568	__Prome_Road
-3.532568	__Puat_Jit_Buddhist
-3.532568	__Pulau_Ubin
-3.532568	__Punggol_Avenue
-3.532568	__Qing_De_Gong
-3.532568	__Queen_Elizabeth_Walk
-3.532568	__Radin_Mas
-3.532568	__Raffles_Place
-3.532568	__Rahayu_Mahzam
-3.532568	__Rahim_Omar
-3.532568	__Rail_Mall
-3.532568	__Rajabali_Jumabhoy
-3.532568	__Rambutan_Road
-3.532568	__Rasok_Drive
-3.532568	__Rebecca_Chua
-3.532568	__Red_Cross
-3.532568	__Red_Swastika
-3.532568	__Redhill_Road
-3.532568	__Redwood_Grove
-3.532568	__Revival_Centre
-3.532568	__Richard_Eric_Holttum
-3.532568	__Ring_Road
-3.532568	__Rita_Zahara
-3.532568	__River_City
-3.532568	__River_Safari
-3.532568	__River_Valley
-3.532568	__Riverina_Walk
-3.532568	__Rivervale_Plaza
-3.532568	__Robert_Soon
-3.532568	__Robert_V_Chandran_Way
-3.532568	__Robin_Tessensohn
-3.532568	__Robinson_Road
-3.532568	__Rochor_Kongsi
-3.532568	__Rochor_Road
-3.532568	__Rosaline_Chan_Pang
-3.532568	__Ruby_Lane
-3.532568	__Russels_Road
-3.532568	__Safra_Jurong
-3.532568	__Safra_Punggol
-3.532568	__Saint_Helier'S_Avenue
-3.532568	__Saint_Hilda'S
-3.532568	__Saint_James
-3.532568	__Saint_Nicholas_View
-3.532568	__Saint_Paul'S
-3.532568	__Saint_Stephen'S
-3.532568	__Saint_Wilfred_Road
-3.532568	__Saint_Xavier'S
-3.532568	__Saint_Xavier'S_Lane
-3.532568	__Sakra_Road
-3.532568	__Sakya_Tenphel_Ling
-3.532568	__Sam_Kee
-3.532568	__Sandilands_Road
-3.532568	__Science_Park
-3.532568	__Sea_Breeze_Grove
-3.532568	__Seah_Mei_Lin
-3.532568	__Secondary_School
-3.532568	__Segar_Close
-3.532568	__Segar_Kampong_Arang_Road
-3.532568	__Selarang_Road
-3.532568	__Seletar_Close
-3.532568	__Seletar_Club
-3.532568	__Seletar_Club_Road
-3.532568	__Seletar_Court
-3.532568	__Seletar_East
-3.532568	__Seletar_Green_Avenue
-3.532568	__Seletar_Hill
-3.532568	__Seletar_Hill_Drive
-3.532568	__Seletar_Hills_Drive
-3.532568	__Seletar_Link
-3.532568	__Seletar_Lodge_One
-3.532568	__Seletar_North
-3.532568	__Seletar_North_Lane
-3.532568	__Seletar_Satellite
-3.532568	__Seletar_Satellite_Station_Road
-3.532568	__Seletar_South_Road
-3.532568	__Seletar_West
-3.532568	__Seletar_Wests
-3.532568	__Sembawang_Alley
-3.532568	__Sembawang_Avenue
-3.532568	__Sembawang_Berlayer
-3.532568	__Sembawang_Country_Club
-3.532568	__Sembawang_God_Of_Wealth
-3.532568	__Sembawang_Hills_Drive
-3.532568	__Sembawang_Shopping_Centre
-3.532568	__Sembawang_Tamil_Methodist
-3.532568	__Sembawang_Terminal_Avenue
-3.532568	__Sembawang_Terminal_Road
-3.532568	__Sembawang_Vista
-3.532568	__Sembawang_Wharves
-3.532568	__Sembawang_Woodgrove_Avenue
-3.532568	__Sengkang_East_Avenue
-3.532568	__Sengkang_East_Road
-3.532568	__Sengkang_East_Way
-3.532568	__Sennett_Road
-3.532568	__Sentul_Crescent
-3.532568	__Serangoon_Gardens
-3.532568	__Serangoon_North_Avenue
-3.532568	__Serapong_Hill
-3.532568	__Seraya_Avenue
-3.532568	__Sharon_Bible_Presbyterian
-3.532568	__Shelford_Road
-3.532568	__Shipyard_Crescent
-3.532568	__Shopping_Centre
-3.532568	__Shun_Li
-3.532568	__Si_Ling
-3.532568	__Siang_Cho_Keong
-3.532568	__Siglap_Gardens
-3.532568	__Siloso_Beach
-3.532568	__Sim_Choon_Huat
-3.532568	__Sim_Lim_Square
-3.532568	__Sim_Yi_Hui
-3.532568	__Simon_Lane
-3.532568	__Simpang_Bedok
-3.532568	__Simpang_De_Bedok
-3.532568	__Sims_Way
-3.532568	__Sin_Ming
-3.532568	__Sing_Hoe
-3.532568	__Sing_Joo_Walk
-3.532568	__Singapore'S_Mariners'
-3.532568	__Singapore_Art_Museum
-3.532568	__Singapore_Bible
-3.532568	__Singapore_Botanic_Gardens
-3.532568	__Singapore_Cheshire
-3.532568	__Singapore_Conference
-3.532568	__Singapore_Philatelic_Museum
-3.532568	__Singapore_Recreation
-3.532568	__Singapore_Sikh_Education_Foundation
-3.532568	__Singapore_University_Of_Technology_And_Design
-3.532568	__Singapore_Youth_Flying
-3.532568	__Siok_Wan
-3.532568	__Siong_Lim
-3.532568	__Sir_Frank_Swettenham
-3.532568	__Sit_Wah_Road
-3.532568	__Sleepy_Kiwi
-3.532568	__Sloane_Court_Hotel
-3.532568	__Soo_Bin_Chua
-3.532568	__Soo_Chow_Drive
-3.532568	__Soon_Peng_Yam_Yao_Zi
-3.532568	__Soon_Wing_Road
-3.532568	__Sophia_Hull
-3.532568	__South_Buona_Vista_Road
-3.532568	__South_Perimeter_Road
-3.532568	__South_Woodlands_Drive
-3.532568	__Spring_Lighthouse
-3.532568	__Spring_Street
-3.532568	__Springleaf_Avenue
-3.532568	__Springside_View
-3.532568	__Springwood_Close
-3.532568	__Sree_Narayana
-3.532568	__Sri_Murugan_Hill_Temple
-3.532568	__Sri_Siva_Durga
-3.532568	__Sri_Vairavimada_Kaliamman
-3.532568	__Stadium_Crescent
-3.532568	__Stadium_Way
-3.532568	__Stamford_Raffles
-3.532568	__Starlight_Road
-3.532568	__Stephen_Lee
-3.532568	__Stirling_Walk
-3.532568	__Strand_Hotel
-3.532568	__Stratton_Road
-3.532568	__Suffolk_Road
-3.532568	__Sunbeam_Evergreen_Place
-3.532568	__Sundridge_Park_Road
-3.532568	__Sungei_Bedok
-3.532568	__Sungei_Gedong_Road
-3.532568	__Sungei_Road
-3.532568	__Sunny_Ang
-3.532568	__Sunset_Close
-3.532568	__Sunset_Square
-3.532568	__Sunset_Vale
-3.532568	__Suntec_City
-3.532568	__Swiss_Club_Link
-3.532568	__Syed_Jaafar_Albar
-3.532568	__Tagore_Road
-3.532568	__Tai_Hoe
-3.532568	__Tai_Seng
-3.532568	__Tai_Seng_Drive
-3.532568	__Taman_Bedok
-3.532568	__Taman_Jurong
-3.532568	__Taman_Kembangan
-3.532568	__Taman_Warna
-3.532568	__Tamarind_Avenue
-3.532568	__Tamarind_Road
-3.532568	__Tampines_Changkat
-3.532568	__Tan_Boo_Liat
-3.532568	__Tan_Eng_Joo
-3.532568	__Tan_Kim_Cheng_Road
-3.532568	__Tan_Teck_Whye_Avenue
-3.532568	__Tan_Tock_Seng
-3.532568	__Tanah_Merah
-3.532568	__Tanglin_Gate_Road
-3.532568	__Tanglin_Trust
-3.532568	__Tangmere_Road
-3.532568	__Tanjong_Katong
-3.532568	__Tanjong_Penjuru
-3.532568	__Tanya_Chua
-3.532568	__Teban_Garden
-3.532568	__Tebing_Lane
-3.532568	__Teck_Hai_Keng
-3.532568	__Teck_Whye
-3.532568	__Tekong_Highway
-3.532568	__Telok_Blangah_Crescent
-3.532568	__Telok_Blangah_Rise
-3.532568	__Telok_Blangah_Street
-3.532568	__Telok_Kurau
-3.532568	__Tembusu_Drive
-3.532568	__Teng_San_Tian_Hock
-3.532568	__Teng_Tong_Road
-3.532568	__Terang_Bulan_Avenue
-3.532568	__Tew_Chew_Street
-3.532568	__Thong_Bee_Road
-3.532568	__Thong_Kheng
-3.532568	__Tian_Kong
-3.532568	__Tiong_Poh_Avenue
-3.532568	__Tiverton_Lane
-3.532568	__Toa_Payoh
-3.532568	__Toa_Payoh_East
-3.532568	__Toa_Payoh_North
-3.532568	__Toa_Payoh_Rise
-3.532568	__Toh_Tuck_Drive
-3.532568	__Toh_Tuck_Road
-3.532568	__Tokio_Marine
-3.532568	__Topaz_Road
-3.532568	__Tras_Street
-3.532568	__Treetop_Walk
-3.532568	__Trevose_Place
-3.532568	__Tuas_Avenue
-3.532568	__Tuas_Road
-3.532568	__Tuas_Second_Link
-3.532568	__Tuas_Terminal_Road
-3.532568	__Turf_Ciub_Road
-3.532568	__Ubi_Close
-3.532568	__Ubi_Crescent
-3.532568	__Ubi_Link
-3.532568	__Ulu_Sembawang
-3.532568	__Unity_Street
-3.532568	__University_Town
-3.532568	__Upper_Aljunied
-3.532568	__Upper_Aljunied_Link
-3.532568	__Upper_Aljunied_Road
-3.532568	__Upper_Bedok
-3.532568	__Upper_Bedok_Road
-3.532568	__Upper_Bukit_Timah
-3.532568	__Upper_Bukit_Timah_Road
-3.532568	__Upper_Changi_Road
-3.532568	__Upper_Joo_Aljunied_Link
-3.532568	__Upper_Palm_Valley_Road
-3.532568	__Upper_Paya_Lebar_Road
-3.532568	__Upper_Peirce_Reservoir
-3.532568	__Upper_Seletar_Reservoir
-3.532568	__Upper_Serangoon
-3.532568	__Upper_Wilkie_Road
-3.532568	__Vaughan_Road
-3.532568	__Veerasamy_Road
-3.532568	__Verde_Crescent
-3.532568	__Victoria_Park_Road
-3.532568	__Vigilante_Drive
-3.532568	__Vijesh_Ashok_Ghariwala
-3.532568	__Vivien_Quahe
-3.532568	__Vu_Ly_Tee
-3.532568	__Wak_Hassan
-3.532568	__Wak_Hassan_Place
-3.532568	__Wak_Tanjong
-3.532568	__Wallace_Way
-3.532568	__Walter_Woon
-3.532568	__Wan_Tho_Avenue
-3.532568	__Wareham_Road
-3.532568	__Waringin_Walk
-3.532568	__Warwick_Road
-3.532568	__Waseda_Shibuya
-3.532568	__Waterloo_Street
-3.532568	__Watten_Estate_Road
-3.532568	__Wee_Beng_Chong
-3.532568	__Wellington_Circle
-3.532568	__West_Blue_Stars
-3.532568	__West_Perimeter_Road
-3.532568	__West_Spring
-3.532568	__Westwood_Avenue
-3.532568	__Whampoa_East
-3.532568	__Whitchurch_Road
-3.532568	__Whitley_Road
-3.532568	__Wilmonar_Avenue
-3.532568	__Windsor_Park_Hill
-3.532568	__Wishart_Road
-3.532568	__Wittering_Road
-3.532568	__Wong_Chin_Yoke_Road
-3.532568	__Wong_Hock_Boon
-3.532568	__Woodgrove_View
-3.532568	__Woodland_Street
-3.532568	__Woodlands_Galaxy
-3.532568	__Woodleigh_Close
-3.532568	__Xilin_Avenue
-3.532568	__Yan_Hui_Chang
-3.532568	__Yangtze_Building
-3.532568	__Yao_Zi
-3.532568	__Yarwood_Avenue
-3.532568	__Yeoh_Ghim_Seng
-3.532568	__Yew_Tee
-3.532568	__Yew_Tee_Close
-3.532568	__Yew_Tee_Point
-3.532568	__Yip_Cheong_Fun
-3.532568	__Yishun_Central
-3.532568	__Yishun_Street
-3.532568	__Yong_Melvin_Yik_Chye
-3.532568	__York_Place
-3.532568	__Yu_Huang_Zhi_Zun_Temple
-3.532568	__Yuan_Ching
-3.532568	__Yung_Kuang_Road
-3.532568	__Yuva_Bharati
-3.532568	__Yvonne_Ng
-3.532568	__Zainudin_Nordin
-3.532568	__Zhang_Hui
-3.532568	__Zhou_Ying_Nan
-3.532568	__Zion_Bishan_Bible_Presbyterian
-1.960034	a
-3.624515	aa
-5.340882	abas
-4.56116	ability
-3.683285	able
-5.435438	abnormal
-2.678226	about
-4.275286	above
-5.435438	abroad
-5.38039	absolute
-5.076783	absolutely
-5.370171	absorb
-5.229123	abstract
-5.19408	abu
-5.122826	abuse
-4.929921	academic
-5.355279	academy
-5.340882	acara
-4.859066	accent
-4.421008	accept
-5.056696	acceptable
-5.291832	acceptance
-5.180818	accepted
-4.515089	access
-5.255452	accessible
-4.543494	accident
-4.8701	accidentally
-5.200866	accommodation
-5.300348	accompany
-4.768111	accomplish
-4.618928	according
-5.032828	accordingly
-3.314553	account
-5.221884	accountancy
-4.710277	accounting
-5.146307	accurate
-5.247765	ache
-4.524352	achieve
-4.598806	achievement
-5.243972	acknowledge
-5.36515	acquaintance
-4.860625	acronym
-4.464563	across
-4.403757	act
-4.782225	acting
-4.311675	action
-5.089826	activate
-4.735296	active
-4.430188	activity
-4.758127	actor
-5.087185	actress
-4.551853	actual
-2.736844	actually
-4.883066	ad
-5.143301	adapt
-4.01575	add
-5.014635	added
-5.128578	addicted
-5.074221	addition
-4.76309	additional
-3.573887	address
-4.813308	ade
-4.990802	adjust
-5.447337	admiralty
-4.830453	admire
-5.069141	admit
-5.350427	admitted
-4.456481	adopt
-5.089826	adopted
-3.964821	adoption
-4.572276	adult
-4.823227	advance
-5.243972	advanced
-5.030512	advantage
-4.879788	adventure
-5.229123	adventurous
-4.958316	advertisement
-5.340882	advertising
-4.465191	advice
-4.567477	advise
-5.232788	aeroplane
-5.412575	affair
-4.731798	affect
-5.010203	affected
-5.390856	affidavit
-4.643804	afford
-4.883066	affordable
-4.50879	afraid
-3.01981	after
-3.884879	afternoon
-4.881423	afterwards
-3.367101	again
-4.45525	against
-4.749575	agama
-5.005816	agar
-3.921034	age
-4.547274	agency
-5.190726	agenda
-4.617141	agent
-4.879788	aggressive
-5.171131	aging
-3.846788	ago
-4.130028	agree
-5.184095	agreed
-5.044598	agreement
-2.113546	ah
-4.966213	aha
-4.336654	ahead
-4.926271	ai
-5.161655	aid
-4.845277	aim
-3.596589	air
-5.326946	airplane
-4.523633	airport
-4.355768	ajar
-4.988699	ak
-2.670858	aku
-5.030512	al
-4.617141	ala
-5.435438	alan
-4.529423	alarm
-4.866919	album
-4.91728	alcohol
-5.326946	alcoholic
-4.071673	alert
-5.287636	algorithm
-5.251591	alien
-5.350427	alif
-4.556481	alive
-2.629304	all
-5.271246	allergic
-4.410908	allow
-4.901549	allowance
-4.036325	almost
-4.03469	alone
-4.141508	along
-5.087185	alpha
-5.236484	alphabet
-2.842451	already
-3.341827	alright
-2.673002	also
-5.236484	alter
-5.158542	alternate
-5.049397	alternative
-4.323758	although
-5.251591	altogether
-3.256655	always
-3.367904	am
-5.435438	amar
-4.47344	amazing
-5.243972	ambitious
-3.555088	ambulance
-5.267243	amin
-4.964225	amir
-4.845277	among
-3.797488	amount
-5.134408	amy
-3.246168	an
-5.435438	ana
-5.275286	analyse
-5.207759	analysis
-5.38039	ancient
-2.028451	and
-4.159163	anda
-5.051816	android
-4.813308	angel
-5.317898	anger
-5.140316	angle
-4.253131	angry
-4.187067	animal
-5.106012	animation
-4.715838	anime
-5.111545	ankle
-5.304669	ann
-5.15545	anna
-5.243972	anniversary
-5.435438	announcement
-4.50053	annoying
-5.125692	annual
-3.364651	another
-3.646181	answer
-5.15545	ant
-5.435438	antenna
-4.995039	anti
-5.370171	antique
-5.313444	anxiety
-3.092829	any
-4.503953	anybody
-4.662205	anyhow
-4.215471	anyone
-3.28435	anything
-3.773574	anyway
-4.742377	anyways
-4.358217	anywhere
-2.659198	apa
-4.642857	apart
-4.883066	apartment
-4.642857	ape
-5.370171	apologize
-4.311675	apparently
-4.843771	appeal
-4.935454	appear
-4.263672	apple
-5.190726	applicable
-5.095154	applicant
-3.941246	application
-4.623428	applied
-3.777169	apply
-4.37423	appointment
-4.454636	appreciate
-4.735296	approach
-5.396184	appropriate
-4.743568	approval
-4.800879	approve
-5.350427	approximately
-5.240211	apron
-5.012414	aquarium
-4.159163	ar
-5.350427	arcade
-5.158542	architecture
-2.523094	are
-3.776525	area
-4.706975	argue
-4.699365	argument
-4.599661	arm
-4.635353	arms
-4.347062	army
-3.444931	around
-4.742377	arrange
-5.19408	arrangement
-5.38039	arrival
-4.878158	arrive
-5.326946	arrogant
-4.768111	arrow
-5.207759	arsenal
-4.271246	art
-4.845277	article
-5.322398	artificial
-4.657287	artist
-2.772514	as
-4.89137	aside
-3.121001	ask
-5.350427	askar
-4.942942	asleep
-4.65631	aspect
-5.275286	aspiration
-4.988699	ass
-5.429608	assembly
-5.146307	assess
-5.092482	assessment
-5.267243	asset
-5.279364	assets
-4.79952	assign
-5.279364	assigned
-4.651457	assignment
-3.8983	assist
-4.313444	assistance
-4.586168	assistant
-5.447337	associate
-4.679357	assume
-4.712493	assuming
-4.860625	asthma
-2.636703	at
-4.441942	ate
-5.322398	atmosphere
-4.986606	attach
-4.851351	attached
-4.995039	attachment
-4.649531	attack
-5.317898	attempt
-4.539001	attend
-5.28348	attendance
-4.583684	attention
-5.423856	attire
-4.806359	attitude
-5.111545	attract
-4.640969	attraction
-5.089826	attractive
-5.042218	attribute
-5.21831	audience
-5.214765	audio
-5.131483	audit
-5.19746	audition
-4.263277	august
-4.782225	aunt
-4.4773	auntie
-5.114338	authentic
-5.271246	author
-5.21831	authority
-4.683493	auto
-5.164791	automatic
-4.915504	automatically
-5.19408	autumn
-4.537514	available
-4.130028	avenue
-4.627976	average
-4.755666	avoid
-4.750786	awake
-5.158542	award
-4.782225	aware
-5.331542	awareness
-3.710609	away
-4.586168	awesome
-4.651457	awhile
-4.300778	awkward
-3.925908	ayah
-5.122826	aye
-3.385906	b
-4.750786	ba
-5.322398	baba
-5.204299	babe
-3.48717	baby
-3.055545	back
-4.427875	background
-5.271246	backup
-5.423856	backwards
-5.401579	bacon
-5.350427	bacteria
-3.394258	bad
-4.281829	badan
-5.267243	badge
-4.86376	badly
-4.266049	badminton
-4.112102	bag
-5.161655	bah
-4.356746	bahan
-5.046991	baht
-5.418179	bakal
-4.637217	bake
-5.28348	baked
-5.190726	bakery
-4.806359	baking
-4.195766	balance
-5.385592	balanced
-5.300348	balcony
-4.754441	bali
-3.903269	ball
-5.390856	ballet
-5.071673	balloon
-5.331542	bamboo
-5.051816	ban
-4.586999	banana
-4.259346	band
-4.503266	bandar
-5.412575	banding
-4.728328	bang
-4.632572	bangkok
-3.458828	bank
-4.97629	banker
-4.646658	banking
-5.214765	bankrupt
-4.640969	banner
-5.236484	banquet
-4.226938	bar
-4.644753	barbecue
-5.350427	barber
-5.259346	bare
-5.167949	barely
-5.291832	baring
-5.38039	barrage
-5.146307	barrier
-3.497812	baru
-4.509485	bas
-4.344675	base
-4.097035	based
-4.941058	basement
-4.315665	basic
-3.614031	basically
-4.665183	basis
-4.843771	basket
-4.397258	basketball
-5.225488	bass
-5.236484	bat
-4.669186	batch
-5.158542	bath
-5.240211	bathe
-5.423856	bathroom
-5.158542	batik
-5.167949	batman
-4.810515	battery
-4.843771	battle
-4.480544	bay
-5.355279	bazaar
-2.50752	be
-4.029358	beach
-4.711383	bean
-4.214765	bear
-5.001473	beard
-5.221884	beast
-4.606569	beat
-4.422145	beautiful
-4.721471	beauty
-2.549932	because
-3.830162	become
-4.780923	becomes
-5.032828	becoming
-4.206372	bed
-5.164791	bedroom
-4.469614	bee
-4.469614	beef
-5.412575	beehive
-3.348501	been
-4.711383	beer
-5.089826	bees
-3.198275	before
-4.689772	beg
-5.035157	begin
-4.811909	beginning
-4.77833	behalf
-5.106012	behave
-5.313444	behaviour
-3.921932	behind
-5.180818	beige
-3.582694	being
-4.296922	bela
-4.219022	belah
-3.954034	believe
-4.939181	bell
-5.164791	belly
-5.190726	belong
-3.833085	below
-4.849825	belt
-4.683493	ben
-4.697215	bench
-5.089826	bend
-3.477818	benda
-5.251591	bene
-5.453411	beneath
-4.798164	beneficial
-4.414808	beneficiary
-4.565097	benefit
-4.804983	ber
-4.595399	berat
-5.275286	berlin
-5.441347	berry
-3.697429	beside
-4.457097	besides
-3.320503	best
-4.618033	bet
-3.478012	better
-4.770643	betting
-3.935639	between
-4.711383	beyond
-5.309034	bias
-4.558035	bicycle
-5.207759	bid
-3.488693	big
-4.246624	bigger
-4.326946	biggest
-4.358709	bike
-4.809125	bikini
-4.414248	bill
-5.089826	billion
-5.355279	billy
-4.596249	bin
-4.97629	bingo
-4.89137	biological
-5.180818	biology
-4.12598	bird
-3.92864	birth
-4.152075	birthday
-5.19408	biscuit
-3.333347	bit
-5.28348	bitch
-4.823227	bite
-4.962247	bitter
-5.36515	biz
-3.66618	black
-5.125692	blackberry
-5.441347	blackboard
-5.19408	blade
-4.395113	blah
-4.868507	blame
-4.794125	blank
-5.259346	blanket
-4.364153	bleeding
-4.922653	blend
-4.76434	blender
-5.240211	bless
-5.360187	blessed
-5.36515	blessing
-4.425574	blind
-3.764841	block
-4.837802	blonde
-4.093015	blood
-4.98245	bloody
-5.125692	blouse
-5.097844	blow
-5.412575	blowing
-3.452983	blue
-5.407043	blueberry
-4.866919	blues
-4.939181	blur
-4.760602	bo
-4.231318	board
-5.407043	boarding
-4.455865	boat
-5.263277	bob
-5.355279	bobby
-3.961064	body
-5.061632	boil
-3.972635	bola
-5.340882	bom
-4.939181	bomb
-4.236484	bond
-5.051816	bonding
-4.978333	bone
-3.77833	bonus
-3.695823	book
-5.36515	booked
-4.89305	booking
-5.167949	bookshop
-5.229123	bookstore
-4.962247	boom
-5.247765	boon
-5.240211	boost
-4.98245	boot
-4.720338	booth
-4.995039	boots
-4.898129	borak
-5.056696	border
-4.111267	boring
-4.146911	born
-4.859066	borrow
-4.185414	boss
-5.174336	boston
-5.069141	bot
-5.059157	botanic
-3.67628	both
-4.659247	bother
-4.403757	bottle
-4.025231	bottom
-4.027519	bought
-5.200866	bounce
-5.134408	bound
-4.964225	bout
-5.143301	bow
-5.375251	bowel
-4.56116	bowl
-4.551086	bowling
-4.121115	box
-5.214765	boxing
-3.785498	boy
-5.385592	bra
-4.421576	brain
-5.326946	brake
-4.486444	branch
-4.226938	brand
-5.035157	branded
-5.207759	brave
-5.140316	bravo
-5.012414	brazil
-4.37423	bread
-3.961852	break
-5.008004	breakdown
-4.929921	breaker
-4.479893	breakfast
-4.942942	breaking
-5.001473	breast
-4.734127	breath
-4.405396	breathe
-3.846636	breathing
-4.865337	breathless
-5.255452	breed
-5.322398	breeze
-5.28348	brick
-5.370171	bride
-4.719209	bridge
-5.184095	brief
-4.684534	briefing
-4.899836	bright
-3.591347	bring
-5.453411	brisk
-5.317898	broad
-5.435438	brochure
-4.618033	broke
-4.76685	broken
-3.942187	brother
-4.354305	brought
-3.778848	brown
-5.441347	brownie
-5.081953	brownish
-5.375251	brunch
-4.997173	brush
-4.941058	bu
-5.296069	bual
-4.708073	bubble
-5.423856	buck
-4.455865	bucket
-4.866919	buddy
-4.517918	budget
-4.443135	buffet
-4.794125	bug
-4.38769	build
-4.105738	building
-4.96821	built
-5.030512	bulk
-5.350427	bull
-5.313444	bullet
-5.071673	bully
-5.21831	bump
-5.291832	bumper
-4.96821	bun
-4.999318	bunch
-5.146307	bundle
-5.345628	bungalow
-5.190726	bungee
-5.390856	bunk
-5.429608	bunny
-5.092482	burden
-4.638152	burn
-5.05425	burning
-5.447337	burnt
-5.111545	burst
-3.934156	bus
-4.664188	bush
-3.932679	business
-5.441347	businessman
-4.213003	busy
-4.836322	busybody
-2.22297	but
-4.886368	butcher
-5.146307	butt
-4.710277	butter
-4.97629	butterfly
-4.658266	button
-5.287636	buttons
-3.274921	buy
-5.149333	buyer
-3.168647	by
-3.219343	bye
-3.122369	c
-4.926271	ca
-4.814711	cab
-5.375251	cabin
-4.796813	cable
-4.798164	cage
-4.206372	cake
-4.698288	calculate
-5.300348	calculated
-5.092482	calculation
-5.161655	calculator
-4.77319	calendar
-3.037615	call
-5.143301	callable
-4.972231	caller
-3.530007	calling
-4.8701	calm
-4.27732	cam
-3.799791	came
-4.528695	camera
-4.256617	camp
-5.375251	campaign
-5.221884	campus
-2.303893	can
-4.845277	canada
-4.422715	cancel
-4.713605	cancer
-5.336186	candle
-4.848303	candy
-5.177565	cane
-3.091391	cannot
-5.066623	cant
-4.585338	canteen
-5.331542	canvas
-4.275692	cap
-5.263277	capable
-5.336186	capacity
-5.447337	cape
-4.592862	capital
-4.91728	capsule
-4.89137	captain
-5.114338	caption
-5.204299	capture
-3.545228	car
-5.291832	caramel
-3.611999	card
-5.429608	cardboard
-3.685263	care
-3.984939	career
-5.360187	carefree
-4.922653	careful
-5.336186	carefully
-4.637217	carrot
-4.245485	carry
-4.787474	carrying
-5.291832	cart
-4.823227	cartoon
-3.724658	case
-4.019112	cash
-5.076783	cashier
-4.716959	casino
-5.103272	cast
-4.840776	castle
-5.103272	casual
-4.140614	cat
-4.255839	catch
-4.910218	catching
-5.38039	catchy
-4.970216	category
-5.396184	cater
-4.440158	caught
-2.993955	cause
-5.279364	cave
-5.300348	ceiling
-4.568273	celebrate
-5.049397	celebration
-5.06412	celebrity
-4.915504	cell
-4.787474	cent
-4.136467	center
-4.619824	central
-5.317898	century
-4.972231	cereal
-5.390856	ceremony
-3.92609	certain
-5.345628	certainly
-4.437202	certificate
-5.38039	certified
-5.313444	cha
-5.429608	chai
-4.886368	chain
-4.24284	chair
-4.942942	chalet
-4.745961	challenge
-5.263277	champion
-4.178538	chance
-3.452373	change
-4.543494	channel
-5.167949	chapter
-4.703697	char
-4.139425	character
-5.089826	characteristic
-4.208107	charge
-5.340882	charger
-5.28348	charging
-4.886368	charity
-5.211248	charming
-4.941058	chart
-4.970216	chartered
-4.718082	chase
-5.164791	chasing
-4.50671	chat
-5.447337	chatting
-4.028898	cheap
-4.827549	cheat
-5.005816	cheating
-3.310264	check
-4.765594	checked
-5.418179	chee
-5.146307	cheek
-5.089826	cheer
-5.423856	cheerful
-4.142404	cheese
-5.360187	cheesecake
-5.407043	cheesy
-5.214765	cheetah
-4.618928	chef
-4.946735	chemical
-4.674242	chemistry
-5.259346	cheng
-5.122826	cheque
-5.117149	cherry
-5.200866	chess
-4.305104	chest
-5.140316	chew
-5.103272	chi
-5.396184	chick
-3.68914	chicken
-3.398011	child
-4.134408	childhood
-5.275286	childish
-4.736468	chili
-4.36167	chill
-5.125692	chin
-3.815837	china
-5.037498	chip
-4.881423	chips
-5.360187	chit
-4.404303	chocolate
-4.098924	choice
-5.143301	choir
-4.926271	choke
-4.924459	choker
-5.137352	choking
-5.200866	chomp
-3.727638	choose
-5.375251	choosing
-4.640969	chop
-4.986606	chore
-4.929921	chose
-5.355279	chosen
-5.313444	chow
-5.345628	chrome
-4.503953	church
-5.267243	chute
-5.137352	cigarette
-4.823227	cinema
-3.717408	circle
-5.350427	circled
-5.225488	circuit
-5.229123	circular
-5.418179	circus
-5.037498	cite
-5.271246	citer
-4.360187	citizen
-4.642857	citizenship
-4.016644	city
-5.084561	civil
-3.927181	claim
-4.986606	claimable
-5.390856	clap
-4.988699	clarify
-3.820085	class
-4.470885	classes
-5.039852	classic
-5.350427	classical
-4.939181	classmate
-4.79952	classroom
-5.360187	claw
-5.184095	clay
-4.180818	clean
-4.978333	cleaner
-4.744763	cleaning
-5.375251	cleanser
-4.1533	clear
-5.10055	clearing
-4.816119	clearly
-5.275286	clerk
-5.232788	clever
-4.217243	click
-4.550321	client
-5.401579	climate
-4.614473	climb
-4.939181	climbing
-4.597099	clinic
-5.255452	clip
-4.933602	clique
-4.67526	clock
-5.15545	clockwise
-3.696786	close
-4.501213	closed
-4.931757	closely
-4.680387	closer
-4.625242	cloth
-4.214411	clothes
-4.915504	clothing
-4.818948	cloud
-4.079619	club
-5.097844	clubbing
-5.143301	clue
-5.152381	cluster
-4.727178	coach
-5.360187	coaching
-4.728328	coast
-4.901549	coaster
-5.296069	coat
-5.117149	cock
-5.05425	cockroach
-5.423856	cocky
-4.960277	coco
-5.00364	coconut
-3.980181	code
-5.435438	coder
-4.047711	coffee
-5.039852	coin
-4.761844	coincidence
-4.939181	coke
-5.360187	cola
-4.09596	cold
-5.229123	collapse
-4.403757	colleague
-4.182782	collect
-5.114338	collected
-4.809125	collection
-4.842271	college
-3.837358	color
-5.423856	colored
-5.164791	colors
-3.365	colour
-5.263277	column
-4.942942	combination
-4.899836	combine
-5.331542	combined
-3.146911	come
-4.802242	comedy
-4.112381	comes
-4.376274	comfort
-4.241712	comfortable
-5.187398	comic
-3.832791	coming
-5.326946	command
-4.89305	comment
-4.935454	commercial
-4.950561	commission
-4.937314	commit
-4.929921	commitment
-4.860625	committee
-4.275286	common
-5.152381	commonwealth
-4.796813	communicate
-4.840776	communication
-4.47601	community
-5.326946	companion
-3.652423	company
-4.392447	compare
-5.36515	comparison
-5.423856	compensate
-5.267243	compete
-4.658266	competition
-4.878158	competitive
-4.185414	complain
-5.211248	complaint
-4.497811	complete
-4.748367	completely
-4.928092	complex
-4.920854	complicated
-5.360187	compound
-5.418179	compromise
-4.999318	compulsory
-4.114899	computer
-4.513681	con
-5.423856	concealer
-5.117149	concentrate
-4.915504	concentration
-4.692946	concept
-4.697215	concern
-5.211248	concerned
-4.475366	concert
-5.326946	concession
-5.296069	conclusion
-5.360187	concrete
-5.044598	cond
-4.51934	condition
-5.19746	conditional
-5.453411	conditioner
-5.340882	condominium
-5.21831	conduct
-5.167949	cone
-5.177565	conference
-5.396184	confess
-4.950561	confidence
-4.840776	confident
-5.429608	confidential
-3.818097	confirm
-4.603102	confirmation
-5.021369	confirmed
-5.267243	conflict
-5.037498	confuse
-4.79952	confused
-4.771915	connect
-4.990802	connected
-4.910218	connection
-3.82958	conscious
-4.76309	consent
-5.355279	conservative
-4.244349	consider
-5.287636	consideration
-4.351393	considered
-5.119978	considering
-5.453411	consistency
-5.340882	consistent
-5.287636	console
-5.345628	constant
-5.097844	constantly
-4.901549	construction
-5.370171	consult
-5.049397	consultant
-5.304669	consulting
-5.229123	consumable
-5.059157	consume
-3.634981	contact
-5.435438	contain
-5.074221	container
-4.939181	content
-5.207759	contest
-5.071673	context
-3.973647	continue
-4.66618	continuous
-5.069141	continuously
-4.527968	contract
-4.889696	contribute
-4.77704	contribution
-4.207759	control
-5.200866	controversial
-5.114338	convenience
-4.514384	convenient
-4.121115	conversation
-5.19746	converse
-5.087185	conversion
-4.573081	convert
-5.143301	converted
-5.28348	convince
-3.865179	cook
-5.441347	cooker
-4.272051	cooking
-3.812328	cool
-5.225488	cooling
-5.360187	cooper
-5.143301	cope
-4.363158	copy
-4.800879	core
-5.095154	corn
-4.319243	corner
-4.929921	corp
-4.948644	corporate
-5.259346	corporation
-3.031275	correct
-5.204299	correction
-5.059157	correctly
-5.279364	correspondent
-5.180818	corridor
-4.901549	cos
-5.28348	cosmos
-4.155758	cost
-5.271246	costa
-5.401579	costly
-5.259346	costume
-5.236484	cottage
-5.177565	cotton
-5.401579	couch
-4.798164	cough
-3.474273	could
-4.904996	council
-4.129448	count
-4.650493	counter
-5.10055	counting
-3.839435	country
-4.236855	couple
-4.689772	coupon
-5.401579	courage
-5.390856	courier
-3.466892	course
-4.209849	court
-4.56116	cousin
-5.287636	cove
-4.232788	cover
-4.694009	covered
-5.267243	covering
-4.748367	covid
-4.956365	cow
-5.225488	cowboy
-4.889696	coz
-4.38769	crab
-5.081953	crack
-5.275286	craft
-5.435438	cramp
-5.035157	crap
-4.929921	crash
-5.326946	crave
-5.061632	craving
-5.390856	crawl
-3.942942	crazy
-4.123971	cream
-4.313444	create
-4.322398	creative
-5.418179	creativity
-4.20155	credit
-5.38039	creep
-4.737643	creepy
-5.030512	crescent
-4.96821	crew
-4.952487	cried
-5.042218	crime
-5.317898	criminal
-5.19408	crisis
-5.021369	crispy
-4.677304	criteria
-5.014635	critical
-5.279364	crocodile
-4.395648	cross
-4.899836	crossing
-4.750786	crowd
-4.642857	crowded
-5.309034	crown
-4.82037	cruise
-5.021369	crush
-4.263277	cry
-4.787474	crying
-5.111545	crystal
-5.313444	cube
-5.187398	cucumber
-4.77704	cuisine
-5.128578	cultural
-4.228758	culture
-4.264067	cup
-5.200866	cure
-4.814711	curious
-4.995039	curly
-4.602239	currency
-4.221167	current
-4.15422	currently
-5.322398	curriculum
-4.386639	curry
-5.125692	curse
-5.296069	curtain
-4.886368	curve
-5.19408	cushion
-5.271246	custody
-5.211248	custom
-4.16103	customer
-3.956559	cut
-4.140316	cute
-4.701525	cutting
-4.530883	cycle
-4.654362	cycling
-5.370171	cyclist
-3.342253	d
-4.37474	da
-4.041507	dad
-4.721471	daddy
-3.000761	dah
-4.586999	daily
-5.05425	dak
-5.19746	damage
-3.610767	damn
-3.148636	dan
-4.146911	dance
-5.313444	dancer
-4.77319	dancing
-5.171131	danger
-4.526518	dangerous
-4.518628	dare
-3.702718	dari
-4.029589	dark
-5.291832	darling
-4.735296	dash
-4.36565	data
-3.652617	date
-4.518628	dating
-4.131775	daughter
-3.138003	day
-3.456234	days
-4.544247	de
-4.346584	dead
-4.441942	deadline
-5.459571	deaf
-4.300348	deal
-5.146307	dealer
-5.390856	dealing
-4.534554	dear
-4.506019	death
-5.291832	debate
-4.77319	debit
-5.106012	debt
-5.140316	decade
-5.028208	decent
-4.395648	decide
-4.4098	decided
-4.395648	decision
-4.680387	deck
-4.77704	declaration
-5.167949	declare
-5.336186	decoration
-5.251591	decorative
-4.939181	deduct
-5.360187	deduction
-4.347062	deep
-5.211248	default
-5.146307	defeat
-5.407043	defence
-5.111545	defend
-4.596249	define
-3.849368	definitely
-5.069141	definition
-4.271246	degree
-4.90847	delay
-4.464563	delete
-4.868507	delicious
-4.988699	deliver
-4.736468	delivery
-5.28348	dell
-5.340882	delta
-4.954422	demand
-5.287636	dementia
-5.259346	demi
-4.929921	demise
-5.375251	dental
-5.243972	dentist
-4.972231	depa
-4.485126	department
-4.638152	depend
-4.688719	dependent
-4.806359	depending
-4.309034	deposit
-5.125692	depressed
-5.390856	depressing
-5.012414	depression
-5.300348	depth
-5.401579	derma
-3.82958	describe
-5.171131	description
-5.317898	desert
-5.014635	deserve
-4.239837	design
-4.750786	designer
-5.247765	desire
-4.948644	desk
-5.259346	desperate
-5.331542	despite
-4.77447	dessert
-5.106012	destination
-5.370171	destiny
-5.225488	destress
-5.211248	destroy
-4.636283	detail
-5.300348	detailed
-5.28348	detect
-5.287636	detector
-5.207759	determine
-4.85442	develop
-5.385592	developer
-4.609188	development
-5.225488	device
-5.28348	devil
-5.042218	devote
-5.275286	dewan
-3.176723	di
-5.131483	diabetes
-5.429608	diabetic
-5.267243	diagram
-5.069141	dialect
-5.28348	dialysis
-5.10055	diamond
-5.134408	diarrhea
-5.225488	diary
-5.051816	dictation
-3.11085	did
-5.453411	didnt
-3.901549	die
-4.72603	diet
-3.656895	difference
-3.270563	different
-5.412575	differentiate
-4.597099	differently
-4.010865	difficult
-4.376274	difficulty
-5.008004	dig
-5.36515	digest
-5.291832	digit
-4.660231	digital
-5.00364	dim
-5.025916	dimension
-4.990802	din
-5.375251	ding
-5.184095	dining
-4.124544	dinner
-4.865337	dinosaur
-5.05425	dip
-4.50258	diploma
-4.378842	direct
-4.510879	direction
-4.527243	directly
-4.649531	director
-5.412575	dirt
-4.515089	dirty
-5.317898	disagree
-5.184095	disappear
-4.708073	disappointed
-5.214765	disaster
-4.852883	discipline
-5.459571	disclose
-4.611823	discount
-5.084561	discover
-5.435438	discovered
-4.865337	discovery
-5.345628	discrimination
-4.67628	discuss
-4.978333	discussion
-5.005816	disease
-4.58451	disgusting
-4.401579	dish
-5.350427	disk
-4.586168	dislike
-5.287636	disorder
-5.309034	dispatch
-4.852883	display
-4.698288	distance
-5.435438	distinction
-5.28348	distress
-5.300348	distribution
-5.355279	district
-4.899836	disturb
-5.304669	disturbing
-4.958316	dive
-5.300348	diverse
-4.691885	divide
-5.370171	divided
-5.317898	dividend
-4.796813	diving
-5.296069	division
-4.901549	divorce
-5.180818	dizzy
-2.413244	do
-5.407043	doc
-4.035157	doctor
-4.520052	document
-5.19746	documentary
-5.396184	documentation
-3.593453	does
-3.791186	dog
-4.56987	dogs
-3.431116	doing
-4.98245	doll
-3.631464	dollar
-5.232788	dolphin
-5.200866	dome
-5.137352	don
-4.931757	donate
-5.38039	donation
-3.566285	done
-4.924459	donee
-5.317898	dong
-5.38039	donkey
-5.207759	donor
-4.612704	dont
-3.717295	door
-4.903269	dorm
-4.865337	dormitory
-3.942376	dot
-4.106287	double
-4.926271	doubt
-3.225452	down
-4.770643	downstairs
-4.768111	downtown
-4.82037	draft
-4.878158	drag
-5.396184	dragging
-4.817531	dragon
-5.146307	drain
-4.106287	drama
-4.96821	dramatic
-5.177565	drank
-5.322398	drastically
-4.344675	draw
-4.729482	drawing
-5.453411	drawn
-3.991647	dream
-5.304669	dreamer
-4.343723	dress
-5.459571	dressed
-5.158542	dressing
-5.407043	drew
-5.180818	drill
-3.857667	drink
-4.586168	drinking
-3.981417	drive
-5.407043	driven
-4.300348	driver
-4.437792	driving
-5.360187	drool
-4.070152	drop
-5.039852	dropping
-5.211248	drove
-4.414808	drowsy
-4.997173	drug
-5.211248	drum
-4.845277	drunk
-4.489757	dry
-5.459571	dual
-4.541991	duck
-4.436613	dude
-4.322851	due
-3.802926	duit
-4.884714	dumb
-5.267243	dump
-4.928092	dumpling
-5.146307	duration
-4.110711	durian
-3.704459	during
-5.122826	dust
-4.687669	dustbin
-4.901549	duty
-5.313444	dye
-4.77704	dying
-3.519269	e
-3.775624	each
-5.275286	eagle
-4.798164	ear
-4.096766	early
-4.232052	earn
-4.876535	earning
-5.313444	earpiece
-4.759362	earth
-4.332004	easier
-5.19408	easiest
-4.46582	easily
-4.283894	east
-5.322398	easter
-5.271246	eastern
-3.834553	easy
-3.175334	eat
-4.548795	eaten
-3.977106	eating
-5.345628	eats
-5.317898	echo
-5.171131	economic
-5.071673	economics
-4.929921	economy
-5.146307	edge
-4.765594	edible
-4.878158	edit
-5.331542	edition
-5.300348	educate
-5.119978	educated
-4.10464	education
-5.385592	educational
-4.598806	effect
-5.025916	effective
-5.225488	effects
-5.049397	efficient
-4.45158	effort
-4.280184	egg
-5.025916	ego
-2.841703	eh
-3.168012	eight
-4.208107	eighteen
-5.370171	eighth
-3.961852	eighty
-3.967011	either
-5.263277	el
-4.784842	elaborate
-4.802242	elder
-4.430768	elderly
-5.134408	eldest
-5.164791	election
-4.873306	elective
-5.032828	electric
-5.267243	electrical
-5.106012	electricity
-5.081953	electronic
-5.429608	electronics
-5.390856	element
-4.999318	elephant
-3.895921	eleven
-5.447337	eleventh
-5.350427	eligibility
-4.736468	eligible
-5.355279	elite
-3.558035	else
-4.077812	em
-5.304669	embarrass
-5.134408	embarrassed
-4.268041	embarrassing
-5.221884	embassy
-4.255064	emergency
-5.032828	emotion
-4.79952	emotional
-5.240211	emotionally
-4.846787	employed
-4.288472	employee
-4.437792	employer
-4.788795	employment
-4.38039	empty
-4.060145	en
-3.962642	enam
-5.164791	encounter
-5.00364	encourage
-5.435438	encouraging
-3.453472	end
-4.588666	ended
-4.525073	ending
-5.412575	endless
-5.111545	enemy
-4.447941	energy
-4.833378	engage
-5.016868	engaged
-4.931757	engine
-4.878158	engineer
-4.423856	engineering
-3.842571	enjoy
-4.874917	enjoyable
-4.960277	enjoying
-3.778977	enough
-4.669186	enquire
-4.648571	enquiry
-4.817531	enrichment
-5.429608	enrol
-4.913734	enroll
-5.010203	ensure
-4.531615	enter
-5.149333	entertain
-5.336186	entertaining
-4.399414	entertainment
-4.402123	entire
-5.229123	entitle
-4.866919	entitlement
-5.240211	entity
-4.802242	entrance
-4.85442	entry
-5.360187	envelope
-4.419874	environment
-5.355279	environmental
-4.659247	episode
-4.743568	equal
-5.236484	equally
-4.950561	equipment
-5.106012	equity
-5.042218	equivalent
-2.609547	er
-4.948644	era
-5.317898	erase
-5.267243	eraser
-4.986606	err
-4.633497	error
-5.291832	es
-4.818948	escalate
-5.418179	escalator
-4.668181	escape
-3.942376	especially
-5.087185	esplanade
-4.472161	essay
-5.152381	essence
-5.240211	essential
-5.287636	essentially
-4.692946	estate
-5.247765	eve
-3.107389	even
-4.514384	evening
-4.203954	event
-4.482502	eventually
-3.672313	ever
-3.437202	every
-3.920854	everybody
-3.849216	everyday
-3.833818	everyone
-3.346345	everything
-4.400495	everywhere
-5.355279	evidence
-4.89643	evil
-4.344199	ex
-4.724886	exact
-3.877346	exactly
-4.139425	exam
-5.396184	examination
-3.722492	example
-5.441347	exceed
-4.643804	excel
-5.267243	excellent
-4.471522	except
-5.345628	excess
-4.276098	exchange
-4.76309	excited
-4.715838	exciting
-5.36515	exclamation
-5.304669	exclude
-5.396184	excluding
-4.645705	excuse
-5.263277	execute
-5.322398	executive
-4.146911	exercise
-5.035157	exhibition
-4.800879	exist
-4.881423	exit
-5.407043	exotic
-5.326946	expand
-4.326489	expect
-5.122826	expectation
-3.780533	expensive
-3.81457	experience
-5.001473	experienced
-5.037498	experiment
-5.38039	expert
-5.19408	expire
-5.125692	expiry
-4.209151	explain
-5.317898	explanation
-4.644753	explore
-5.190726	expose
-5.225488	exposed
-5.221884	exposure
-4.515089	express
-5.19408	expression
-4.745961	extend
-4.874917	extended
-5.092482	extension
-4.941058	extent
-5.10055	external
-4.168583	extra
-4.874917	extreme
-5.111545	extremely
-5.296069	ey
-4.404849	eye
-5.214765	eyebrow
-3.642573	f
-5.385592	fa
-3.827404	face
-4.705879	facial
-5.296069	facility
-4.256227	facing
-4.205334	fact
-4.941058	factor
-4.97629	factory
-4.720338	fad
-3.722038	faham
-4.257005	fail
-5.441347	failing
-5.069141	failure
-5.081953	faint
-5.081953	fainting
-4.249291	fair
-5.180818	fairly
-5.103272	fairy
-5.180818	faith
-4.467081	fake
-4.08824	fall
-5.313444	fallen
-4.756895	falling
-4.75322	false
-5.340882	fame
-4.791452	familiar
-3.414584	family
-3.970819	famous
-4.425	fan
-5.081953	fancy
-5.412575	fang
-4.840776	fantastic
-5.103272	fantasy
-3.782486	far
-5.134408	fare
-4.597099	farm
-5.240211	farmer
-5.36515	farming
-4.496459	fashion
-5.350427	fashioned
-3.852883	fast
-4.322398	faster
-4.324666	fat
-5.19746	fate
-3.868825	father
-4.686622	fault
-5.177565	faulty
-4.081433	favorite
-4.679357	fear
-4.735296	feature
-5.106012	fed
-4.417052	fee
-4.749575	feed
-4.527968	feedback
-5.190726	feeding
-3.199568	feel
-4.032132	feeling
-4.321495	fell
-5.042218	fellow
-4.318346	felt
-4.150855	female
-4.874917	fence
-5.229123	ferry
-4.756895	festival
-5.014635	fetch
-4.386115	fever
-3.573484	few
-5.412575	fi
-4.582859	fiction
-5.340882	fictional
-4.497135	field
-5.15545	fierce
-3.935268	fifteen
-4.508095	fifth
-3.574291	fifty
-4.1995	fight
-5.326946	fighter
-4.546515	fighting
-4.716959	figure
-4.651457	file
-4.316111	fill
-4.859066	filled
-5.059157	filling
-4.682456	film
-5.177565	filter
-4.719209	fin
-4.296922	final
-5.423856	finalize
-4.622524	finally
-4.481848	finance
-4.07807	financial
-5.07936	financially
-3.38643	find
-4.740004	finding
-3.80457	fine
-4.705879	finger
-3.847848	finish
-4.704786	finished
-5.304669	finishing
-5.279364	finland
-4.143601	fire
-5.38039	fired
-4.937314	firm
-2.96755	first
-4.828999	firstly
-3.932494	fish
-5.326946	fisherman
-4.527243	fishing
-4.169537	fit
-4.694009	fitness
-5.459571	fitting
-2.880981	five
-4.692946	fix
-4.729482	fixed
-4.597099	flag
-5.435438	flame
-4.637217	flash
-4.409247	flat
-5.240211	flavor
-4.970216	flavour
-5.435438	flew
-4.90847	flexible
-4.540493	flight
-4.879788	flip
-4.941058	float
-5.149333	floating
-4.001473	floor
-5.167949	flour
-4.695075	flow
-4.597952	flower
-5.097844	flu
-5.336186	fluent
-5.429608	fluffy
-4.229123	fly
-4.990802	flyer
-4.475366	flying
-5.370171	foam
-4.35091	focus
-5.322398	fold
-5.071673	folder
-5.287636	folk
-3.872181	follow
-5.291832	follower
-4.57067	following
-3.088583	food
-5.267243	fool
-4.724886	foot
-4.463936	football
-2.261209	for
-4.487104	force
-5.076783	forced
-4.984523	forecast
-5.336186	forehead
-4.481848	foreign
-4.765594	foreigner
-5.418179	foresee
-4.901549	forest
-4.420441	forever
-4.223322	forget
-5.204299	forgive
-4.125692	forgot
-5.21831	forgotten
-5.19408	fork
-3.840627	form
-4.790122	formal
-5.111545	format
-4.89643	formula
-4.77447	forth
-5.453411	fortunate
-5.200866	fortune
-3.799113	forty
-5.232788	forum
-4.343723	forward
-5.119978	foster
-4.069141	found
-4.794125	foundation
-5.174336	fountain
-3.017428	four
-4.214059	fourteen
-4.336654	fourth
-4.946735	fox
-4.752001	frame
-5.418179	franc
-5.117149	frank
-5.180818	freak
-3.508512	free
-4.738822	freedom
-5.023636	freeze
-5.317898	frequency
-5.236484	frequent
-5.304669	frequently
-4.260914	fresh
-4.31522	fried
-3.377043	friend
-4.526518	friendly
-4.586168	friendship
-5.158542	frog
-2.817489	from
-3.722265	front
-5.119978	frozen
-4.481195	fruit
-4.894736	fry
-5.084561	fu
-5.326946	fuel
-5.300348	fulfill
-3.745481	full
-4.665183	fully
-3.627976	fun
-4.691885	function
-4.320142	fund
-4.598806	funds
-5.240211	funeral
-3.780923	funny
-5.275286	fur
-5.423856	furious
-5.28348	furniture
-4.153913	further
-5.429608	furthest
-5.300348	fusion
-3.947116	future
-3.515653	g
-5.396184	gadget
-4.704786	gain
-5.180818	galaxy
-5.287636	gallery
-5.259346	gamble
-5.418179	gambling
-3.693265	game
-4.684534	gaming
-5.042218	gang
-4.920854	gangster
-4.670192	gap
-5.251591	garbage
-4.427298	garden
-5.187398	gardening
-5.131483	garlic
-4.865337	gas
-4.700443	gate
-5.097844	gather
-5.076783	gathering
-4.274475	gave
-4.650493	gay
-4.942942	ge
-5.134408	gear
-5.396184	gel
-5.340882	gen
-5.161655	gender
-5.345628	gene
-4.258565	general
-4.627976	generally
-4.836322	generate
-4.144802	generation
-5.453411	generic
-5.407043	generous
-4.944834	genie
-5.287636	genius
-4.480544	genre
-5.259346	gentle
-5.140316	gentleman
-5.345628	genuine
-5.00364	geography
-4.90673	german
-2.85496	get
-3.786814	getting
-4.458951	ghost
-4.855963	giant
-5.103272	giddiness
-4.646658	giddy
-4.387164	gift
-5.164791	gig
-5.158542	ginger
-3.540568	girl
-5.092482	giro
-3.13576	give
-4.103272	given
-4.293522	giving
-5.021369	glad
-4.517209	glass
-4.939181	glasses
-4.86376	global
-5.447337	glory
-5.143301	gloss
-2.531007	go
-4.526518	goal
-4.786156	goat
-3.774342	god
-4.095691	goes
-3.172506	going
-4.972231	gol
-4.483811	gold
-4.60744	golden
-4.515794	golf
-4.148423	gone
-5.225488	gong
-2.837831	good
-4.66718	goodness
-5.05425	goods
-5.092482	gor
-4.646658	gosh
-4.91728	gossip
-2.725297	got
-4.920854	gotten
-3.796274	government
-5.401579	gown
-4.255452	grab
-4.990802	grace
-5.039852	grad
-4.640969	grade
-4.539747	graduate
-5.119978	graduated
-5.095154	graduation
-5.350427	gram
-5.401579	grammar
-4.628891	grand
-4.740004	grandfather
-4.534554	grandma
-4.678329	grandmother
-5.279364	grandpa
-5.291832	grandson
-5.453411	granny
-4.740004	grant
-5.453411	graph
-5.28348	graphic
-4.669186	grass
-5.326946	grateful
-5.309034	gravity
-5.180818	gravy
-5.140316	gray
-3.96841	great
-5.279364	greater
-5.300348	greedy
-3.540568	green
-5.370171	greenish
-4.91728	grew
-3.945593	grey
-4.997173	grill
-5.149333	grocery
-5.211248	groom
-4.920854	gross
-4.427298	ground
-3.75825	group
-4.26844	grow
-4.682456	growing
-5.114338	grown
-5.059157	growth
-5.106012	guarantee
-4.738822	guard
-4.944834	guardian
-3.417446	guess
-5.309034	guessing
-4.846787	guest
-5.326946	guidance
-4.513681	guide
-5.243972	guilty
-4.784842	guitar
-4.515089	gula
-4.911973	gun
-3.961852	guna
-4.488428	guru
-3.481456	guy
-4.219736	gym
-3.738232	h
-3.141956	ha
-4.802242	habit
-5.19746	hack
-3.36555	had
-5.243972	hafiz
-3.823514	hah
-3.893218	hair
-5.167949	hak
-4.572276	halal
-3.782356	half
-4.724886	halfway
-3.94087	hall
-5.336186	ham
-5.296069	hammer
-4.788795	hamster
-5.122826	han
-3.676792	hand
-5.069141	handbag
-5.447337	handicap
-4.367653	handle
-5.221884	handling
-4.67628	handsome
-5.171131	handwriting
-4.619824	hanging
-5.07936	hao
-3.653682	happen
-4.461437	happening
-5.309034	happier
-4.660231	happiest
-5.19746	happily
-4.514384	happiness
-3.625514	happy
-3.612528	hard
-4.660231	harder
-4.886368	hardly
-5.350427	hardware
-5.243972	harm
-5.401579	harmony
-4.839287	harry
-5.232788	harsh
-4.397796	hat
-4.152381	hate
-2.291664	have
-4.158852	hawker
-5.049397	hay
-2.597781	he
-4.016197	head
-4.752001	headache
-5.229123	heading
-5.370171	headphone
-4.322851	health
-4.363655	healthy
-3.790387	hear
-4.826103	hearing
-4.049397	heart
-5.36515	heartbeat
-4.873306	heat
-5.296069	heater
-4.834847	heaven
-5.407043	heavily
-4.550321	heavy
-4.796813	heck
-5.441347	hectic
-5.279364	hedge
-4.821796	height
-5.255452	helicopter
-4.309473	hell
-3.128	hello
-5.267243	helmet
-3.391598	help
-5.023636	helper
-4.920854	helpful
-4.498489	helping
-5.435438	hen
-2.958004	her
-5.171131	herbal
-3.322896	here
-5.042218	heritage
-4.370171	hero
-5.174336	hers
-4.740004	herself
-4.087712	hey
-3.493027	hi
-5.117149	hidden
-4.688719	hide
-3.559907	high
-4.279364	higher
-4.508095	highest
-5.103272	highland
-4.89137	highlight
-5.28348	highly
-5.023636	highway
-5.207759	hike
-4.806359	hill
-3.21586	him
-4.629808	himself
-5.211248	hint
-4.783532	hip
-4.792786	hire
-3.244274	his
-5.360187	historical
-4.270844	history
-4.17627	hit
-5.429608	hitch
-5.255452	hive
-4.868507	ho
-4.263672	hobby
-5.263277	hockey
-3.364602	hold
-5.014635	holder
-4.034457	holding
-4.788795	hole
-4.086659	holiday
-4.860625	holy
-3.389112	home
-5.401579	homeland
-5.401579	homeless
-4.635353	homework
-5.19408	honda
-4.312558	honest
-4.12771	honestly
-5.259346	honesty
-4.462685	honey
-4.962247	honeymoon
-4.06562	hong
-4.929921	honor
-5.016868	hook
-5.317898	hoon
-4.759362	hop
-4.082734	hope
-4.528695	hopefully
-5.200866	horizontal
-5.313444	horn
-4.758127	horrible
-4.573081	horror
-4.736468	horse
-3.991858	hospital
-4.972231	host
-4.80361	hostel
-3.989329	hot
-3.516997	hotel
-3.781183	hour
-3.418348	house
-4.937314	household
-4.939181	housewife
-5.271246	housework
-4.928092	housing
-2.593208	how
-4.740004	however
-4.6057	hub
-5.10877	hug
-4.325121	huge
-3.376274	huh
-5.300348	hulk
-4.795467	hum
-4.12771	human
-5.021369	humble
-3.335021	hundred
-5.412575	hunger
-4.214411	hungry
-5.07936	hunt
-5.005816	hurry
-4.624334	hurt
-4.027978	husband
-5.05425	hut
-5.350427	hybrid
-5.401579	hygiene
-1.566451	i
-4.031437	ice
-5.164791	iceland
-5.326946	icon
-5.180818	id
-3.907077	idea
-4.833378	ideal
-4.855963	identify
-5.095154	identity
-4.752001	idiom
-5.232788	idiot
-5.418179	idle
-5.161655	idol
-2.526178	if
-4.663196	ignore
-5.390856	ikat
-5.350427	ill
-4.89643	illegal
-5.36515	illness
-4.80361	image
-5.255452	imagination
-3.962247	imagine
-5.158542	immediate
-4.548033	immediately
-4.525795	impact
-5.396184	implement
-5.401579	implication
-5.032828	import
-5.317898	importance
-3.766725	important
-4.646658	impossible
-5.15545	impress
-4.595399	impression
-4.630728	impressive
-4.577942	improve
-5.240211	improvement
-2.250758	in
-5.396184	incentive
-5.300348	inch
-4.655334	incident
-4.77833	include
-5.19408	included
-5.190726	inclusive
-4.316556	income
-4.674242	increase
-5.340882	increasing
-5.336186	incredible
-5.267243	incredibly
-4.992916	indeed
-5.453411	independence
-4.828999	independent
-5.441347	index
-4.734127	indicate
-5.214765	indicative
-4.604832	individual
-4.817531	indoor
-4.541991	industrial
-4.50464	industry
-5.336186	infection
-5.137352	infinity
-4.920854	influence
-5.355279	influencer
-4.545002	inform
-3.94181	information
-5.243972	informed
-5.174336	ingredient
-5.15545	initial
-4.792786	initially
-5.360187	initiate
-5.19408	initiative
-4.695075	injured
-5.10877	injury
-5.225488	ink
-5.044598	inn
-4.935454	inner
-5.355279	innocence
-5.225488	innocent
-4.721471	input
-5.167949	insane
-5.36515	insect
-5.38039	insert
-5.38039	inserted
-3.574776	inside
-5.36515	insist
-5.296069	inspiration
-4.992916	inspire
-5.19408	inspired
-4.884714	inspiring
-5.131483	install
-5.313444	instance
-4.827549	instant
-5.025916	instantly
-4.034224	instead
-5.429608	institute
-5.128578	institution
-4.187067	instruction
-4.901549	instructor
-5.044598	instrument
-5.207759	instrumental
-4.535292	insurance
-5.207759	intake
-5.267243	intelligence
-5.287636	intelligent
-5.035157	intend
-5.390856	intending
-5.180818	intense
-5.149333	intention
-5.225488	inter
-4.954422	interact
-5.061632	interaction
-5.275286	interbank
-5.081953	interchange
-4.121685	interest
-4.296069	interested
-3.509137	interesting
-5.19408	interior
-4.635353	intern
-4.90847	internal
-4.475366	international
-4.359694	internship
-5.390856	interrupt
-4.287219	interview
-3.432688	into
-4.628891	introduce
-5.259346	introduction
-5.214765	introvert
-5.317898	invent
-4.986606	invention
-5.390856	inverted
-4.641912	invest
-5.429608	investigate
-5.309034	investigation
-4.481195	investment
-4.992916	invisible
-5.211248	invitation
-4.295218	invite
-4.988699	invoice
-5.010203	involve
-4.814711	involved
-5.21831	ion
-4.831913	iron
-5.441347	irritate
-4.96821	irritating
-1.877799	is
-4.457714	island
-4.12598	issue
-4.988699	issuer
-2.146654	it
-5.385592	itchy
-4.350427	item
-5.291832	itinerary
-3.629808	its
-3.969412	itself
-3.910568	j
-4.720338	jack
-4.834847	jacket
-5.128578	jail
-3.99334	jam
-5.370171	jane
-4.625242	jap
-4.208455	japan
-4.926271	jawab
-5.037498	jay
-4.915504	jazz
-5.081953	jealous
-5.385592	jean
-4.768111	jeans
-5.10055	jeep
-5.36515	jeff
-5.092482	jelly
-5.418179	jenny
-5.008004	jerry
-5.441347	jersey
-5.001473	jet
-5.167949	jimmy
-5.401579	jing
-3.556637	job
-4.866919	joe
-5.326946	joey
-5.174336	jog
-3.894398	join
-5.128578	joining
-4.813308	joint
-4.630728	joke
-5.211248	joker
-5.291832	jordan
-5.243972	journal
-4.866919	journey
-4.798164	joy
-4.66718	judge
-4.618033	juice
-5.211248	juicy
-4.293946	jump
-5.039852	junction
-4.457714	june
-5.008004	jungle
-4.67526	junior
-5.322398	junk
-2.354329	just
-5.36515	justice
-5.447337	justify
-3.254948	k
-4.518628	ka
-4.962247	kai
-4.412018	kaki
-5.021369	kala
-3.97385	kali
-5.36515	kampong
-2.681141	kan
-4.85442	kang
-4.698288	karaoke
-3.372805	kat
-3.834406	kay
-5.304669	kebab
-5.207759	keen
-3.429898	keep
-5.095154	keeper
-4.874917	keeping
-5.322398	kelly
-5.296069	ken
-4.642857	kept
-3.826825	kerana
-5.429608	kettle
-4.137943	key
-4.888029	keyboard
-5.259346	khan
-4.652423	kick
-4.970216	kicking
-5.300348	kidney
-4.368156	kill
-5.240211	killer
-5.177565	killing
-5.177565	kilo
-5.229123	kilometer
-5.037498	kim
-5.429608	kin
-3.030304	kind
-4.836322	kindergarten
-5.089826	kindle
-5.15545	kindly
-5.453411	kindness
-4.373212	king
-5.240211	kingdom
-5.435438	kiosk
-5.174336	kiri
-4.621623	kiss
-4.922653	kit
-4.573081	kitchen
-4.804983	kite
-5.074221	kitty
-4.931757	knee
-4.356746	knew
-4.939181	knife
-5.19408	knitting
-5.360187	knob
-4.827549	knock
-2.279687	know
-4.779625	knowing
-4.542742	knowledge
-4.655334	known
-4.503953	ko
-5.304669	koi
-5.390856	koko
-4.634424	kopi
-4.627976	kos
-4.488428	kosong
-5.019112	kuan
-5.423856	kurung
-5.140316	kurus
-3.691992	l
-3.017719	la
-4.540493	lab
-4.769375	label
-5.184095	labour
-4.970216	lack
-5.453411	ladder
-4.933602	ladies
-3.857822	lady
-5.071673	lag
-5.28348	lagoon
-5.152381	lai
-3.487104	lain
-4.913734	lake
-3.750908	lama
-4.866919	lamb
-4.627976	lame
-4.517209	lamp
-5.229123	lamppost
-5.140316	lan
-4.489092	land
-4.886368	landed
-5.204299	landing
-4.682456	lane
-4.330158	language
-5.158542	lap
-5.042218	lar
-4.845277	large
-4.456481	lari
-5.36515	laser
-3.108881	last
-5.309034	lastly
-3.932494	late
-5.184095	lately
-3.632941	later
-4.224043	latest
-4.376274	laugh
-4.597952	laughing
-5.263277	launch
-5.076783	laundry
-5.255452	lavender
-4.241336	law
-4.517918	lawyer
-4.77447	lay
-5.111545	layer
-5.229123	layout
-4.168583	lazy
-4.640028	lead
-4.782225	leader
-5.049397	leadership
-5.161655	leading
-5.05425	leaf
-4.990802	league
-5.401579	leak
-5.200866	lean
-3.707413	learn
-5.184095	learned
-4.358709	learning
-4.688719	learnt
-5.447337	lease
-3.669991	least
-3.477559	leave
-5.071673	leaves
-4.76685	leaving
-4.673226	lecture
-4.642857	lecturer
-5.423856	led
-4.324212	lee
-3.41548	left
-5.279364	leftover
-4.103272	leg
-4.876535	legal
-5.345628	legally
-4.90673	legend
-4.370171	legit
-4.851351	leisure
-4.90673	lemon
-5.247765	lend
-5.074221	length
-4.992916	lens
-3.999318	less
-4.760602	lesser
-4.245106	lesson
-3.245409	let
-4.028667	letter
-3.768616	level
-4.939181	li
-5.28348	liar
-5.177565	liberal
-4.563518	library
-4.520766	license
-4.467713	lie
-3.215542	life
-5.309034	lifetime
-4.396184	lift
-3.887863	light
-4.919063	lighter
-5.331542	lighting
-5.375251	lightning
-1.847548	like
-4.77704	likely
-5.309034	liking
-5.19746	lily
-4.913734	lim
-5.240211	lime
-4.359694	limit
-4.209151	limited
-4.924459	lin
-3.531981	line
-5.046991	ling
-5.412575	linguistics
-4.368156	link
-5.296069	linked
-4.898129	lion
-4.833378	lip
-5.137352	lipstick
-5.049397	liquid
-5.385592	liquidity
-4.101636	list
-5.304669	listed
-4.011086	listen
-4.483156	listening
-5.122826	lit
-4.300348	literally
-5.221884	literary
-4.950561	literature
-3.730754	little
-3.787342	live
-5.401579	lived
-5.243972	liver
-4.180165	living
-5.355279	lizard
-4.711383	lo
-5.097844	load
-5.236484	loading
-5.326946	loaf
-5.423856	loafer
-4.338997	loan
-5.211248	lobby
-4.999318	lobster
-3.860156	local
-5.429608	locate
-4.46206	location
-4.683493	lock
-5.19408	locked
-5.037498	locker
-5.225488	lodge
-5.355279	loft
-4.047952	log
-5.345628	logged
-4.978333	logic
-5.167949	logical
-4.740004	login
-4.91728	lonely
-3.294497	long
-4.190726	longer
-3.338293	look
-3.709615	looking
-4.911973	loop
-5.103272	loose
-5.187398	lord
-5.134408	lori
-5.204299	lorry
-4.316556	lose
-5.459571	loser
-4.939181	losing
-5.016868	loss
-4.1533	lost
-2.984877	lot
-4.75322	lots
-5.370171	lottery
-4.437202	loud
-5.304669	loudly
-5.313444	lounge
-5.008004	lousy
-3.359349	love
-5.322398	lovely
-4.954422	lover
-5.023636	loving
-3.992916	low
-4.428452	lower
-4.915504	loyal
-5.275286	loyalty
-4.57067	luck
-4.956365	luckily
-4.264067	lucky
-5.059157	luggage
-5.300348	lump
-4.123684	lunch
-5.279364	lung
-5.10055	luxury
-4.524352	lying
-3.323758	m
-4.273261	ma
-4.596249	mac
-4.27732	machine
-4.516501	mad
-4.67628	madam
-3.840329	made
-5.10055	magazine
-4.647614	magic
-4.79952	magical
-4.691885	maid
-4.272454	mail
-3.45158	main
-4.728328	mainly
-4.606569	maintain
-4.672212	maintenance
-4.539747	major
-5.049397	majority
-3.180328	make
-4.710277	maker
-4.184425	making
-5.089826	mala
-4.074732	male
-4.267642	mall
-3.430884	man
-3.110016	mana
-4.339468	manage
-4.479243	management
-4.248909	manager
-4.678329	mandarin
-5.435438	mandatory
-5.229123	manga
-5.071673	mango
-5.401579	manipulate
-5.066623	manner
-4.919063	manual
-3.343581	many
-4.816119	map
-5.429608	maple
-5.152381	marathon
-5.287636	marble
-4.488428	march
-5.322398	maria
-4.706975	marina
-5.046991	marine
-4.196782	mark
-5.10877	marker
-3.93231	market
-4.674242	marketing
-5.360187	marking
-5.164791	maroon
-4.187067	marriage
-4.039616	married
-4.804983	marry
-5.240211	mart
-5.355279	martial
-5.300348	martin
-4.71472	marvel
-5.232788	mary
-5.074221	mas
-3.381477	masa
-5.429608	mash
-5.021369	masjid
-4.66718	mask
-4.939181	mass
-4.89305	massage
-4.302504	master
-4.583684	mat
-4.279364	match
-4.572276	matching
-4.831913	mate
-4.731798	material
-4.255064	maternity
-4.429029	math
-5.225488	mathematics
-4.011971	matter
-4.903269	mature
-5.243972	maturing
-4.935454	maturity
-4.718082	mau
-4.576316	maximum
-5.171131	maxwell
-3.36881	may
-2.899733	maybe
-2.486457	me
-4.03469	meal
-2.813546	mean
-4.213355	meaning
-4.588666	meaningful
-4.848303	meaningless
-4.59202	meant
-5.207759	meanwhile
-5.167949	measure
-4.325577	meat
-4.228029	media
-5.38039	medic
-4.282241	medical
-5.161655	medication
-4.689772	medicine
-5.336186	meditation
-4.910218	medium
-3.7983	meet
-4.249291	meeting
-5.296069	melody
-5.313444	melt
-5.037498	mem
-4.316111	member
-5.180818	membership
-4.3423	memorable
-5.229123	memorize
-4.426148	memory
-4.442538	men
-5.030512	meng
-4.635353	mental
-5.211248	mentality
-5.049397	mentally
-4.285969	mention
-5.326946	mentor
-4.458333	menu
-5.385592	mercy
-5.236484	mere
-5.447337	merge
-5.291832	meriah
-5.375251	merit
-5.355279	merry
-4.986606	mess
-4.113498	message
-5.309034	messenger
-4.952487	messy
-4.266845	met
-4.866919	metal
-4.846787	meter
-4.960277	method
-4.635353	mi
-5.459571	mice
-5.296069	micro
-5.271246	microphone
-4.486444	mid
-4.076526	middle
-4.86376	midnight
-3.757018	might
-5.171131	migrate
-5.005816	mike
-5.291832	mild
-5.005816	mile
-5.309034	military
-4.27732	milk
-3.966213	million
-5.271246	millionaire
-5.313444	millions
-4.494437	milo
-5.221884	min
-3.50526	mind
-5.221884	minded
-3.298546	mine
-5.435438	mineral
-5.146307	ming
-5.167949	minibus
-5.407043	minimal
-4.598806	minimum
-4.98245	minister
-4.878158	ministry
-4.884714	minor
-5.331542	minority
-5.385592	mint
-4.581214	minus
-3.933602	minute
-5.313444	miracle
-4.743568	mirror
-4.995039	mismatch
-3.852883	miss
-4.4773	missing
-4.915504	mission
-4.685576	mistake
-4.196105	mister
-4.258174	mix
-4.899836	mixed
-5.326946	mixture
-4.898129	mo
-4.515089	mobile
-5.152381	modal
-4.752001	mode
-4.517209	model
-4.647614	modern
-4.620722	module
-3.671403	moment
-5.390856	mommy
-3.261071	money
-4.582859	monitor
-4.878158	monkey
-5.042218	monster
-3.678124	month
-4.630728	monthly
-4.615361	mood
-4.741189	moon
-5.309034	moonlight
-5.171131	mop
-4.722606	moral
-2.850236	more
-5.005816	morgan
-3.653198	morning
-5.38039	morris
-5.336186	mosque
-3.18482	most
-4.299918	mostly
-3.794393	mother
-5.453411	motherland
-4.962247	motion
-5.10877	motivate
-5.092482	motivation
-4.387164	motor
-5.00364	motorcycle
-4.89643	motto
-5.097844	mount
-4.627063	mountain
-5.046991	mouse
-4.379874	mouth
-3.705988	move
-4.879788	movement
-3.654848	movie
-4.130028	moving
-4.795467	mu
-3.132622	much
-5.300348	mud
-5.370171	muffin
-5.035157	multiple
-5.204299	multiply
-3.840627	mum
-4.734127	mummy
-5.304669	murder
-4.731798	murid
-4.960277	muscle
-4.613588	museum
-5.035157	mushroom
-3.808709	music
-4.813308	musical
-5.313444	musician
-3.400008	must
-5.331542	mustard
-5.447337	mutant
-5.008004	mutton
-5.171131	mutual
-2.294217	my
-3.699904	myself
-5.10877	mystery
-3.532568	n
-4.77447	na
-5.326946	nag
-3.939182	naik
-5.247765	nail
-2.760701	nak
-4.988699	naked
-3.274029	name
-4.834847	nana
-5.375251	nanny
-5.149333	nap
-5.429608	narrow
-3.676076	nasi
-5.291832	nasty
-5.05425	nation
-4.287636	national
-5.418179	nationality
-5.360187	native
-4.447337	natural
-4.956365	naturally
-4.328778	nature
-5.059157	naughty
-5.429608	navy
-3.82151	near
-4.498489	nearby
-4.600519	nearest
-5.066623	nearly
-5.158542	necessarily
-4.651457	necessary
-4.913734	neck
-5.035157	necklace
-2.884615	need
-4.339468	needs
-5.435438	needy
-4.586999	negative
-5.097844	neighbor
-4.894736	neighborhood
-5.134408	neither
-5.19408	nephew
-5.232788	nervous
-4.417052	net
-5.023636	netball
-4.839287	network
-5.140316	neutral
-3.095879	never
-3.361868	new
-4.258174	news
-4.76434	newspaper
-4.990802	newton
-3.111406	next
-2.982182	ni
-3.232089	nice
-5.021369	nicely
-5.28348	nick
-4.879788	nickname
-5.200866	niece
-3.704459	night
-5.326946	nightmare
-5.174336	nights
-3.084666	nine
-4.192735	nineteen
-3.993552	ninety
-5.251591	ninth
-2.340745	no
-4.060145	nobody
-4.811909	noise
-4.876535	noisy
-5.326946	nominal
-4.227302	non
-4.721471	none
-4.709173	nonsense
-4.520766	noodle
-4.59034	nope
-4.89305	nor
-5.211248	norm
-3.704132	normal
-3.981005	normally
-4.257784	north
-5.279364	northern
-4.683493	nose
-2.354997	not
-4.202579	note
-5.106012	noted
-3.546818	nothing
-4.368156	notice
-5.171131	notification
-5.370171	notify
-5.164791	notional
-5.122826	noun
-5.07936	novel
-5.069141	novice
-2.724532	now
-4.06462	nowadays
-5.014635	nowhere
-5.441347	nuclear
-5.38039	nugget
-5.128578	numb
-3.089985	number
-5.06412	nun
-4.534554	nurse
-5.143301	nursery
-4.878158	nursing
-5.322398	nut
-5.38039	nutrition
-3.374434	o
-4.284308	object
-5.259346	objective
-5.214765	observe
-5.200866	obtain
-4.813308	obvious
-4.245485	obviously
-5.309034	occasion
-5.423856	occasionally
-4.782225	ocean
-5.423856	octopus
-5.125692	odd
-2.185853	of
-3.579739	off
-4.117431	offer
-5.390856	offering
-3.82567	office
-3.873628	officer
-5.005816	official
-5.423856	officially
-5.313444	offshore
-4.375762	often
-2.335907	oh
-4.46331	oil
-4.924459	oily
-3.331264	old
-5.345628	olden
-4.264463	older
-5.19408	olive
-5.345628	omelette
-2.457368	on
-3.615627	once
-2.193273	one
-5.453411	ongoing
-5.023636	onion
-2.901377	only
-4.703697	onto
-4.931757	onwards
-5.396184	opah
-3.545909	open
-4.615361	opening
-5.21831	opera
-5.38039	operate
-5.28348	operating
-4.952487	operation
-4.401037	operator
-4.594552	opinion
-5.429608	opponent
-4.636283	opportunity
-4.352362	opposite
-4.598806	option
-2.500953	or
-4.980387	oral
-2.797583	orang
-4.147818	orange
-4.339939	orchard
-5.066623	orchestra
-3.745362	order
-5.059157	ordered
-5.200866	ordinary
-5.317898	organ
-5.106012	organic
-5.255452	organization
-5.016868	organize
-5.447337	organizer
-4.942942	orientation
-4.737643	origin
-4.317003	original
-3.079179	other
-4.613588	otherwise
-5.459571	ouch
-3.212616	our
-4.826103	ours
-5.38039	ourself
-4.791452	ourselves
-2.948739	out
-5.161655	outbreak
-4.986606	outcome
-4.913734	outdoor
-5.459571	outdoors
-5.200866	outer
-4.956365	outfit
-5.247765	outgoing
-5.07936	outing
-4.699365	outlet
-5.15545	outline
-5.225488	outlook
-5.084561	output
-3.881096	outside
-5.174336	outstanding
-5.061632	oven
-3.379667	over
-4.834847	overall
-5.167949	overcome
-5.441347	overhead
-5.360187	overlap
-5.143301	overload
-4.98245	overnight
-4.999318	oversea
-4.105463	overseas
-5.232788	overtime
-5.350427	overweight
-5.232788	owe
-3.564149	own
-4.72603	owner
-5.412575	ownself
-4.855963	oxygen
-5.056696	oyster
-3.310529	p
-4.658266	pa
-4.974256	pace
-5.423856	pacemaker
-5.19408	pacific
-4.544247	pack
-4.691885	package
-4.958316	packet
-4.472161	pad
-4.296922	page
-5.061632	pail
-3.92482	pain
-4.794125	painful
-4.886368	paint
-4.904996	painting
-4.578758	pair
-5.240211	palace
-5.049397	pale
-3.824806	paling
-5.300348	palm
-5.044598	pan
-5.390856	panama
-4.86376	pancake
-4.697215	panda
-4.952487	pandan
-4.804983	panel
-5.275286	pang
-5.044598	panic
-5.317898	pant
-5.407043	panther
-4.121685	pants
-5.146307	papa
-4.052059	paper
-5.084561	par
-5.066623	para
-4.948644	parade
-5.200866	paradise
-5.10877	pardon
-4.209849	parent
-4.928092	parental
-3.927546	park
-4.836322	parking
-3.457529	part
-5.412575	partial
-4.610942	participate
-4.321043	particular
-5.304669	particularly
-5.418179	partly
-4.101093	partner
-4.137352	party
-4.903269	pasang
-3.718983	pass
-5.081953	passenger
-4.740004	passing
-4.571472	passion
-5.174336	passionate
-5.180818	passive
-4.371689	passport
-5.016868	password
-3.947688	past
-4.77704	paste
-5.304669	pat
-4.990802	patch
-4.653391	paternity
-4.745961	path
-4.8701	patience
-3.866127	patient
-4.810515	pattern
-4.931757	pause
-5.103272	pavement
-5.300348	pavilion
-3.513049	pay
-4.450971	paying
-4.050121	payment
-5.119978	pea
-4.76434	peace
-5.097844	peaceful
-4.574695	peach
-4.646658	peak
-5.122826	peanut
-4.740004	pear
-5.059157	pearl
-4.903269	pee
-5.146307	peek
-5.331542	peel
-5.021369	peer
-5.174336	peeve
-5.423856	peggy
-5.412575	pekan
-4.56273	pen
-5.322398	penalty
-4.304235	penang
-4.920854	pencil
-5.125692	pending
-5.304669	penguin
-5.447337	pension
-2.889897	people
-4.860625	pepper
-4.051816	per
-3.74885	percent
-4.974256	percentage
-5.267243	perception
-4.226213	perfect
-5.322398	perfectly
-4.743568	perform
-4.597099	performance
-5.19408	perfume
-4.770643	perhaps
-4.043406	period
-5.005816	permanent
-5.441347	permission
-4.966213	permit
-5.236484	perpetual
-3.244955	person
-3.918527	personal
-4.516501	personality
-4.552621	personally
-4.782225	perspective
-5.05425	pertaining
-4.142703	pet
-4.944834	peter
-4.879788	petrol
-5.271246	petty
-4.379874	pharmacy
-4.960277	phase
-5.309034	philosophy
-3.529351	phone
-4.227665	photo
-5.390856	photocopy
-5.441347	photograph
-5.255452	photography
-4.329238	phrase
-4.495784	physical
-4.933602	physically
-4.695075	physics
-4.848303	pi
-4.589502	piano
-3.986189	pick
-5.152381	picked
-5.429608	picky
-4.8717	picnic
-3.829144	picture
-4.408144	pie
-4.371182	piece
-4.677304	pig
-5.291832	pigeon
-5.267243	pile
-5.131483	pill
-5.016868	pillow
-4.800879	pilot
-4.700443	pin
-4.684534	pinang
-5.187398	pineapple
-4.941058	ping
-3.897109	pink
-5.296069	pinkish
-4.649531	pioneer
-5.240211	pipe
-4.618033	pisang
-5.418179	piss
-5.255452	pit
-5.071673	pitch
-5.122826	pity
-4.286385	pizza
-3.354256	place
-4.703697	plain
-3.845126	plan
-4.77833	plane
-5.158542	planet
-5.396184	plank
-4.818948	plant
-4.599661	plastic
-4.626151	plate
-4.742377	platform
-3.407703	play
-4.467081	player
-5.36515	playful
-4.712493	playground
-4.831913	plaza
-5.418179	pleasant
-3.395702	please
-5.435438	pleasure
-5.396184	plenty
-4.995039	plot
-5.177565	pluck
-5.15545	plug
-4.944834	plum
-3.674343	plus
-5.350427	po
-4.830453	pocket
-3.275692	point
-5.240211	pointer
-4.639089	pointing
-5.418179	poison
-5.089826	poke
-5.418179	poker
-5.207759	polar
-4.690828	pole
-4.292676	police
-4.851351	policy
-4.6057	polis
-5.187398	polish
-5.418179	polite
-4.995039	political
-4.809125	politics
-5.076783	polo
-4.044598	poly
-4.984523	polyclinic
-5.092482	polytechnic
-5.291832	pon
-5.071673	pond
-5.087185	pong
-4.321043	pool
-4.25044	poor
-4.3423	pop
-4.818948	popcorn
-4.274475	popular
-4.974256	population
-4.613588	pork
-4.745961	porridge
-4.80774	port
-5.232788	portable
-4.620722	portal
-4.47601	portfolio
-4.648571	portion
-4.89305	pose
-4.265255	position
-4.464563	positive
-4.76434	possession
-5.232788	possibility
-4.085347	possible
-5.221884	possibly
-3.952101	post
-4.449151	postal
-5.071673	posted
-4.603966	poster
-5.38039	posting
-4.747162	pot
-4.356746	potato
-4.719209	potatoes
-5.071673	potential
-4.514384	potong
-5.111545	potter
-4.910218	pound
-4.988699	pour
-4.750786	powder
-3.94181	power
-5.095154	powerful
-4.787474	practical
-5.304669	practically
-4.60744	practice
-5.418179	praise
-5.167949	pram
-5.355279	prank
-4.732961	prawn
-4.783532	pray
-5.251591	prayer
-5.177565	precious
-5.089826	precisely
-5.385592	predict
-5.441347	prefect
-4.085085	prefer
-5.035157	preference
-5.370171	preferred
-4.950561	pregnant
-5.084561	premium
-5.355279	preparation
-4.371689	prepare
-4.886368	prepared
-5.401579	preschool
-4.575505	present
-4.771915	presentation
-5.012414	preserve
-4.966213	president
-4.36565	press
-5.418179	pressing
-4.432513	pressure
-5.014635	pretend
-3.888862	pretty
-4.852883	prevent
-4.306847	previous
-4.495784	previously
-3.910919	price
-5.36515	pride
-3.795736	primary
-4.942942	prime
-5.164791	prince
-4.944834	princess
-5.117149	principal
-5.259346	principle
-4.626151	print
-5.21831	prior
-4.970216	priority
-4.874917	prison
-5.19746	privacy
-4.258174	private
-5.19408	privilege
-5.137352	prize
-4.372704	pro
-5.340882	probability
-3.537959	probably
-3.596759	problem
-4.77319	procedure
-4.188394	proceed
-4.203266	process
-5.340882	procrastinate
-4.988699	procrastinating
-4.89137	produce
-5.350427	producer
-4.447941	product
-4.894736	production
-5.117149	productive
-4.935454	prof
-5.331542	profession
-4.472161	professional
-4.831913	professor
-4.970216	profile
-4.999318	profit
-4.37474	program
-4.79952	progress
-4.147213	project
-5.076783	promise
-4.883066	promote
-5.375251	promoter
-4.61625	promotion
-5.092482	prompt
-4.884714	pronounce
-4.986606	proof
-5.207759	proofread
-5.412575	propaganda
-4.50258	proper
-4.401037	properly
-4.593707	property
-4.806359	proposal
-5.255452	propose
-5.074221	prospectus
-4.999318	protect
-5.146307	protection
-5.435438	protective
-4.933602	protein
-4.974256	prove
-4.30164	provide
-4.784842	provided
-5.390856	provider
-5.459571	providing
-4.578758	provoking
-4.926271	psychology
-4.8717	puan
-4.621623	pub
-4.189392	public
-5.275286	publish
-5.177565	pudding
-5.204299	puff
-4.436613	pull
-5.385592	pulse
-4.999318	pump
-5.345628	pumpkin
-2.904512	pun
-5.046991	punch
-5.429608	punishment
-5.049397	puppy
-4.884714	purchase
-4.771915	pure
-5.263277	purely
-4.271246	purple
-4.425574	purpose
-4.956365	purposely
-5.056696	pursue
-4.144501	push
-4.80361	pushing
-3.215754	put
-5.423856	puzzle
-3.882737	q
-5.453411	qualification
-5.418179	qualified
-5.071673	qualify
-4.444931	quality
-5.313444	quantity
-4.926271	quarantine
-5.200866	quarrel
-4.517209	quarter
-5.38039	quay
-4.780923	queen
-5.375251	query
-5.396184	quest
-3.186471	question
-5.407043	questionnaire
-4.091417	queue
-4.520052	quick
-4.593707	quickly
-4.457714	quiet
-4.564307	quit
-3.040182	quite
-4.884714	quiz
-4.889696	quote
-3.680078	r
-5.390856	ra
-4.662205	rabbit
-4.663196	race
-5.236484	racial
-5.255452	racing
-5.240211	racist
-5.336186	rack
-5.032828	racket
-4.472161	radio
-5.300348	raid
-4.493765	rain
-5.211248	rainbow
-5.322398	rainy
-4.775753	raise
-5.435438	raised
-5.211248	raising
-5.171131	raja
-4.654362	rakan
-5.453411	ram
-4.828999	ran
-4.456481	random
-5.134408	randomly
-4.700443	range
-4.960277	rank
-4.444332	rap
-4.735296	rare
-4.98245	rarely
-3.203163	rasa
-5.401579	rat
-5.134408	rata
-3.937686	rate
-5.259346	rated
-3.996746	rather
-5.069141	rating
-5.291832	ratio
-5.441347	ration
-4.765594	raw
-5.056696	ray
-4.030512	raya
-4.563518	re
-4.182782	reach
-5.243972	reaching
-4.79952	react
-5.010203	reaction
-3.65807	read
-4.214765	reading
-4.192735	ready
-3.889195	real
-5.106012	realistic
-4.845277	reality
-4.389798	realize
-2.764428	really
-3.970417	reason
-5.066623	reasonable
-5.345628	rebate
-4.91728	rebel
-5.304669	rebellious
-4.76309	rebus
-4.784842	recall
-4.942942	receipt
-4.058417	receive
-4.06412	received
-4.522914	recent
-3.939931	recently
-5.300348	reception
-4.525795	recess
-5.396184	recheck
-4.792786	recipe
-5.336186	recognition
-5.240211	recognize
-4.485784	recommend
-5.36515	recommendation
-5.313444	reconfirm
-4.257005	record
-4.50879	recording
-4.997173	recover
-5.435438	recovery
-5.345628	recruit
-4.966213	rectangle
-5.21831	rectangular
-5.177565	recycle
-3.537514	red
-5.453411	reddish
-5.251591	redeem
-5.390856	redemption
-5.291832	redo
-4.935454	reduce
-4.696144	refer
-4.286802	reference
-5.152381	reflect
-5.412575	reflected
-5.370171	reflection
-4.98245	refresh
-4.833378	refund
-5.071673	refuse
-4.117149	regarding
-5.092482	regardless
-5.243972	region
-4.548795	register
-4.770643	registered
-4.90673	registration
-4.652423	regret
-4.843771	regular
-5.259346	regularly
-5.447337	rehearsal
-5.05425	reimbursement
-4.680387	reject
-5.396184	rejection
-4.842271	relate
-4.323304	related
-5.370171	relation
-4.196105	relationship
-5.010203	relative
-5.207759	relatively
-4.164476	relax
-5.271246	relaxed
-4.653391	release
-4.623428	relevant
-5.418179	reliable
-5.190726	relief
-5.279364	relieve
-4.755666	religion
-4.931757	religious
-4.988699	relive
-5.174336	rely
-5.177565	remain
-3.428798	remember
-4.89643	remind
-4.67628	remit
-4.690828	remittance
-5.271246	remix
-5.180818	remote
-4.728328	remove
-4.747162	renew
-5.240211	renewal
-5.401579	renovate
-5.236484	renovation
-4.50879	rent
-4.82037	rental
-5.05425	repair
-4.092749	repeat
-5.071673	replace
-5.122826	replacement
-4.304669	reply
-4.208803	report
-5.355279	reporter
-5.259346	represent
-5.087185	republic
-5.36515	reputation
-4.477947	request
-4.68142	require
-4.827549	requirement
-5.313444	rescue
-4.323758	research
-5.146307	reserve
-5.423856	reserved
-5.429608	reservist
-5.046991	reservoir
-5.010203	reset
-4.849825	resident
-5.412575	residential
-4.995039	resign
-4.77704	resort
-5.066623	resource
-4.585338	respect
-4.784842	respond
-4.888029	response
-4.984523	responsibility
-5.089826	responsible
-3.999318	rest
-4.226575	restaurant
-5.225488	resting
-5.459571	restriction
-4.445531	result
-4.970216	resume
-5.119978	retail
-5.390856	retain
-5.453411	retake
-5.279364	retarded
-5.180818	retell
-4.962247	retire
-5.275286	retired
-5.313444	retirement
-5.296069	retrieve
-5.390856	retrospect
-4.332004	return
-5.401579	reveal
-5.360187	revenue
-5.146307	reverse
-4.687669	review
-5.19746	revise
-5.240211	revision
-5.407043	revolution
-5.200866	reward
-5.396184	rhythm
-5.38039	rib
-5.10877	ribbon
-3.818381	rice
-4.239463	rich
-5.275286	rid
-4.358217	ride
-5.15545	rider
-4.625242	ridiculous
-4.962247	riding
-2.384494	right
-4.629808	ring
-4.901549	rise
-5.412575	rising
-4.056696	risk
-5.360187	risky
-4.541991	river
-3.731566	road
-5.279364	roadside
-5.05425	roast
-4.730638	robot
-4.203954	rock
-5.19746	rod
-5.36515	roger
-4.398335	role
-4.455865	roll
-4.690828	roller
-5.19746	rolling
-4.889696	romance
-4.740004	romantic
-4.485784	roof
-3.731566	room
-5.05425	roomie
-5.097844	roommate
-5.010203	root
-5.267243	rope
-4.736468	rose
-5.106012	rough
-4.369162	roughly
-4.28931	round
-4.941058	route
-4.956365	routine
-4.814711	row
-5.095154	royal
-5.279364	rub
-5.134408	rubber
-4.458951	rubbish
-5.092482	ruby
-4.737643	rude
-5.418179	ruin
-4.878158	rule
-5.232788	ruler
-3.851504	run
-5.164791	runner
-4.200866	running
-5.010203	rupa
-5.322398	rural
-4.514384	rush
-4.410908	rushing
-5.008004	russia
-5.396184	rusty
-3.099546	s
-4.740004	sa
-4.804983	sack
-5.032828	sacrifice
-3.842272	sad
-5.322398	sadly
-5.28348	sadness
-4.748367	safari
-4.421576	safe
-4.742377	safety
-5.401579	sah
-3.378842	said
-5.158542	saint
-4.928092	sake
-4.643804	salad
-4.377299	salary
-4.433096	sale
-4.883066	salmon
-4.874917	salt
-4.926271	salted
-5.056696	salty
-5.00364	sam
-4.302936	sambal
-3.135201	same
-4.913734	sample
-5.044598	san
-4.453411	sand
-4.868507	sandwich
-5.171131	sandy
-5.207759	sang
-4.926271	sapa
-5.350427	sarcastic
-5.459571	sari
-4.663196	sat
-4.962247	sate
-5.251591	satisfaction
-5.07936	satisfied
-5.429608	satisfy
-5.453411	satisfying
-4.401037	sauce
-5.084561	sausage
-4.006472	save
-5.149333	saved
-4.661217	saving
-3.673429	saw
-5.232788	sawing
-2.708953	say
-2.550696	saya
-3.678637	saying
-5.114338	scale
-5.095154	scam
-4.859066	scan
-5.326946	scar
-4.860625	scare
-5.412575	scarf
-4.190392	scary
-4.851351	scenario
-4.621623	scene
-4.942942	scenery
-4.467713	schedule
-4.637217	scheme
-4.990802	scholarship
-3.183142	school
-5.207759	schooling
-4.097844	science
-5.423856	scientific
-5.229123	scientist
-5.134408	scissors
-4.618033	scold
-5.19746	scolding
-5.345628	scoop
-5.331542	scooter
-5.051816	scope
-4.553391	score
-4.999318	scratch
-5.049397	scream
-5.177565	screaming
-4.481848	screen
-4.931757	screw
-5.340882	screwed
-5.200866	script
-5.001473	scroll
-5.345628	scrub
-4.309034	se
-4.225851	sea
-5.143301	seal
-4.311675	search
-5.200866	searching
-4.362661	season
-4.249291	seat
-5.418179	seated
-5.38039	seater
-5.128578	seaweed
-4.286385	sec
-3.540269	second
-3.837654	secondary
-5.204299	secondly
-4.697215	secret
-4.558815	section
-5.074221	sector
-5.247765	secure
-4.349463	security
-2.761458	see
-5.046991	seed
-4.481848	seeing
-4.884714	seek
-4.588666	seem
-4.068384	seen
-5.128578	seesaw
-5.214765	segment
-4.798164	seldom
-4.758127	select
-5.010203	selected
-5.340882	selection
-4.124257	self
-4.972231	selfish
-3.860781	sell
-5.291832	seller
-4.386639	selling
-4.384546	semester
-4.946735	semi
-4.830453	seminar
-4.944834	sen
-3.591095	send
-4.756895	sending
-4.413132	senior
-3.867395	sense
-4.724886	sensitive
-5.190726	sensor
-4.290569	sent
-4.348501	sentence
-4.89137	sentimental
-4.731798	separate
-5.304669	separately
-5.069141	serai
-5.042218	sergeant
-4.631649	series
-4.037028	serious
-4.313444	seriously
-5.267243	serta
-5.267243	servant
-4.499169	serve
-5.00364	server
-3.71752	service
-5.06412	serving
-5.429608	sesame
-4.520766	session
-5.326946	sessions
-3.97629	set
-4.813308	setting
-4.408695	settle
-5.243972	settled
-5.119978	settlement
-3.193306	seven
-4.348021	seventeen
-5.074221	seventh
-4.013968	seventy
-5.296069	several
-5.059157	severe
-5.447337	sewing
-4.89137	sex
-5.21831	sexual
-5.103272	sexy
-5.184095	sh
-4.422715	shack
-4.952487	shade
-5.184095	shadow
-5.131483	shag
-4.86219	shah
-4.728328	shake
-5.221884	shaking
-4.279364	shall
-5.375251	shame
-5.232788	shampoo
-4.79952	shanghai
-4.438382	shape
-3.909518	share
-4.533082	shark
-4.980387	sharp
-5.300348	shave
-5.15545	shaw
-2.680738	she
-5.187398	shed
-4.36565	sheep
-4.677304	sheet
-5.240211	shelf
-4.715838	shell
-5.211248	shellfish
-4.85442	shelter
-4.8701	shi
-5.350427	shield
-4.479243	shift
-4.436613	shine
-5.313444	shining
-4.622524	ship
-5.232788	shipping
-4.027978	shirt
-5.21831	shivering
-4.596249	shock
-5.390856	shocking
-4.240586	shoe
-4.353818	shoot
-5.453411	shooter
-4.874917	shooting
-3.539672	shop
-3.585255	shopping
-4.683493	shore
-3.873789	short
-5.10055	shorter
-5.211248	shortly
-5.360187	shortness
-4.515794	shorts
-4.66718	shot
-3.141986	should
-4.997173	shoulder
-4.86219	shout
-4.89305	shouting
-5.049397	shovel
-3.600691	show
-4.700443	shower
-4.71472	showing
-5.313444	shown
-5.401579	shrink
-5.111545	shrunk
-4.928092	shuffle
-4.659247	shut
-5.10055	shuttle
-4.849825	shy
-4.523633	si
-5.10055	sial
-4.952487	sibling
-4.344199	sick
-5.204299	sickness
-3.404521	side
-5.412575	sided
-4.966213	sides
-4.889696	sideways
-5.143301	sigh
-5.06412	sight
-3.665681	sign
-4.96821	signal
-5.046991	signature
-4.464563	signboard
-5.184095	significance
-4.76685	significant
-5.149333	silence
-5.014635	silent
-4.240961	silly
-4.873306	silver
-4.350427	similar
-4.970216	similarity
-4.112102	simple
-4.992916	simply
-5.304669	sin
-3.742139	since
-5.407043	sincere
-3.882737	sing
-4.806359	singer
-4.589502	singing
-3.988489	single
-5.435438	singlet
-5.300348	sink
-3.920137	sir
-4.952487	sis
-3.981211	sister
-3.971222	sit
-4.668181	site
-4.079102	sitting
-4.15116	situation
-3.081953	six
-4.140316	sixteen
-4.857512	sixth
-3.915681	sixty
-4.15116	size
-5.247765	skate
-5.180818	skating
-5.360187	sketch
-5.122826	sketchbook
-5.355279	ski
-4.399414	skill
-5.326946	skim
-4.255452	skin
-5.032828	skinny
-4.257005	skip
-5.453411	skipping
-4.628891	skirt
-4.501213	sky
-4.788795	slack
-5.418179	slam
-5.287636	slang
-5.117149	slap
-4.657287	slash
-3.895751	sleep
-4.382463	sleeping
-4.913734	sleepy
-4.796813	sleeve
-5.134408	slept
-5.097844	slice
-4.749575	slide
-5.146307	slight
-4.411463	slightly
-5.028208	slim
-4.935454	slip
-4.962247	slipper
-4.8717	slogan
-5.19746	slope
-5.039852	slot
-4.263277	slow
-4.360187	slowly
-3.577291	small
-4.410908	smaller
-4.23909	smart
-5.385592	smash
-4.520052	smell
-4.978333	smelly
-4.703697	smile
-5.021369	smiling
-5.174336	smith
-4.37474	smoke
-4.813308	smoking
-4.904996	smooth
-4.823227	snack
-4.86219	snake
-5.131483	snap
-5.453411	snatch
-4.997173	sneak
-5.287636	sniffing
-4.813308	snow
-1.988645	so
-5.412575	soak
-5.164791	soap
-4.19408	soccer
-3.903441	social
-4.303369	society
-5.336186	sociology
-4.868507	sock
-5.010203	sofa
-4.330619	soft
-5.390856	softball
-5.412575	soil
-5.418179	solar
-4.809125	sold
-5.317898	soldier
-5.331542	sole
-5.287636	solemnization
-5.134408	solid
-4.672212	solo
-4.874917	solution
-4.791452	solve
-2.974317	some
-4.131775	somebody
-5.385592	someday
-4.481848	somehow
-3.563597	someone
-5.089826	somerset
-2.955761	something
-4.076269	sometime
-3.56995	sometimes
-5.137352	somewhat
-4.15545	somewhere
-4.068384	son
-3.999318	song
-4.109046	soon
-5.225488	sore
-3.260875	sorry
-4.152993	sort
-4.730638	soul
-4.092482	sound
-4.208803	soup
-4.966213	sour
-4.845277	source
-4.507402	south
-5.453411	southeast
-5.429608	southern
-5.267243	souvenir
-5.385592	soy
-5.097844	soya
-4.894736	spa
-4.241712	space
-5.06412	spade
-4.868507	spaghetti
-5.350427	span
-5.014635	spare
-5.375251	spark
-3.744046	speak
-4.701525	speaker
-4.002122	speaking
-5.36515	spec
-4.03005	special
-5.21831	specialist
-5.412575	specially
-5.38039	species
-4.443135	specific
-5.005816	specifically
-5.114338	specs
-5.291832	spectacles
-4.646658	speech
-4.59034	speed
-4.57067	spell
